{"learner":{"attributes":{"scikit_learn":"{\"_estimator_type\": \"classifier\"}"},"feature_names":["return_mean","return_std","return_last","volatility_mean","volatility_std","volatility_last","ema_5_mean","ema_5_std","ema_5_last","ema_15_mean","ema_15_std","ema_15_last","total_OI_change_mean","total_OI_change_std","total_OI_change_last","regime_pnl_mean","regime_pnl_std"],"feature_types":["float","float","float","float","float","float","float","float","float","float","float","float","float","float","float","float","float"],"gradient_booster":{"model":{"cats":{"enc":[],"feature_segments":[],"sorted_idx":[]},"gbtree_model_param":{"num_parallel_tree":"1","num_trees":"400"},"iteration_indptr":[0,1,2,3,4,5,6,7,8,9,10,11,12,13,14,15,16,17,18,19,20,21,22,23,24,25,26,27,28,29,30,31,32,33,34,35,36,37,38,39,40,41,42,43,44,45,46,47,48,49,50,51,52,53,54,55,56,57,58,59,60,61,62,63,64,65,66,67,68,69,70,71,72,73,74,75,76,77,78,79,80,81,82,83,84,85,86,87,88,89,90,91,92,93,94,95,96,97,98,99,100,101,102,103,104,105,106,107,108,109,110,111,112,113,114,115,116,117,118,119,120,121,122,123,124,125,126,127,128,129,130,131,132,133,134,135,136,137,138,139,140,141,142,143,144,145,146,147,148,149,150,151,152,153,154,155,156,157,158,159,160,161,162,163,164,165,166,167,168,169,170,171,172,173,174,175,176,177,178,179,180,181,182,183,184,185,186,187,188,189,190,191,192,193,194,195,196,197,198,199,200,201,202,203,204,205,206,207,208,209,210,211,212,213,214,215,216,217,218,219,220,221,222,223,224,225,226,227,228,229,230,231,232,233,234,235,236,237,238,239,240,241,242,243,244,245,246,247,248,249,250,251,252,253,254,255,256,257,258,259,260,261,262,263,264,265,266,267,268,269,270,271,272,273,274,275,276,277,278,279,280,281,282,283,284,285,286,287,288,289,290,291,292,293,294,295,296,297,298,299,300,301,302,303,304,305,306,307,308,309,310,311,312,313,314,315,316,317,318,319,320,321,322,323,324,325,326,327,328,329,330,331,332,333,334,335,336,337,338,339,340,341,342,343,344,345,346,347,348,349,350,351,352,353,354,355,356,357,358,359,360,361,362,363,364,365,366,367,368,369,370,371,372,373,374,375,376,377,378,379,380,381,382,383,384,385,386,387,388,389,390,391,392,393,394,395,396,397,398,399,400],"tree_info":[0,0,0,0,0,0,0,0,0,0,0,0,0,0,0,0,0,0,0,0,0,0,0,0,0,0,0,0,0,0,0,0,0,0,0,0,0,0,0,0,0,0,0,0,0,0,0,0,0,0,0,0,0,0,0,0,0,0,0,0,0,0,0,0,0,0,0,0,0,0,0,0,0,0,0,0,0,0,0,0,0,0,0,0,0,0,0,0,0,0,0,0,0,0,0,0,0,0,0,0,0,0,0,0,0,0,0,0,0,0,0,0,0,0,0,0,0,0,0,0,0,0,0,0,0,0,0,0,0,0,0,0,0,0,0,0,0,0,0,0,0,0,0,0,0,0,0,0,0,0,0,0,0,0,0,0,0,0,0,0,0,0,0,0,0,0,0,0,0,0,0,0,0,0,0,0,0,0,0,0,0,0,0,0,0,0,0,0,0,0,0,0,0,0,0,0,0,0,0,0,0,0,0,0,0,0,0,0,0,0,0,0,0,0,0,0,0,0,0,0,0,0,0,0,0,0,0,0,0,0,0,0,0,0,0,0,0,0,0,0,0,0,0,0,0,0,0,0,0,0,0,0,0,0,0,0,0,0,0,0,0,0,0,0,0,0,0,0,0,0,0,0,0,0,0,0,0,0,0,0,0,0,0,0,0,0,0,0,0,0,0,0,0,0,0,0,0,0,0,0,0,0,0,0,0,0,0,0,0,0,0,0,0,0,0,0,0,0,0,0,0,0,0,0,0,0,0,0,0,0,0,0,0,0,0,0,0,0,0,0,0,0,0,0,0,0,0,0,0,0,0,0,0,0,0,0,0,0,0,0,0,0,0,0,0,0,0,0,0,0,0,0,0,0,0,0,0,0,0,0,0,0,0,0,0,0,0,0,0,0,0,0,0,0,0,0,0,0,0,0],"trees":[{"base_weights":[1.7045455E-2,1.1309524E-1,-5.333333E-2,-5.090909E-1,4.122807E-1,4.4347826E-2,-7.263682E-1,-1.1666666E0,4.9541286E-1,-1.32E0,-1.3333334E-1,-4.8E-2,1.5E-2,1.2E0,3.3333334E-1,-1.4468085E0,1.2E-2,-6.666667E-1,5.3061223E-1,1.3684211E0,-3E-2,-5.7692308E-2,8.4615386E-1,-0E0,-4.6363633E-2,7.5E-3,-4.4999998E-2,-4.2857144E-2,3.5384618E-2,-0E0,4.588235E-2,4.4067795E-3,-3.257143E-2,2.88E-2,-3.6000002E-2],"categories":[],"categories_nodes":[],"categories_segments":[],"categories_sizes":[],"default_left":[0,0,0,0,0,0,0,0,0,0,0,0,0,0,0,0,0,0,0,0,0,0,0,0,0,0,0,0,0,0,0,0,0,0,0],"id":0,"left_children":[1,3,-1,5,7,-1,9,11,13,15,17,-1,-1,19,21,23,-1,25,27,29,-1,31,33,-1,-1,-1,-1,-1,-1,-1,-1,-1,-1,-1,-1],"loss_changes":[3.0542118E1,3.1482927E1,0E0,2.482311E1,1.5541767E1,0E0,1.751423E1,5.133333E0,1.2047707E1,6.0314903E0,9.64898E0,0E0,0E0,8.77895E0,1.8096153E1,3.3539658E0,0E0,1.1833334E1,1.7257978E1,4.1857567E0,0E0,1.1096011E1,1.0236923E1,0E0,0E0,0E0,0E0,0E0,0E0,0E0,0E0,0E0,0E0,0E0,0E0],"parents":[2147483647,0,0,1,1,3,3,4,4,6,6,7,7,8,8,9,9,10,10,13,13,14,14,15,15,17,17,18,18,19,19,21,21,22,22],"right_children":[2,4,-1,6,8,-1,10,12,14,16,18,-1,-1,20,22,24,-1,26,28,30,-1,32,34,-1,-1,-1,-1,-1,-1,-1,-1,-1,-1,-1,-1],"split_conditions":[2.751542E-3,5.725315E-4,-5.333333E-2,1.7052685E0,-4.0431954E-3,4.4347826E-2,4.415763E-4,1.8415316E4,5.557981E-4,1.866211E4,6.283333E2,-4.8E-2,1.5E-2,7.2300414E4,1.1709136E-3,-1.6736402E-3,1.2E-2,4.6407504E-4,1.3315828E4,-8.802594E1,-3E-2,6.2633335E3,1.8227775E4,-0E0,-4.6363633E-2,7.5E-3,-4.4999998E-2,-4.2857144E-2,3.5384618E-2,-0E0,4.588235E-2,4.4067795E-3,-3.257143E-2,2.88E-2,-3.6000002E-2],"split_indices":[5,1,0,10,2,0,3,6,3,8,12,0,0,13,3,2,0,1,13,15,0,12,6,0,0,0,0,0,0,0,0,0,0,0,0],"split_type":[0,0,0,0,0,0,0,0,0,0,0,0,0,0,0,0,0,0,0,0,0,0,0,0,0,0,0,0,0,0,0,0,0,0,0],"sum_hessian":[1.75E2,1.67E2,8E0,5.4E1,1.13E2,4.75E0,4.925E1,5E0,1.08E2,2.4E1,2.525E1,4E0,1E0,1.9E1,8.9E1,2.25E1,1.5E0,1.4E1,1.125E1,1.8E1,1E0,5.1E1,3.8E1,1.5E0,2.1E1,7E0,7E0,2.5E0,8.75E0,2E0,1.6E1,4.325E1,7.75E0,3.65E1,1.5E0],"tree_param":{"num_deleted":"0","num_feature":"17","num_nodes":"35","size_leaf_vector":"1"}},{"base_weights":[-2.167543E-2,-1.496246E0,9.557032E-2,9.52676E-5,-5.326693E-2,8.9283323E-1,-1.4630982E-1,1.06489785E-1,1.2474973E0,-3.1395954E-1,8.9195687E-1,-4.1386142E-2,5.56284E-1,1.4358878E0,-1.9791642E-2,-1.0692253E0,-6.608739E-2,1.2013222E0,-3.0106172E-2,3.4445427E-2,-1.905856E-1,-1.1722931E-2,4.729749E-2,-1.5953858E-1,-1.6108829E0,1.9434768E-1,-6.763161E-1,4.1971987E-1,1.5076485E0,-4.1412186E-2,3.1740006E-2,-2.9431157E-2,3.0674642E-2,-5.521724E-2,1.9845294E-2,-1.3692938E-2,2.4669547E-2,2.4569776E-2,-3.2890692E-2,3.6866352E-2,-2.7290598E-2,6.5188804E-3,4.9635373E-2],"categories":[],"categories_nodes":[],"categories_segments":[],"categories_sizes":[],"default_left":[0,0,0,0,0,0,0,0,0,0,0,0,0,0,0,0,0,0,0,0,0,0,0,0,0,0,0,0,0,0,0,0,0,0,0,0,0,0,0,0,0,0,0],"id":1,"left_children":[1,3,5,-1,-1,7,9,11,13,15,17,-1,19,21,-1,23,25,27,-1,-1,29,-1,-1,31,33,35,37,39,41,-1,-1,-1,-1,-1,-1,-1,-1,-1,-1,-1,-1,-1,-1],"loss_changes":[2.9914686E1,5.342911E0,3.1073938E1,0E0,0E0,1.0322863E1,2.1858646E1,9.287414E0,1.0197163E1,2.0049435E1,1.1464534E1,0E0,4.8595095E0,6.7184258E0,0E0,1.2795923E1,1.3160624E1,3.0771618E0,0E0,0E0,9.629541E0,0E0,0E0,1.1681073E1,9.826633E0,2.4175049E1,1.6440777E1,7.3018446E0,1.6770077E0,0E0,0E0,0E0,0E0,0E0,0E0,0E0,0E0,0E0,0E0,0E0,0E0,0E0,0E0],"parents":[2147483647,0,0,1,1,2,2,5,5,6,6,7,7,8,8,9,9,10,10,12,12,13,13,15,15,16,16,17,17,20,20,23,23,24,24,25,25,26,26,27,27,28,28],"right_children":[2,4,6,-1,-1,8,10,12,14,16,18,-1,20,22,-1,24,26,28,-1,-1,30,-1,-1,32,34,36,38,40,42,-1,-1,-1,-1,-1,-1,-1,-1,-1,-1,-1,-1,-1,-1],"split_conditions":[-3.687206E-3,2.6655896E-4,-1.332852E-3,9.52676E-5,-5.326693E-2,-1.9362025E-3,1.75E4,-1.9766666E3,1.355E4,1.1001409E-4,7.2300414E4,-4.1386142E-2,5.571715E0,4.191197E-4,-1.9791642E-2,7.228944E0,2.4235228E1,1.7588635E4,-3.0106172E-2,3.4445427E-2,4.0666666E2,-1.1722931E-2,4.729749E-2,6.759107E0,2.4235228E1,1.4964657E1,1.6945834E4,5.551792E-4,5.812018E-4,-4.1412186E-2,3.1740006E-2,-2.9431157E-2,3.0674642E-2,-5.521724E-2,1.9845294E-2,-1.3692938E-2,2.4669547E-2,2.4569776E-2,-3.2890692E-2,3.6866352E-2,-2.7290598E-2,6.5188804E-3,4.9635373E-2],"split_indices":[2,3,2,0,0,2,14,12,14,4,13,0,7,3,0,7,7,6,0,0,12,0,0,7,7,7,8,1,1,0,0,0,0,0,0,0,0,0,0,0,0,0,0],"split_type":[0,0,0,0,0,0,0,0,0,0,0,0,0,0,0,0,0,0,0,0,0,0,0,0,0,0,0,0,0,0,0,0,0,0,0,0,0,0,0,0,0,0,0],"sum_hessian":[1.7120303E2,1.174371E1,1.5945932E2,1.9993804E0,9.744329E0,3.6490734E1,1.229686E2,1.1746727E1,2.4744005E1,1.064738E2,1.6494795E1,2.2491045E0,9.4976225E0,2.2744488E1,1.9995173E0,2.5490551E1,8.098325E1,1.4495238E1,1.9995563E0,4.998761E0,4.4988613E0,1.4994655E0,2.1245024E1,9.996488E0,1.5494062E1,5.7237003E1,2.3746248E1,4.748765E0,9.746472E0,2.2495813E0,2.24928E0,5.9979753E0,3.9985127E0,1.42442875E1,1.2497748E0,2.8242193E1,2.8994808E1,4.9993134E0,1.8746935E1,2.999005E0,1.7497602E0,1.2493367E0,8.497136E0],"tree_param":{"num_deleted":"0","num_feature":"17","num_nodes":"43","size_leaf_vector":"1"}},{"base_weights":[1.7083412E-2,-1.2743276E0,1.355747E-1,9.477547E-2,-5.251069E-2,-8.0765975E-1,3.155021E-1,-2.2803746E-2,3.505454E-2,1.0540903E0,-1.1200951E0,4.8422906E-1,-2.873196E-1,4.0080085E-2,6.277298E-3,1.1549986E-1,-1.370182E0,1.4633335E-2,7.820151E-1,-1.1672674E0,2.7618542E-1,-3.7178807E-2,3.9552562E-2,-1.5993682E0,2.3419816E-2,7.031176E-1,-7.324286E-1,8.3522624E-1,-3.220377E-2,1.9677613E-2,-1.5975999E0,-8.1341964E-1,7.1569836E-1,-4.5258375E-3,-5.2523173E-2,-2.8626466E-2,3.0207703E-2,-4.0991552E-2,2.1243861E-2,1.8206924E-2,3.7674215E-2,-5.2982677E-2,-6.9572767E-3,2.446473E-2,-4.6130374E-2,4.6106037E-2,-2.0320332E-3],"categories":[],"categories_nodes":[],"categories_segments":[],"categories_sizes":[],"default_left":[0,0,0,0,0,0,0,0,0,0,0,0,0,0,0,0,0,0,0,0,0,0,0,0,0,0,0,0,0,0,0,0,0,0,0,0,0,0,0,0,0,0,0,0,0,0,0],"id":2,"left_children":[1,3,5,7,-1,9,11,-1,-1,13,15,17,19,-1,-1,21,23,25,27,29,31,-1,-1,33,-1,35,37,39,-1,-1,41,43,45,-1,-1,-1,-1,-1,-1,-1,-1,-1,-1,-1,-1,-1,-1],"loss_changes":[2.681377E1,9.764561E0,2.747222E1,5.246745E0,0E0,1.6288048E1,1.3910999E1,0E0,0E0,7.3207426E-1,7.1803246E0,1.4834221E1,1.5315931E1,0E0,0E0,9.371E0,1.0603222E1,2.222834E1,7.3088913E0,1.0459494E1,9.797072E0,0E0,0E0,3.5689278E0,0E0,1.2279414E1,1.9905146E1,5.354851E0,0E0,0E0,1.8905792E0,8.331021E0,9.267221E0,0E0,0E0,0E0,0E0,0E0,0E0,0E0,0E0,0E0,0E0,0E0,0E0,0E0,0E0],"parents":[2147483647,0,0,1,1,2,2,3,3,5,5,6,6,9,9,10,10,11,11,12,12,15,15,16,16,17,17,18,18,19,19,20,20,23,23,25,25,26,26,27,27,30,30,31,31,32,32],"right_children":[2,4,6,8,-1,10,12,-1,-1,14,16,18,20,-1,-1,22,24,26,28,30,32,-1,-1,34,-1,36,38,40,-1,-1,42,44,46,-1,-1,-1,-1,-1,-1,-1,-1,-1,-1,-1,-1,-1,-1],"split_conditions":[-1.6639163E-4,8.569726E-4,4.516852E-4,8.439105E-4,-5.251069E-2,2.2630682E-4,2.642075E1,-2.2803746E-2,3.505454E-2,-2.8E3,2.9317898E-4,1.36454115E1,3.4700638E1,4.0080085E-2,6.277298E-3,3.2678578E-4,1.866211E4,-4.0853643E-5,2.5645199E-3,1.11633926E-4,1.1290916E-3,-3.7178807E-2,3.9552562E-2,-3.785E4,2.3419816E-2,5.640059E-4,5.25E3,7.05E3,-3.220377E-2,1.9677613E-2,1.9667882E-3,7.881789E-4,1.70596E4,-4.5258375E-3,-5.2523173E-2,-2.8626466E-2,3.0207703E-2,-4.0991552E-2,2.1243861E-2,1.8206924E-2,3.7674215E-2,-5.2982677E-2,-6.9572767E-3,2.446473E-2,-4.6130374E-2,4.6106037E-2,-2.0320332E-3],"split_indices":[0,5,1,5,0,3,7,0,0,14,5,7,7,0,0,1,8,0,5,4,3,0,0,14,0,5,14,14,0,0,3,3,6,0,0,0,0,0,0,0,0,0,0,0,0,0,0],"split_type":[0,0,0,0,0,0,0,0,0,0,0,0,0,0,0,0,0,0,0,0,0,0,0,0,0,0,0,0,0,0,0,0,0,0,0,0,0,0,0,0,0,0,0,0,0,0,0],"sum_hessian":[1.7310036E2,1.3727935E1,1.5937242E2,3.7483196E0,9.979615E0,2.497212E1,1.344003E2,2.2493873E0,1.4989324E0,3.2474315E0,2.172469E1,1.0516253E2,2.9237764E1,1.9990306E0,1.248401E0,3.7475376E0,1.7977152E1,4.1215927E1,6.39466E1,1.0995762E1,1.8242002E1,1.7482847E0,1.9992529E0,1.6477741E1,1.4994106E0,2.1479486E1,1.973644E1,6.26984E1,1.2482021E0,1.9996469E0,8.996116E0,4.9987574E0,1.3243245E1,1.7482629E0,1.4729478E1,2.995802E0,1.8483685E1,1.3740881E1,5.9955606E0,4.22204E1,2.0477997E1,7.7471423E0,1.2489731E0,1.4997497E0,3.4990075E0,5.9963503E0,7.2468953E0],"tree_param":{"num_deleted":"0","num_feature":"17","num_nodes":"47","size_leaf_vector":"1"}},{"base_weights":[3.2433877E-3,-1.3954848E0,8.421357E-2,-4.968032E-2,7.0531103E-3,-4.669617E-1,3.5528958E-1,8.5890335E-1,-7.24108E-1,6.1137563E-1,-1.7080553E-1,1.3193374E0,-1.8512633E-2,-1.2197638E0,2.6534197E-1,1.0628096E-1,9.6350265E-1,-8.742105E-1,2.399605E-1,4.859836E-2,9.06749E-3,-5.778532E-1,-1.6897964E0,-4.3393873E-2,6.976169E-1,7.267694E-1,-4.5954198E-1,-3.3055194E-2,1.0458925E0,5.957141E-1,-1.4912616E0,6.1916995E-1,-8.364869E-1,-4.0509764E-2,2.5100728E-2,-5.443662E-3,-5.3703822E-2,3.7901007E-2,-5.1375567E-3,-1.8006252E-2,3.314403E-2,9.073384E-3,-4.1910715E-2,3.98414E-2,1.0974905E-2,3.409002E-2,-1.1980463E-2,-6.4650597E-3,-4.920935E-2,-2.2313543E-2,2.7502043E-2,-4.638498E-2,1.3735608E-2],"categories":[],"categories_nodes":[],"categories_segments":[],"categories_sizes":[],"default_left":[0,0,0,0,0,0,0,0,0,0,0,0,0,0,0,0,0,0,0,0,0,0,0,0,0,0,0,0,0,0,0,0,0,0,0,0,0,0,0,0,0,0,0,0,0,0,0,0,0,0,0,0,0],"id":3,"left_children":[1,3,5,-1,-1,7,9,11,13,15,17,19,-1,21,23,25,27,29,31,-1,-1,33,35,-1,37,39,41,-1,43,45,47,49,51,-1,-1,-1,-1,-1,-1,-1,-1,-1,-1,-1,-1,-1,-1,-1,-1,-1,-1,-1,-1],"loss_changes":[2.060977E1,4.6195965E0,2.5861595E1,0E0,0E0,2.0099865E1,1.5712485E1,7.431834E0,2.4056475E1,1.3795311E1,1.1394775E1,1.8771315E0,0E0,8.805248E0,1.3568058E1,1.1997754E1,8.9659E0,1.40285E1,1.081433E1,0E0,0E0,1.7765005E1,2.4288177E0,0E0,7.2088685E0,8.806178E0,1.3272993E1,0E0,8.085396E0,3.1424413E0,1.6410561E0,8.479936E0,7.1345654E0,0E0,0E0,0E0,0E0,0E0,0E0,0E0,0E0,0E0,0E0,0E0,0E0,0E0,0E0,0E0,0E0,0E0,0E0,0E0,0E0],"parents":[2147483647,0,0,1,1,2,2,5,5,6,6,7,7,8,8,9,9,10,10,11,11,13,13,14,14,15,15,16,16,17,17,18,18,21,21,22,22,24,24,25,25,26,26,28,28,29,29,30,30,31,31,32,32],"right_children":[2,4,6,-1,-1,8,10,12,14,16,18,20,-1,22,24,26,28,30,32,-1,-1,34,36,-1,38,40,42,-1,44,46,48,50,52,-1,-1,-1,-1,-1,-1,-1,-1,-1,-1,-1,-1,-1,-1,-1,-1,-1,-1,-1,-1],"split_conditions":[-4.0431954E-3,1.8348732E4,5.796951E-4,-4.968032E-2,7.0531103E-3,2.8713326E0,2.6070578E1,3.5785398E0,1.4187783E1,1.7690463E4,3.4700638E1,2.2632423E-4,-1.8512633E-2,7.3163924E0,-1.5E1,1.7231033E4,5.695568E0,7.6439034E-4,-4.952456E-4,4.859836E-2,9.06749E-3,6.61935E0,1.6567951E4,-4.3393873E-2,1.7797308E1,1.4472088E1,7.463892E-4,-3.3055194E-2,-6.0743565E-4,2.8296585E1,-1.7887229E-3,-1.710148E-3,1.2313227E-4,-4.0509764E-2,2.5100728E-2,-5.443662E-3,-5.3703822E-2,3.7901007E-2,-5.1375567E-3,-1.8006252E-2,3.314403E-2,9.073384E-3,-4.1910715E-2,3.98414E-2,1.0974905E-2,3.409002E-2,-1.1980463E-2,-6.4650597E-3,-4.920935E-2,-2.2313543E-2,2.7502043E-2,-4.638498E-2,1.3735608E-2],"split_indices":[2,8,1,0,0,10,7,7,7,11,7,4,0,7,12,8,7,1,2,0,0,7,11,0,10,7,1,0,2,7,2,2,2,0,0,0,0,0,0,0,0,0,0,0,0,0,0,0,0,0,0,0,0],"split_type":[0,0,0,0,0,0,0,0,0,0,0,0,0,0,0,0,0,0,0,0,0,0,0,0,0,0,0,0,0,0,0,0,0,0,0,0,0,0,0,0,0,0,0,0,0,0,0,0,0,0,0,0,0],"sum_hessian":[1.799386E2,8.958005E0,1.7098059E2,7.7104797E0,1.2475253E0,5.6129864E1,1.1485073E2,8.737669E0,4.7392193E1,7.713958E1,3.7711147E1,6.7409654E0,1.9967033E0,3.1419912E1,1.5972282E1,3.222193E1,4.491765E1,1.3487169E1,2.4223976E1,4.7456293E0,1.9953362E0,1.4223992E1,1.7195919E1,2.7472067E0,1.3225076E1,1.52329E1,1.6989033E1,1.2484378E0,4.3669212E1,3.9979432E0,9.489226E0,1.8227589E1,5.9963884E0,9.229324E0,4.994668E0,1.2476568E0,1.5948263E1,7.734708E0,5.490368E0,3.2471037E0,1.1985796E1,9.745359E0,7.243673E0,3.0190506E1,1.3478706E1,2.4985197E0,1.4994235E0,1.2485327E0,8.240694E0,2.9976578E0,1.5229931E1,3.7472403E0,2.2491481E0],"tree_param":{"num_deleted":"0","num_feature":"17","num_nodes":"53","size_leaf_vector":"1"}},{"base_weights":[-7.845674E-2,8.195916E-3,-1.4870515E0,-8.366367E-1,1.5377039E-1,-5.941339E-3,-4.934997E-2,-1.1255409E0,2.8292945E-2,-1.3343E-1,4.0981972E-1,2.4191814E-2,-1.3091903E0,2.4554762E-1,-5.1098317E-1,-4.554717E-2,8.8486886E-1,-1.4616557E0,1.0694592E-2,-8.1732076E-1,5.430047E-1,-6.926627E-2,-1.2136387E0,4.1358146E-1,-5.6896067E-1,9.986692E-1,-2.7057998E-2,6.2926724E-3,-4.939291E-2,2.3075778E-2,-4.721794E-2,3.6370046E-2,2.444815E-3,-3.6487274E-2,8.690163E-3,-4.533176E-2,4.9692253E-3,-2.5648626E-2,2.3810059E-2,-2.9706039E-2,1.7190935E-2,-1.3477815E-2,3.3307027E-2],"categories":[],"categories_nodes":[],"categories_segments":[],"categories_sizes":[],"default_left":[0,0,0,0,0,0,0,0,0,0,0,0,0,0,0,0,0,0,0,0,0,0,0,0,0,0,0,0,0,0,0,0,0,0,0,0,0,0,0,0,0,0,0],"id":4,"left_children":[1,3,5,7,9,-1,-1,11,-1,13,15,-1,17,19,21,23,25,27,-1,29,31,33,35,37,39,41,-1,-1,-1,-1,-1,-1,-1,-1,-1,-1,-1,-1,-1,-1,-1,-1,-1],"loss_changes":[2.146011E1,2.0609482E1,1.7485943E0,1.3726875E1,1.0562977E1,0E0,0E0,8.736507E0,0E0,9.870357E0,1.6435581E1,0E0,5.6383705E0,1.1403191E1,1.060576E1,9.763356E0,8.45332E0,6.1071243E0,0E0,1.0788523E1,8.453249E0,9.495219E0,5.679064E0,1.1141418E1,9.682436E0,6.2161865E0,0E0,0E0,0E0,0E0,0E0,0E0,0E0,0E0,0E0,0E0,0E0,0E0,0E0,0E0,0E0,0E0,0E0],"parents":[2147483647,0,0,1,1,2,2,3,3,4,4,7,7,9,9,10,10,12,12,13,13,14,14,15,15,16,16,17,17,19,19,20,20,21,21,22,22,23,23,24,24,25,25],"right_children":[2,4,6,8,10,-1,-1,12,-1,14,16,-1,18,20,22,24,26,28,-1,30,32,34,36,38,40,42,-1,-1,-1,-1,-1,-1,-1,-1,-1,-1,-1,-1,-1,-1,-1,-1,-1],"split_conditions":[2.5645199E-3,9.241912E-5,1.516412E-3,9.746667E3,1.7678076E4,-5.941339E-3,-4.934997E-2,3.3937154E0,2.8292945E-2,1.7190836E4,2.3859781E4,2.4191814E-2,7.1296806E-4,1.4755386E1,8.944484E-4,5.612002E3,3.9388412E1,2.7169636E-4,1.0694592E-2,6.124792E0,1.9876476E1,5.4494035E-4,2.6203091E-3,1.4878919E-4,5.25E3,4.0340808E-4,-2.7057998E-2,6.2926724E-3,-4.939291E-2,2.3075778E-2,-4.721794E-2,3.6370046E-2,2.444815E-3,-3.6487274E-2,8.690163E-3,-4.533176E-2,4.9692253E-3,-2.5648626E-2,2.3810059E-2,-2.9706039E-2,1.7190935E-2,-1.3477815E-2,3.3307027E-2],"split_indices":[5,4,1,12,6,0,0,7,0,6,13,0,5,7,1,13,7,5,0,10,7,1,1,4,14,5,0,0,0,0,0,0,0,0,0,0,0,0,0,0,0,0,0],"split_type":[0,0,0,0,0,0,0,0,0,0,0,0,0,0,0,0,0,0,0,0,0,0,0,0,0,0,0,0,0,0,0,0,0,0,0,0,0,0,0,0,0,0,0],"sum_hessian":[1.7471841E2,1.655297E2,9.188724E0,2.363254E1,1.4189716E2,1.249057E0,7.9396663E0,2.0648285E1,2.984254E0,6.710595E1,7.47912E1,1.4980738E0,1.9150211E1,3.3664288E1,3.344166E1,3.8648296E1,3.6142902E1,1.765653E1,1.4936817E0,6.9790773E0,2.6685211E1,2.1208035E1,1.2233629E1,2.0700254E1,1.7948044E1,3.4393486E1,1.7494147E0,1.7441669E0,1.5912363E1,2.2482212E0,4.730856E0,1.0226628E1,1.6458584E1,4.4856944E0,1.672234E1,9.984982E0,2.2486472E0,4.48437E0,1.6215885E1,1.3208726E1,4.7393174E0,2.2439415E0,3.2149544E1],"tree_param":{"num_deleted":"0","num_feature":"17","num_nodes":"43","size_leaf_vector":"1"}},{"base_weights":[-1.1025172E-2,-4.7491085E-2,6.0198333E-2,-1.3415747E0,1.3923658E-1,-4.8185673E-2,6.6347234E-3,2.065088E-2,8.805868E-1,-3.5717356E-1,2.9364073E-1,9.8818153E-1,-1.1810943E-2,-8.2165234E-2,-1.1630847E0,-2.3649801E-1,5.808351E-1,3.8972706E-1,1.1951784E0,-5.929997E-3,4.193411E-2,-5.756359E-3,-4.4541825E-2,3.251165E-2,-1.567628E-2,2.1821931E-2,-4.42118E-2,2.7355675E-2,-3.3501897E-2,3.9455507E-2,4.8503773E-3],"categories":[],"categories_nodes":[],"categories_segments":[],"categories_sizes":[],"default_left":[0,0,0,0,0,0,0,0,0,0,0,0,0,0,0,0,0,0,0,0,0,0,0,0,0,0,0,0,0,0,0],"id":5,"left_children":[1,-1,3,5,7,-1,-1,9,11,13,15,17,-1,19,21,23,25,27,29,-1,-1,-1,-1,-1,-1,-1,-1,-1,-1,-1,-1],"loss_changes":[2.0440735E1,0E0,1.9553661E1,4.25226E0,1.4608618E1,0E0,0E0,1.5004563E1,3.5314522E0,1.3434027E1,1.2989395E1,2.1876621E0,0E0,8.240331E0,4.5430183E0,1.2035826E1,1.7646025E1,6.5153265E0,1.7012215E0,0E0,0E0,0E0,0E0,0E0,0E0,0E0,0E0,0E0,0E0,0E0,0E0],"parents":[2147483647,0,0,2,2,3,3,4,4,7,7,8,8,9,9,10,10,11,11,13,13,14,14,15,15,16,16,17,17,18,18],"right_children":[2,-1,4,6,8,-1,-1,10,12,14,16,18,-1,20,22,24,26,28,30,-1,-1,-1,-1,-1,-1,-1,-1,-1,-1,-1,-1],"split_conditions":[-2.3817753E-4,-4.7491085E-2,7.178471E-5,7.0366665E3,1.5888365E-3,-4.8185673E-2,6.6347234E-3,1.7673955E4,2.4664386E-3,1.7480037E4,5.4456684E-4,-7.316667E2,-1.1810943E-2,1.7445756E4,-7.157088E-5,1.7736826E4,1.123156E-3,7.432783E-4,9.481667E3,-5.929997E-3,4.193411E-2,-5.756359E-3,-4.4541825E-2,3.251165E-2,-1.567628E-2,2.1821931E-2,-4.42118E-2,2.7355675E-2,-3.3501897E-2,3.9455507E-2,4.8503773E-3],"split_indices":[0,0,4,12,3,0,0,11,3,8,5,12,0,11,0,6,4,5,12,0,0,0,0,0,0,0,0,0,0,0,0],"split_type":[0,0,0,0,0,0,0,0,0,0,0,0,0,0,0,0,0,0,0,0,0,0,0,0,0,0,0,0,0,0,0],"sum_hessian":[1.807139E2,6.9127474E0,1.7380116E2,8.424033E0,1.6537712E2,7.180384E0,1.243649E0,1.4345763E2,2.1919497E1,6.0045227E1,8.34124E1,2.0419859E1,1.4996377E0,4.5590073E1,1.4455157E1,2.937146E1,5.404094E1,5.988657E0,1.4431202E1,4.309337E1,2.496701E0,3.9934433E0,1.0461714E1,4.7338862E0,2.4637573E1,5.104555E1,2.9953868E0,4.740374E0,1.2482828E0,1.2685649E1,1.7455537E0],"tree_param":{"num_deleted":"0","num_feature":"17","num_nodes":"31","size_leaf_vector":"1"}},{"base_weights":[2.0751895E-3,8.362164E-2,-4.7359463E-2,-3.3749554E-1,3.4208158E-1,-9.1480196E-1,2.3957157E-1,5.993986E-1,-1.4755751E-1,5.898754E-1,-1.1791183E0,5.357443E-1,-1.2538443E0,-2.096497E-2,7.621673E-1,-9.4946194E-1,3.3156842E-1,4.0489882E-2,-1.06612295E-2,-1.3032118E0,4.8854607E-3,-7.564645E-1,1.0388341E0,-5.5983425E-3,-4.523973E-2,3.948536E-2,-3.8566133E-1,8.267962E-1,-3.3005208E-2,-1.09037496E-1,-4.9901403E-2,-1.0043359E0,7.6541317E-1,-1.3757935E-2,-4.4925038E-2,-4.985199E-3,-4.142691E-2,1.9110953E-2,4.628155E-2,-4.4710953E-2,4.4713127E-3,2.8285822E-2,-8.767802E-3,-2.4936652E-2,2.1898862E-2,1.9459046E-2,-4.6421085E-2,-1.6307916E-2,3.0127022E-2],"categories":[],"categories_nodes":[],"categories_segments":[],"categories_sizes":[],"default_left":[0,0,0,0,0,0,0,0,0,0,0,0,0,0,0,0,0,0,0,0,0,0,0,0,0,0,0,0,0,0,0,0,0,0,0,0,0,0,0,0,0,0,0,0,0,0,0,0,0],"id":6,"left_children":[1,3,-1,5,7,9,11,13,15,17,19,21,23,25,27,29,31,-1,-1,33,-1,35,37,-1,-1,-1,39,41,-1,43,-1,45,47,-1,-1,-1,-1,-1,-1,-1,-1,-1,-1,-1,-1,-1,-1,-1,-1],"loss_changes":[2.2659212E1,1.8307074E1,0E0,2.1563759E1,1.3200223E1,1.3516115E1,1.5194582E1,6.9242706E0,1.4397206E1,4.417551E0,4.833885E0,1.9054089E1,1.2736692E0,7.916437E0,7.435896E0,8.199034E0,1.4496015E1,0E0,0E0,3.5002174E0,0E0,2.886365E0,3.1975918E0,0E0,0E0,0E0,7.730112E0,7.156082E0,0E0,5.14231E0,0E0,6.6037154E0,6.3125677E0,0E0,0E0,0E0,0E0,0E0,0E0,0E0,0E0,0E0,0E0,0E0,0E0,0E0,0E0,0E0,0E0],"parents":[2147483647,0,0,1,1,3,3,4,4,5,5,6,6,7,7,8,8,9,9,10,10,11,11,12,12,13,13,14,14,15,15,16,16,19,19,21,21,22,22,26,26,27,27,29,29,31,31,32,32],"right_children":[2,4,-1,6,8,10,12,14,16,18,20,22,24,26,28,30,32,-1,-1,34,-1,36,38,-1,-1,-1,40,42,-1,44,-1,46,48,-1,-1,-1,-1,-1,-1,-1,-1,-1,-1,-1,-1,-1,-1,-1,-1],"split_conditions":[2.751542E-3,1.36454115E1,-4.7359463E-2,5.8370817E-4,2.6070578E1,2.8713326E0,-3.0318448E-5,1.297017E4,3.4700638E1,3.3937154E0,1.8623545E4,-8.802594E1,6.214761E-4,7.741443E0,1.6876666E4,2.237673E4,7.043746E-4,4.0489882E-2,-1.06612295E-2,-1.96E4,4.8854607E-3,6.4182205E0,6.7621207E0,-5.5983425E-3,-4.523973E-2,3.948536E-2,1.7687605E4,-2.5141702E-5,-3.3005208E-2,2.4116422E-5,-4.9901403E-2,3.6367447E1,-1.710148E-3,-1.3757935E-2,-4.4925038E-2,-4.985199E-3,-4.142691E-2,1.9110953E-2,4.628155E-2,-4.4710953E-2,4.4713127E-3,2.8285822E-2,-8.767802E-3,-2.4936652E-2,2.1898862E-2,1.9459046E-2,-4.6421085E-2,-1.6307916E-2,3.0127022E-2],"split_indices":[5,7,0,5,7,10,0,13,7,7,6,15,5,10,12,13,5,0,0,14,0,7,10,0,0,0,6,2,0,0,0,7,2,0,0,0,0,0,0,0,0,0,0,0,0,0,0,0,0],"split_type":[0,0,0,0,0,0,0,0,0,0,0,0,0,0,0,0,0,0,0,0,0,0,0,0,0,0,0,0,0,0,0,0,0,0,0,0,0,0,0,0,0,0,0,0,0,0,0,0,0],"sum_hessian":[1.7376164E2,1.6613802E2,7.6236353E0,6.3070084E1,1.0306793E2,3.1235935E1,3.1834146E1,6.7415375E1,3.5652554E1,4.4831195E0,2.6752815E1,2.7100805E1,4.733342E0,1.4192894E1,5.3222485E1,1.2967473E1,2.268508E1,2.2481942E0,2.2349255E0,2.451478E1,2.238036E0,7.453225E0,1.9647581E1,1.2439438E0,3.4893982E0,2.4823804E0,1.1710514E1,5.1974842E1,1.2476406E0,6.4854884E0,6.4819846E0,5.2387714E0,1.7446308E1,5.213044E0,1.9301735E1,4.482206E0,2.971019E0,1.2190777E1,7.456804E0,3.2365394E0,8.473974E0,4.723341E1,4.741432E0,3.490364E0,2.9951243E0,1.2473688E0,3.9914026E0,2.4949539E0,1.4951354E1],"tree_param":{"num_deleted":"0","num_feature":"17","num_nodes":"49","size_leaf_vector":"1"}},{"base_weights":[-3.0634899E-2,-1.3844701E0,4.766609E-2,-4.6332207E-2,-5.1260465E-3,3.7371022E-1,-3.408667E-1,1.34560345E-2,6.651587E-1,-9.632138E-1,1.375578E-1,-5.912672E-1,7.1673876E-1,2.8074738E-1,1.1042312E0,-1.2093271E0,1.3757196E-1,8.7822187E-1,-2.729288E-1,-7.132997E-2,-4.6686225E-2,-2.8710395E-1,9.13634E-1,4.761277E-1,-4.075097E-2,9.239859E-3,1.2664095E0,3.1774208E-2,-1.358685E0,8.0152786E-1,-3.5459723E-2,1.3665495E0,3.746905E-1,-8.208567E-1,3.2007316E-1,-1.8514443E-2,2.3017224E-2,3.0494845E-2,-3.7374835E-2,-6.1708153E-3,3.3045456E-2,-3.344559E-4,3.5960175E-2,-3.3581115E-2,3.3977114E-2,4.1152384E-2,-5.4332726E-3,-4.6207774E-2,-1.4779355E-2,7.5296042E-3,3.6280304E-2,4.614782E-2,1.7354373E-2,-1.8503357E-2,4.011271E-2,4.4821766E-3,-3.7923586E-2,-3.878928E-2,2.1427413E-2],"categories":[],"categories_nodes":[],"categories_segments":[],"categories_sizes":[],"default_left":[0,0,0,0,0,0,0,0,0,0,0,0,0,0,0,0,0,0,0,0,0,0,0,0,0,0,0,0,0,0,0,0,0,0,0,0,0,0,0,0,0,0,0,0,0,0,0,0,0,0,0,0,0,0,0,0,0,0,0],"id":7,"left_children":[1,3,5,-1,-1,7,9,11,13,15,17,19,21,23,25,27,29,31,33,35,-1,37,39,41,-1,43,45,-1,47,49,-1,51,53,55,57,-1,-1,-1,-1,-1,-1,-1,-1,-1,-1,-1,-1,-1,-1,-1,-1,-1,-1,-1,-1,-1,-1,-1,-1],"loss_changes":[1.8559023E1,1.593895E0,2.1140913E1,0E0,0E0,9.511012E0,2.2823774E1,1.8102863E1,8.146236E0,9.17383E0,1.3605648E1,1.1377502E1,4.1502295E0,9.631109E0,4.0810165E0,1.0680111E1,7.0567646E0,3.4009113E0,9.701316E0,7.764176E0,0E0,6.248601E0,3.7352533E0,9.099371E0,0E0,6.3141723E0,3.308075E0,0E0,3.3341103E0,8.71799E-1,0E0,1.5224457E-1,9.61521E0,6.802965E0,1.0251028E1,0E0,0E0,0E0,0E0,0E0,0E0,0E0,0E0,0E0,0E0,0E0,0E0,0E0,0E0,0E0,0E0,0E0,0E0,0E0,0E0,0E0,0E0,0E0,0E0],"parents":[2147483647,0,0,1,1,2,2,5,5,6,6,7,7,8,8,9,9,10,10,11,11,12,12,13,13,14,14,15,15,16,16,17,17,18,18,19,19,21,21,22,22,23,23,25,25,26,26,28,28,29,29,31,31,32,32,33,33,34,34],"right_children":[2,4,6,-1,-1,8,10,12,14,16,18,20,22,24,26,28,30,32,34,36,-1,38,40,42,-1,44,46,-1,48,50,-1,52,54,56,58,-1,-1,-1,-1,-1,-1,-1,-1,-1,-1,-1,-1,-1,-1,-1,-1,-1,-1,-1,-1,-1,-1,-1,-1],"split_conditions":[-4.0431954E-3,1.8415316E4,-6.6449E-4,-4.6332207E-2,-5.1260465E-3,1.7689002E4,-3.2670397E-4,2.8951781E-5,4.922919E-4,3.4700638E1,-3.3307384E-5,8.7744574E-4,1.7336996E1,2.7224913E1,-1.9673086E-3,3.3937154E0,-4.952456E-4,1.7383537E4,2.8951781E-5,7.2634267E-4,-4.6686225E-2,3.6704892E-5,1.6648162E4,2.153164E4,-4.075097E-2,3.448319E1,1.8623545E4,3.1774208E-2,1.4355623E-3,-5.19659E-4,-3.5459723E-2,-4.2126896E-5,1.6351582E-5,7.228944E0,-1.9548213E-4,-1.8514443E-2,2.3017224E-2,3.0494845E-2,-3.7374835E-2,-6.1708153E-3,3.3045456E-2,-3.344559E-4,3.5960175E-2,-3.3581115E-2,3.3977114E-2,4.1152384E-2,-5.4332726E-3,-4.6207774E-2,-1.4779355E-2,7.5296042E-3,3.6280304E-2,4.614782E-2,1.7354373E-2,-1.8503357E-2,4.011271E-2,4.4821766E-3,-3.7923586E-2,-3.878928E-2,2.1427413E-2],"split_indices":[2,6,2,0,0,9,2,0,4,7,0,1,10,7,2,7,2,9,0,1,0,0,11,13,0,10,6,0,1,2,0,0,2,7,2,0,0,0,0,0,0,0,0,0,0,0,0,0,0,0,0,0,0,0,0,0,0,0,0],"split_type":[0,0,0,0,0,0,0,0,0,0,0,0,0,0,0,0,0,0,0,0,0,0,0,0,0,0,0,0,0,0,0,0,0,0,0,0,0,0,0,0,0,0,0,0,0,0,0,0,0,0,0,0,0,0,0,0,0,0,0],"sum_hessian":[1.7345163E2,8.571298E0,1.6488034E2,7.332402E0,1.238895E0,8.967018E1,7.521016E1,4.056933E1,4.910085E1,3.224792E1,4.296224E1,2.1898771E1,1.8670557E1,2.7054152E1,2.2046698E1,2.6274803E1,5.973116E0,1.4913502E1,2.8048735E1,1.492869E1,6.9700804E0,2.9864433E0,1.5684114E1,2.4806738E1,2.2474124E0,2.9804351E0,1.9066263E1,1.2468088E0,2.5027994E1,4.234866E0,1.7382497E0,6.70095E0,8.212552E0,1.4378711E1,1.3670025E1,9.202751E0,5.7259393E0,1.2400546E0,1.7463887E0,2.240603E0,1.3443512E1,1.5403416E1,9.403323E0,1.4884822E0,1.4919529E0,1.7821714E1,1.2445496E0,2.0046524E1,4.981471E0,2.4895191E0,1.7453469E0,4.72048E0,1.9804701E0,4.2220745E0,3.9904773E0,4.7168627E0,9.661848E0,2.2367048E0,1.143332E1],"tree_param":{"num_deleted":"0","num_feature":"17","num_nodes":"59","size_leaf_vector":"1"}},{"base_weights":[-2.7050883E-2,-1.4234134E0,7.2569564E-2,-4.661031E-2,-5.421573E-3,-4.7716063E-1,3.1817314E-1,9.3005824E-1,-7.194901E-1,9.8583794E-1,1.9051589E-1,1.1781477E0,6.151545E-3,-1.0064071E0,1.9200662E-1,-3.0455363E-1,1.211583E0,-1.7131887E-1,4.55764E-1,4.2022254E-2,9.828121E-3,-2.689093E-1,-1.4624892E0,7.612242E-1,-3.983528E-2,-3.286533E-2,1.872872E-2,-4.4267E-2,1.453353E0,1.0425177E-1,-9.561785E-1,5.440853E-1,-3.8944047E-2,-3.3272557E-2,1.9046512E-2,-4.6509318E-2,-2.2683857E-2,-2.9715123E-2,3.5079896E-2,3.0609505E-2,-3.258436E-2,1.2078271E-2,4.8990123E-2,7.2441213E-3,-3.9008107E-2,-2.4683503E-3,-4.8230473E-2,1.8575652E-2,-2.8712664E-2],"categories":[],"categories_nodes":[],"categories_segments":[],"categories_sizes":[],"default_left":[0,0,0,0,0,0,0,0,0,0,0,0,0,0,0,0,0,0,0,0,0,0,0,0,0,0,0,0,0,0,0,0,0,0,0,0,0,0,0,0,0,0,0,0,0,0,0,0,0],"id":8,"left_children":[1,3,5,-1,-1,7,9,11,13,15,17,19,-1,21,23,25,27,29,31,-1,-1,33,35,37,-1,-1,-1,39,41,43,45,47,-1,-1,-1,-1,-1,-1,-1,-1,-1,-1,-1,-1,-1,-1,-1,-1,-1],"loss_changes":[2.4451023E1,1.6138535E0,2.233836E1,0E0,0E0,1.8110062E1,9.544076E0,1.1882982E0,1.1751308E1,5.6379147E0,9.396702E0,6.2257814E-1,0E0,1.0967052E1,1.0891119E1,3.2496157E0,4.799509E0,9.1395035E0,9.427114E0,0E0,0E0,1.1434378E1,1.0835266E-1,7.5525365E0,0E0,0E0,0E0,4.9770956E0,1.816761E0,6.449694E0,6.107628E0,6.714878E0,0E0,0E0,0E0,0E0,0E0,0E0,0E0,0E0,0E0,0E0,0E0,0E0,0E0,0E0,0E0,0E0,0E0],"parents":[2147483647,0,0,1,1,2,2,5,5,6,6,7,7,8,8,9,9,10,10,11,11,13,13,14,14,15,15,16,16,17,17,18,18,21,21,22,22,23,23,27,27,28,28,29,29,30,30,31,31],"right_children":[2,4,6,-1,-1,8,10,12,14,16,18,20,-1,22,24,26,28,30,32,-1,-1,34,36,38,-1,-1,-1,40,42,44,46,48,-1,-1,-1,-1,-1,-1,-1,-1,-1,-1,-1,-1,-1,-1,-1,-1,-1],"split_conditions":[-4.0431954E-3,1.8415316E4,5.725315E-4,-4.661031E-2,-5.421573E-3,2.8713326E0,5.380624E-4,2.556034E-4,-1.6765704E-4,-8.802594E1,6.3721393E-4,2.2632423E-4,6.151545E-3,-7.594577E-4,4.6407504E-4,7.2634267E-4,-6.85E3,-5.284535E-4,4.4185917E1,4.2022254E-2,9.828121E-3,4.4604222E-4,1.631641E1,7.903588E-5,-3.983528E-2,-3.286533E-2,1.872872E-2,-1.4093504E-3,5.3107405E0,7.086586E4,1.8802332E-4,2.975E4,-3.8944047E-2,-3.3272557E-2,1.9046512E-2,-4.6509318E-2,-2.2683857E-2,-2.9715123E-2,3.5079896E-2,3.0609505E-2,-3.258436E-2,1.2078271E-2,4.8990123E-2,7.2441213E-3,-3.9008107E-2,-2.4683503E-3,-4.8230473E-2,1.8575652E-2,-2.8712664E-2],"split_indices":[2,6,1,0,0,10,3,3,2,15,4,4,0,2,1,1,14,2,10,0,0,3,10,4,0,0,0,2,10,13,4,14,0,0,0,0,0,0,0,0,0,0,0,0,0,0,0,0,0],"split_type":[0,0,0,0,0,0,0,0,0,0,0,0,0,0,0,0,0,0,0,0,0,0,0,0,0,0,0,0,0,0,0,0,0,0,0,0,0,0,0,0,0,0,0,0,0,0,0,0,0],"sum_hessian":[1.7402971E2,1.07040825E1,1.6332562E2,9.461993E0,1.242089E0,5.0144733E1,1.1318089E2,6.9496713E0,4.3195065E1,1.7087645E1,9.6093254E1,4.7121935E0,2.2374775E0,3.2774364E1,1.0420699E1,2.492283E0,1.4595361E1,4.0796017E1,5.5297234E1,3.2220724E0,1.4901211E0,1.313091E1,1.9643454E1,7.9444647E0,2.476235E0,1.2491417E0,1.2431413E0,2.488098E0,1.2107263E1,3.0836308E1,9.959709E0,5.330284E1,1.9943931E0,6.6872363E0,6.443674E0,1.6408594E1,3.2348585E0,1.2314755E0,6.7129893E0,1.2408752E0,1.2472225E0,2.241023E0,9.86624E0,2.884617E1,1.9901357E0,4.734858E0,5.2248507E0,5.132272E1,1.9801233E0],"tree_param":{"num_deleted":"0","num_feature":"17","num_nodes":"49","size_leaf_vector":"1"}},{"base_weights":[-5.5192348E-2,-2.598135E-1,5.04738E-1,-1.3681681E0,-1.5991712E-1,-3.365636E-2,6.212397E-1,-5.0632916E-3,-4.535055E-2,-6.333142E-1,2.2659843E-1,7.422707E-1,-8.912378E-1,-8.8412786E-1,6.533384E-3,4.1713113E-1,-1.3824054E0,8.403624E-1,-3.4012437E-2,-3.4900844E-2,-5.7629365E-3,-1.0936316E0,1.3426457E-1,-4.134929E-2,4.9224836E-1,1.0086743E-1,1.050497E0,-4.7994696E-2,-5.5216975E-3,1.1776576E0,4.3691227E-1,-3.8656116E-2,9.2527885E-3,1.6169578E-2,-3.138137E-2,3.5369754E-2,-3.4846753E-2,-4.1233033E-2,6.956459E-3,3.4317095E-2,-1.7487439E-3,4.4236965E-2,1.4752695E-2,-3.3134878E-2,2.6743546E-2],"categories":[],"categories_nodes":[],"categories_segments":[],"categories_sizes":[],"default_left":[0,0,0,0,0,0,0,0,0,0,0,0,0,0,0,0,0,0,0,0,0,0,0,0,0,0,0,0,0,0,0,0,0,0,0,0,0,0,0,0,0,0,0,0,0],"id":9,"left_children":[1,3,5,7,9,-1,11,-1,-1,13,15,17,19,21,23,25,27,29,-1,-1,-1,31,33,-1,35,37,39,-1,-1,41,43,-1,-1,-1,-1,-1,-1,-1,-1,-1,-1,-1,-1,-1,-1],"loss_changes":[2.0027658E1,1.3935783E1,9.568881E0,1.5414696E0,2.1808369E1,0E0,8.776674E0,0E0,0E0,8.588966E0,2.0785452E1,8.606636E0,4.8787928E-1,8.346102E0,1.147693E1,1.1854236E1,1.5843859E0,4.9423294E0,0E0,0E0,0E0,9.137169E0,4.1214733E0,0E0,1.5704924E1,8.229765E0,2.115141E0,0E0,0E0,3.6025734E0,1.4891508E1,0E0,0E0,0E0,0E0,0E0,0E0,0E0,0E0,0E0,0E0,0E0,0E0,0E0,0E0],"parents":[2147483647,0,0,1,1,2,2,3,3,4,4,6,6,9,9,10,10,11,11,12,12,13,13,14,14,15,15,16,16,17,17,21,21,22,22,24,24,25,25,26,26,29,29,30,30],"right_children":[2,4,6,8,10,-1,12,-1,-1,14,16,18,20,22,24,26,28,30,-1,-1,-1,32,34,-1,36,38,40,-1,-1,42,44,-1,-1,-1,-1,-1,-1,-1,-1,-1,-1,-1,-1,-1,-1],"split_conditions":[1.0583001E-3,-1.6639163E-4,1.4755386E1,7.5086154E-4,6.080707E-4,-3.365636E-2,5.162482E1,-5.0632916E-3,-4.535055E-2,2.3859781E4,9.100195E-4,1.8229277E4,1.0671845E-3,-1.14414186E-4,3.9014316E-4,1.810041E4,1.5074022E-3,2.5663576E1,-3.4012437E-2,-3.4900844E-2,-5.7629365E-3,1.1613333E4,1.8144363E4,-4.134929E-2,4.9435715E4,-6.0733335E3,2.4235228E1,-4.7994696E-2,-5.5216975E-3,6.661679E-4,3.4700638E1,-3.8656116E-2,9.2527885E-3,1.6169578E-2,-3.138137E-2,3.5369754E-2,-3.4846753E-2,-4.1233033E-2,6.956459E-3,3.4317095E-2,-1.7487439E-3,4.4236965E-2,1.4752695E-2,-3.3134878E-2,2.6743546E-2],"split_indices":[3,0,7,5,5,0,7,0,0,13,3,9,5,2,5,11,1,7,0,0,0,12,11,0,13,12,7,0,0,5,7,0,0,0,0,0,0,0,0,0,0,0,0,0,0],"split_type":[0,0,0,0,0,0,0,0,0,0,0,0,0,0,0,0,0,0,0,0,0,0,0,0,0,0,0,0,0,0,0,0,0,0,0,0,0,0,0,0,0,0,0,0,0],"sum_hessian":[1.7265714E2,1.26840485E2,4.5816647E1,9.4373045E0,1.17403175E2,2.4853976E0,4.333125E1,1.2411171E0,8.196187E0,5.2483654E1,6.4919525E1,4.0592224E1,2.7390234E0,3.7429783E1,1.5053869E1,5.870825E1,6.211277E0,3.9099854E1,1.4923701E0,1.4936615E0,1.245362E0,3.0982235E1,6.447548E0,3.4317536E0,1.1622115E1,3.992929E1,1.877896E1,4.973844E0,1.2374332E0,2.025073E1,1.8849123E1,2.7272013E1,3.7102227E0,5.2058463E0,1.2417016E0,8.414922E0,3.2071931E0,2.4826353E0,3.7446655E1,1.7290693E1,1.4882652E0,1.3330499E1,6.9202323E0,3.966893E0,1.488223E1],"tree_param":{"num_deleted":"0","num_feature":"17","num_nodes":"45","size_leaf_vector":"1"}},{"base_weights":[-4.652011E-2,-4.371341E-2,2.0883117E-2,-4.6856594E-1,2.4975689E-1,1.0047188E0,-7.010466E-1,-6.8622686E-2,5.584449E-1,-4.2807222E-3,4.4360984E-2,-1.103195E0,9.534742E-2,4.181418E-1,-6.159224E-1,-4.0649965E-2,6.566601E-1,-5.4852784E-1,-1.5188245E0,-4.263413E-2,5.8538216E-1,-3.7411716E-2,5.566806E-1,3.0145466E-3,-1.2489258E0,7.811241E-1,-8.9590675E-1,-3.251333E-2,1.8392934E-2,-3.6919524E-3,-4.846433E-2,3.0364197E-2,-2.0969255E-2,-3.2719254E-2,1.998962E-2,-4.0616866E-2,1.0286891E-2,-9.945846E-3,-4.7449548E-2,2.6013272E-2,-7.12187E-3,7.0359865E-3,-4.1000623E-2],"categories":[],"categories_nodes":[],"categories_segments":[],"categories_sizes":[],"default_left":[0,0,0,0,0,0,0,0,0,0,0,0,0,0,0,0,0,0,0,0,0,0,0,0,0,0,0,0,0,0,0,0,0,0,0,0,0,0,0,0,0,0,0],"id":10,"left_children":[1,-1,3,5,7,9,11,13,15,-1,-1,17,19,21,23,-1,25,27,29,-1,31,-1,33,35,37,39,41,-1,-1,-1,-1,-1,-1,-1,-1,-1,-1,-1,-1,-1,-1,-1,-1],"loss_changes":[1.7017128E1,0E0,1.9328564E1,1.9539242E1,1.1586912E1,4.5105314E0,1.5505299E1,1.590518E1,1.2122492E1,0E0,0E0,6.551075E0,1.35056E1,8.003288E0,1.0994687E1,0E0,1.1816139E1,1.01685E1,2.195057E0,0E0,8.16047E0,0E0,6.1344013E0,7.4659114E0,3.7097645E0,4.9167366E0,2.8405585E0,0E0,0E0,0E0,0E0,0E0,0E0,0E0,0E0,0E0,0E0,0E0,0E0,0E0,0E0,0E0,0E0],"parents":[2147483647,0,0,2,2,3,3,4,4,5,5,6,6,7,7,8,8,11,11,12,12,13,13,14,14,16,16,17,17,18,18,20,20,22,22,23,23,24,24,25,25,26,26],"right_children":[2,-1,4,6,8,10,12,14,16,-1,-1,18,20,22,24,-1,26,28,30,-1,32,-1,34,36,38,40,42,-1,-1,-1,-1,-1,-1,-1,-1,-1,-1,-1,-1,-1,-1,-1,-1],"split_conditions":[-5.333746E-3,-4.371341E-2,5.796951E-4,3.5785398E0,1.7678076E4,1.8072371E4,1.3945208E1,1.7190836E4,5.695568E0,-4.2807222E-3,4.4360984E-2,7.3163924E0,4.581362E-4,-1.47E4,8.944484E-4,-4.0649965E-2,3.9388412E1,6.61935E0,1.656757E4,-4.263413E-2,1.7892395E4,-3.7411716E-2,1.5977677E4,1.7358143E4,-1.14894E-3,1.8489553E4,-1.1788969E-3,-3.251333E-2,1.8392934E-2,-3.6919524E-3,-4.846433E-2,3.0364197E-2,-2.0969255E-2,-3.2719254E-2,1.998962E-2,-4.0616866E-2,1.0286891E-2,-9.945846E-3,-4.7449548E-2,2.6013272E-2,-7.12187E-3,7.0359865E-3,-4.1000623E-2],"split_indices":[2,0,1,7,6,6,7,6,7,0,0,7,3,14,1,0,7,7,6,0,6,0,6,6,2,6,2,0,0,0,0,0,0,0,0,0,0,0,0,0,0,0,0],"split_type":[0,0,0,0,0,0,0,0,0,0,0,0,0,0,0,0,0,0,0,0,0,0,0,0,0,0,0,0,0,0,0,0,0,0,0,0,0,0,0,0,0,0,0],"sum_hessian":[1.776596E2,7.1618013E0,1.704978E2,5.399074E1,1.1650706E2,6.905735E0,4.7085007E1,5.7736042E1,5.877102E1,2.2230768E0,4.682658E0,3.103054E1,1.6054466E1,3.0682888E1,2.7053152E1,2.2446256E0,5.6526394E1,1.42857E1,1.674484E1,3.4568028E0,1.2597664E1,1.7420789E0,2.894081E1,1.4181767E1,1.2871386E1,5.2791183E1,3.7352073E0,9.825401E0,4.460299E0,1.2316717E0,1.5513168E1,9.614852E0,2.9828115E0,1.2476473E0,2.7693163E1,2.243122E0,1.1938645E1,3.957126E0,8.914259E0,4.8818512E1,3.9726744E0,1.2457442E0,2.489463E0],"tree_param":{"num_deleted":"0","num_feature":"17","num_nodes":"43","size_leaf_vector":"1"}},{"base_weights":[-2.6072804E-3,-1.3145194E0,8.0675304E-2,-4.362634E-2,-5.2607516E-3,4.032405E-1,-2.7212104E-1,-1.0784401E0,5.060279E-1,-7.2013867E-1,5.36095E-2,-4.2844117E-2,-5.207796E-3,-4.412903E-1,6.32637E-1,-3.1623697E-1,-4.5607667E-2,3.343078E-1,-7.12117E-1,2.7308932E-2,-1.2260756E0,-5.7533942E-2,7.7548254E-1,-7.2540414E-1,4.2468703E-1,-1.44018E-2,1.0975353E0,2.6329425E-1,-1.1579028E0,-4.3512996E-2,-4.077213E-3,-3.8036704E-2,1.4418293E-2,4.4892043E-2,1.8937405E-2,-7.4169884E-4,-3.6052644E-2,3.9893206E-2,-2.9274711E-2,1.447144E-2,-2.9786319E-2,4.215758E-2,4.555377E-3,-8.396634E-3,2.9697621E-2,-4.2247526E-2,5.719413E-3],"categories":[],"categories_nodes":[],"categories_segments":[],"categories_sizes":[],"default_left":[0,0,0,0,0,0,0,0,0,0,0,0,0,0,0,0,0,0,0,0,0,0,0,0,0,0,0,0,0,0,0,0,0,0,0,0,0,0,0,0,0,0,0,0,0,0,0],"id":11,"left_children":[1,3,5,-1,-1,7,9,11,13,15,17,-1,-1,19,21,23,-1,25,27,-1,29,31,33,35,37,39,41,43,45,-1,-1,-1,-1,-1,-1,-1,-1,-1,-1,-1,-1,-1,-1,-1,-1,-1,-1],"loss_changes":[1.8388474E1,1.3436565E0,1.8122446E1,0E0,0E0,1.3199805E1,1.1158197E1,1.5586729E0,9.6798E0,9.907919E0,9.921079E0,0E0,0E0,1.1542186E1,6.901287E0,7.167142E0,0E0,8.970581E0,5.698423E0,0E0,1.4280882E0,8.983812E0,5.0543175E0,4.9584975E0,1.2300324E1,1.21848E1,2.8609715E0,2.1342764E0,3.2051506E0,0E0,0E0,0E0,0E0,0E0,0E0,0E0,0E0,0E0,0E0,0E0,0E0,0E0,0E0,0E0,0E0,0E0,0E0],"parents":[2147483647,0,0,1,1,2,2,5,5,6,6,7,7,8,8,9,9,10,10,13,13,14,14,15,15,17,17,18,18,20,20,21,21,22,22,23,23,24,24,25,25,26,26,27,27,28,28],"right_children":[2,4,6,-1,-1,8,10,12,14,16,18,-1,-1,20,22,24,-1,26,28,-1,30,32,34,36,38,40,42,44,46,-1,-1,-1,-1,-1,-1,-1,-1,-1,-1,-1,-1,-1,-1,-1,-1,-1,-1],"split_conditions":[-4.0431954E-3,1.8400217E4,-6.6449E-4,-4.362634E-2,-5.2607516E-3,1.653873E4,-3.2670397E-4,-9.7494875E-4,4.6730964E-4,1.0583334E3,-2.5141702E-5,-4.2844117E-2,-5.207796E-3,2.2630682E-4,-9.207572E-5,1.1290916E-3,-4.5607667E-2,1.1353703E-3,-5.3829248E-5,2.7308932E-2,4.4145255E-4,2.9561578E-4,-7.065366E-5,4.4258835E-4,1.220349E-3,5.4834306E-4,1.7712797E-3,-5.919861E-5,1.7549021E-3,-4.3512996E-2,-4.077213E-3,-3.8036704E-2,1.4418293E-2,4.4892043E-2,1.8937405E-2,-7.4169884E-4,-3.6052644E-2,3.9893206E-2,-2.9274711E-2,1.447144E-2,-2.9786319E-2,4.215758E-2,4.555377E-3,-8.396634E-3,2.9697621E-2,-4.2247526E-2,5.719413E-3],"split_indices":[2,6,2,0,0,6,2,2,1,12,2,0,0,3,0,3,0,4,0,0,3,4,0,1,3,3,4,0,1,0,0,0,0,0,0,0,0,0,0,0,0,0,0,0,0,0,0],"split_type":[0,0,0,0,0,0,0,0,0,0,0,0,0,0,0,0,0,0,0,0,0,0,0,0,0,0,0,0,0,0,0,0,0,0,0,0,0,0,0,0,0,0,0,0,0,0,0],"sum_hessian":[1.663304E2,9.046184E0,1.5728421E2,7.811695E0,1.2344887E0,8.208766E1,7.519655E1,4.709417E0,7.737824E1,3.1146317E1,4.4050236E1,2.9795768E0,1.7298398E0,8.829383E0,6.854886E1,2.162512E1,9.521195E0,3.2646255E1,1.1403979E1,3.1846766E0,5.6447062E0,1.1857157E1,5.6691704E1,1.394506E1,7.680061E0,2.3081652E1,9.564603E0,3.7054844E0,7.698495E0,4.407228E0,1.2374781E0,3.2319746E0,8.625182E0,7.888532E0,4.880317E1,6.069346E0,7.8757133E0,4.6958528E0,2.9842083E0,1.5645342E1,7.4363103E0,6.8497953E0,2.7148075E0,2.4722166E0,1.2332678E0,6.4557614E0,1.2427337E0],"tree_param":{"num_deleted":"0","num_feature":"17","num_nodes":"47","size_leaf_vector":"1"}},{"base_weights":[1.4751962E-2,1.0308257E-1,-4.2585097E-2,-2.5717834E-1,3.3084396E-1,1.2131055E-1,-8.917882E-1,6.6140175E-1,-1.8489075E-1,3.8848825E-2,-7.031033E-2,3.1084836E-2,-1.1561283E0,9.7239524E-1,2.849762E-1,7.9419565E-1,-4.9152255E-1,-7.9723066E-1,3.4627116E-1,-1.3640115E0,1.872042E-2,1.3083589E0,1.14178866E-1,4.6823138E-1,-4.071063E-2,-3.3510726E-2,1.2528864E0,1.2054314E-1,-9.4533396E-1,-3.7799492E-2,3.2654315E-2,-3.0002624E-2,1.9637894E-2,-4.870009E-2,-7.21975E-3,8.671087E-4,4.1706696E-2,-3.4661096E-2,1.933265E-2,1.5251535E-3,3.206013E-2,1.2025734E-2,4.463005E-2,3.4926783E-2,-8.516775E-3,-4.8579186E-2,-1.0969533E-2],"categories":[],"categories_nodes":[],"categories_segments":[],"categories_sizes":[],"default_left":[0,0,0,0,0,0,0,0,0,0,0,0,0,0,0,0,0,0,0,0,0,0,0,0,0,0,0,0,0,0,0,0,0,0,0,0,0,0,0,0,0,0,0,0,0,0,0],"id":12,"left_children":[1,3,-1,5,7,9,11,13,15,-1,17,-1,19,21,23,25,27,29,31,33,-1,35,37,39,-1,-1,41,43,45,-1,-1,-1,-1,-1,-1,-1,-1,-1,-1,-1,-1,-1,-1,-1,-1,-1,-1],"loss_changes":[2.242351E1,1.3752995E1,0E0,1.574045E1,1.7594955E1,9.457522E0,1.365041E1,7.0602207E0,1.2643503E1,0E0,1.1405077E1,0E0,8.977932E0,9.626965E0,9.593348E0,1.026783E1,8.918449E0,1.3318755E1,1.0642242E1,5.4292183E0,0E0,2.5021172E0,7.903544E0,6.843875E0,0E0,0E0,1.129899E0,6.401503E0,6.5634727E0,0E0,0E0,0E0,0E0,0E0,0E0,0E0,0E0,0E0,0E0,0E0,0E0,0E0,0E0,0E0,0E0,0E0,0E0],"parents":[2147483647,0,0,1,1,3,3,4,4,5,5,6,6,7,7,8,8,10,10,12,12,13,13,14,14,15,15,16,16,17,17,18,18,19,19,21,21,22,22,23,23,26,26,27,27,28,28],"right_children":[2,4,-1,6,8,10,12,14,16,-1,18,-1,20,22,24,26,28,30,32,34,-1,36,38,40,-1,-1,42,44,46,-1,-1,-1,-1,-1,-1,-1,-1,-1,-1,-1,-1,-1,-1,-1,-1,-1,-1],"split_conditions":[2.5645199E-3,1.3614147E1,-4.2585097E-2,-1.5382702E-5,2.5172733E1,1.7635685E0,3.3937154E0,-3.1823872E-6,-1.5913763E-3,3.8848825E-2,5.487146E-4,3.1084836E-2,1.860899E4,7.0763344E-4,-2.7873873E-5,3.5448905E-4,2.3859781E4,-1.8440442E-5,-1.0561173E-4,5.25E3,1.872042E-2,3.5837636E-4,-7.065366E-5,2.9007646E4,-4.071063E-2,-3.3510726E-2,-2.0992174E-3,1.6949387E4,8.107893E-5,-3.7799492E-2,3.2654315E-2,-3.0002624E-2,1.9637894E-2,-4.870009E-2,-7.21975E-3,8.671087E-4,4.1706696E-2,-3.4661096E-2,1.933265E-2,1.5251535E-3,3.206013E-2,1.2025734E-2,4.463005E-2,3.4926783E-2,-8.516775E-3,-4.8579186E-2,-1.0969533E-2],"split_indices":[5,7,0,0,7,10,7,0,2,0,1,0,6,5,2,4,13,0,0,14,0,5,0,13,0,0,2,6,0,0,0,0,0,0,0,0,0,0,0,0,0,0,0,0,0,0,0],"split_type":[0,0,0,0,0,0,0,0,0,0,0,0,0,0,0,0,0,0,0,0,0,0,0,0,0,0,0,0,0,0,0,0,0,0,0,0,0,0,0,0,0,0,0,0,0,0,0],"sum_hessian":[1.7484203E2,1.655731E2,9.268922E0,6.408217E1,1.0149094E2,4.0648037E1,2.3434132E1,6.1676937E1,3.9813995E1,4.8969555E0,3.575108E1,2.4735603E0,2.0960571E1,3.2906864E1,2.8770075E1,9.116052E0,3.0697945E1,1.2691357E1,2.3059725E1,1.897809E1,1.9824803E0,2.327209E1,9.634772E0,2.6524633E1,2.245442E0,1.4866025E0,7.6294494E0,1.338273E1,1.7315214E1,1.0457028E1,2.2343278E0,3.8787673E0,1.9180956E1,1.50570965E1,3.9209945E0,1.480859E0,2.1791231E1,2.4912004E0,7.1435714E0,1.6287277E1,1.0237356E1,2.2330456E0,5.396404E0,3.2129014E0,1.0169828E1,7.177181E0,1.0138033E1],"tree_param":{"num_deleted":"0","num_feature":"17","num_nodes":"47","size_leaf_vector":"1"}},{"base_weights":[5.2656056E-3,-4.185856E-2,7.131026E-2,-1.9221993E-1,3.5290197E-1,3.2355154E-1,-4.9811527E-1,-3.5917427E-2,6.128769E-1,-5.526009E-1,5.1167494E-1,-2.9907334E-1,-1.3084323E0,-9.128169E-1,4.0358958E-1,7.075708E-1,-7.972354E-1,3.0021966E-2,-1.1400342E0,4.0183824E-2,2.2252277E-1,-5.634748E-1,5.790906E-1,-4.584436E-3,-4.8153587E-2,2.317719E-2,-4.4217993E-2,8.221666E-1,-4.7413132E-1,-1.9007283E-1,8.41235E-1,-6.229255E-3,-3.094179E-2,-6.196557E-3,-4.1835394E-2,-1.4501347E-2,2.7735716E-2,-2.434165E-2,1.8353049E-2,4.043976E-2,-8.377451E-3,-3.177031E-2,3.173618E-2,-4.0046662E-2,3.0529264E-2,-2.5429871E-2,2.7332664E-2,3.393166E-2,1.4205267E-2],"categories":[],"categories_nodes":[],"categories_segments":[],"categories_sizes":[],"default_left":[0,0,0,0,0,0,0,0,0,0,0,0,0,0,0,0,0,0,0,0,0,0,0,0,0,0,0,0,0,0,0,0,0,0,0,0,0,0,0,0,0,0,0,0,0,0,0,0,0],"id":13,"left_children":[1,-1,3,5,7,9,11,13,15,17,19,21,23,25,27,29,31,-1,33,-1,35,37,39,-1,-1,-1,-1,41,43,45,47,-1,-1,-1,-1,-1,-1,-1,-1,-1,-1,-1,-1,-1,-1,-1,-1,-1,-1],"loss_changes":[1.5902262E1,0E0,1.2245397E1,1.3637466E1,8.076768E0,5.6239862E0,8.319913E0,1.3038361E1,6.948101E0,6.8063035E0,6.211634E0,1.0694952E1,3.3048E0,1.1808447E1,8.690037E0,5.5988407E0,2.6611042E-1,0E0,8.932047E-1,0E0,1.1029349E1,1.0644172E1,7.522069E0,0E0,0E0,0E0,0E0,8.06529E0,1.1540091E1,5.6172576E0,3.6890678E0,0E0,0E0,0E0,0E0,0E0,0E0,0E0,0E0,0E0,0E0,0E0,0E0,0E0,0E0,0E0,0E0,0E0,0E0],"parents":[2147483647,0,0,2,2,3,3,4,4,5,5,6,6,7,7,8,8,9,9,10,10,11,11,12,12,13,13,14,14,15,15,16,16,18,18,20,20,21,21,22,22,27,27,28,28,29,29,30,30],"right_children":[2,-1,4,6,8,10,12,14,16,18,20,22,24,26,28,30,32,-1,34,-1,36,38,40,-1,-1,-1,-1,42,44,46,48,-1,-1,-1,-1,-1,-1,-1,-1,-1,-1,-1,-1,-1,-1,-1,-1,-1,-1],"split_conditions":[-2.3817753E-4,-4.185856E-2,3.1314182E-4,-9.499112E-4,1.7674893E4,-9.207572E-5,1.8971697E-4,1.0583001E-3,1.8478602E4,1.683867E4,-7.157088E-5,1.5480946E-4,-7.8531355E-4,3.3374663E-4,1.7169078E4,-1.9498724E-3,-5.682208E-4,3.0021966E-2,4.6474404E3,4.0183824E-2,2.1119174E4,9.775E3,4.5887346E-4,-4.584436E-3,-4.8153587E-2,2.317719E-2,-4.4217993E-2,1.6012816E4,1.8289412E-3,5.6666668E1,-6.0743565E-4,-6.229255E-3,-3.094179E-2,-6.196557E-3,-4.1835394E-2,-1.4501347E-2,2.7735716E-2,-2.434165E-2,1.8353049E-2,4.043976E-2,-8.377451E-3,-3.177031E-2,3.173618E-2,-4.0046662E-2,3.0529264E-2,-2.5429871E-2,2.7332664E-2,3.393166E-2,1.4205267E-2],"split_indices":[0,0,4,2,6,0,4,3,8,6,0,4,2,4,6,2,2,0,13,0,13,12,1,0,0,0,0,6,3,12,2,0,0,0,0,0,0,0,0,0,0,0,0,0,0,0,0,0,0],"split_type":[0,0,0,0,0,0,0,0,0,0,0,0,0,0,0,0,0,0,0,0,0,0,0,0,0,0,0,0,0,0,0,0,0,0,0,0,0,0,0,0,0,0,0,0,0,0,0,0,0],"sum_hessian":[1.6984271E2,6.7421193E0,1.6310059E2,8.4416245E1,7.868434E1,3.1405529E1,5.3010715E1,3.1874529E1,4.6809814E1,5.208835E0,2.6196693E1,4.3656296E1,9.354419E0,1.0282363E1,2.1592167E1,4.4331047E1,2.4787662E0,1.2362602E0,3.972575E0,5.841436E0,2.0355257E1,3.38292E1,9.827096E0,2.2204967E0,7.1339216E0,2.474128E0,7.8082347E0,1.4662871E1,6.9292946E0,5.690897E0,3.8640152E1,1.2409347E0,1.2378315E0,1.2390704E0,2.7335045E0,1.0304719E1,1.0050538E1,2.819183E1,5.6373715E0,4.8827004E0,4.9443955E0,1.2437267E0,1.3419145E1,4.4606524E0,2.4686425E0,3.7072308E0,1.983666E0,2.0448233E1,1.8191917E1],"tree_param":{"num_deleted":"0","num_feature":"17","num_nodes":"49","size_leaf_vector":"1"}},{"base_weights":[3.351319E-2,-4.852004E-1,2.513704E-1,3.7148293E-2,-1.0985446E0,-6.571224E-2,5.768516E-1,9.783728E-1,-2.393479E-1,-1.3001127E0,2.3636821E-1,-1.2796502E0,9.061609E-2,9.481326E-1,2.2424754E-2,-1.1851675E-3,4.2597905E-2,-1.1849926E0,1.388232E-1,8.99259E-3,-1.4183675E0,3.268787E-2,-2.7468035E-2,-6.436596E-3,-4.404071E-2,4.845737E-1,-4.2713028E-1,1.1213838E0,-2.1972877E-1,3.7135655E-1,-3.893685E-2,-4.2214032E-2,-3.5349447E-3,8.8560766E-1,-2.522851E-1,-7.128179E-3,-4.4931047E-2,-3.9830558E-2,6.651218E-1,2.794153E-1,-1.2888124E0,-2.5272438E-2,1.2639836E0,-3.8417976E-2,2.7709441E-2,-4.6878353E-1,9.404362E-1,-5.5252705E-3,4.0101193E-2,-2.505125E-2,2.0067396E-2,-3.1643253E-2,2.3728589E-2,-3.6765937E-2,1.7563364E-2,-1.0548128E-2,-4.2397007E-2,1.6672794E-2,4.051623E-2,1.2062215E-2,-3.9772335E-2,4.1642286E-2,4.782809E-3],"categories":[],"categories_nodes":[],"categories_segments":[],"categories_sizes":[],"default_left":[0,0,0,0,0,0,0,0,0,0,0,0,0,0,0,0,0,0,0,0,0,0,0,0,0,0,0,0,0,0,0,0,0,0,0,0,0,0,0,0,0,0,0,0,0,0,0,0,0,0,0,0,0,0,0,0,0,0,0,0,0,0,0],"id":14,"left_children":[1,3,5,7,9,11,13,15,17,19,21,23,25,27,29,-1,-1,31,33,-1,35,-1,-1,-1,-1,37,39,41,43,45,-1,-1,-1,47,49,-1,-1,-1,51,53,55,-1,57,-1,-1,59,61,-1,-1,-1,-1,-1,-1,-1,-1,-1,-1,-1,-1,-1,-1,-1,-1],"loss_changes":[1.9289286E1,1.6222666E1,1.2433342E1,7.5847754E0,6.5669384E0,1.1831676E1,1.2199976E1,3.0269098E0,8.259157E0,4.2781334E0,4.8290005E0,1.1114101E0,1.1553053E1,7.4360943E0,1.1924098E1,0E0,0E0,1.3919182E0,5.2074003E0,0E0,1.4368973E0,0E0,0E0,0E0,0E0,1.137244E1,1.5317675E1,9.776001E0,7.7651434E0,1.0204835E1,0E0,0E0,0E0,3.1835756E0,6.9883647E0,0E0,0E0,0E0,7.2877703E0,7.3132067E0,8.146038E-1,0E0,1.0517807E0,0E0,0E0,7.1857443E0,4.151574E0,0E0,0E0,0E0,0E0,0E0,0E0,0E0,0E0,0E0,0E0,0E0,0E0,0E0,0E0,0E0,0E0],"parents":[2147483647,0,0,1,1,2,2,3,3,4,4,5,5,6,6,7,7,8,8,9,9,10,10,11,11,12,12,13,13,14,14,17,17,18,18,20,20,25,25,26,26,27,27,28,28,29,29,33,33,34,34,38,38,39,39,40,40,42,42,45,45,46,46],"right_children":[2,4,6,8,10,12,14,16,18,20,22,24,26,28,30,-1,-1,32,34,-1,36,-1,-1,-1,-1,38,40,42,44,46,-1,-1,-1,48,50,-1,-1,-1,52,54,56,-1,58,-1,-1,60,62,-1,-1,-1,-1,-1,-1,-1,-1,-1,-1,-1,-1,-1,-1,-1,-1],"split_conditions":[4.881493E-4,7.4329515E0,1.7686396E4,-5.095E3,9.775E3,1.091909E1,-6.0743565E-4,-1.2230722E-3,-3.05E2,-8.075E4,-3.068017E-5,-7.157088E-5,1.7190836E4,2.7224913E1,1.0583334E3,-1.1851675E-3,4.2597905E-2,1.8266629E4,-7.299513E-5,8.99259E-3,2.9623517E-4,3.268787E-2,-2.7468035E-2,-6.436596E-3,-4.404071E-2,-1.47E4,8.944484E-4,-1.9673086E-3,1.5888365E-3,-2.597896E-4,-3.893685E-2,-4.2214032E-2,-3.5349447E-3,-9.207572E-5,-3.847225E-4,-7.128179E-3,-4.4931047E-2,-3.9830558E-2,1.5977677E4,1.7301828E4,-1.7887229E-3,-2.5272438E-2,5.812018E-4,-3.8417976E-2,2.7709441E-2,1.8006082E4,-2.7873873E-5,-5.5252705E-3,4.0101193E-2,-2.505125E-2,2.0067396E-2,-3.1643253E-2,2.3728589E-2,-3.6765937E-2,1.7563364E-2,-1.0548128E-2,-4.2397007E-2,1.6672794E-2,4.051623E-2,1.2062215E-2,-3.9772335E-2,4.1642286E-2,4.782809E-3],"split_indices":[3,7,9,12,12,7,2,2,12,14,0,0,6,7,12,0,0,6,0,0,3,0,0,0,0,14,1,2,3,2,0,0,0,0,2,0,0,0,6,6,2,0,1,0,0,6,2,0,0,0,0,0,0,0,0,0,0,0,0,0,0,0,0],"split_type":[0,0,0,0,0,0,0,0,0,0,0,0,0,0,0,0,0,0,0,0,0,0,0,0,0,0,0,0,0,0,0,0,0,0,0,0,0,0,0,0,0,0,0,0,0,0,0,0,0,0,0,0,0,0,0,0,0,0,0,0,0,0,0],"sum_hessian":[1.6861403E2,4.9508396E1,1.1910564E2,2.7244938E1,2.2263458E1,6.0735466E1,5.837017E1,5.6098623E0,2.1635077E1,1.9365406E1,2.8980532E0,6.109289E0,5.4626175E1,3.4533882E1,2.3836287E1,1.9727676E0,3.6370945E0,5.5709715E0,1.6064106E1,1.2272446E0,1.813816E1,1.6960143E0,1.202039E0,1.2395625E0,4.8697267E0,3.1057974E1,2.3568203E1,3.0107288E1,4.426593E0,1.9422169E1,4.414119E0,4.3474264E0,1.2235448E0,5.0868635E0,1.09772415E1,1.3934783E0,1.6744682E1,2.2382102E0,2.8819763E1,1.332113E1,1.0247072E1,1.7059835E0,2.8401306E1,2.233888E0,2.192705E0,7.914349E0,1.1507819E1,1.6842865E0,3.4025772E0,6.7810364E0,4.196205E0,1.4614725E0,2.7358292E1,1.7433501E0,1.157778E1,1.6493312E0,8.597741E0,3.901276E0,2.4500029E1,4.1886206E0,3.7257288E0,6.8210244E0,4.6867948E0],"tree_param":{"num_deleted":"0","num_feature":"17","num_nodes":"63","size_leaf_vector":"1"}},{"base_weights":[-3.7958906E-3,7.147139E-2,-4.2890333E-2,3.2650784E-1,-2.4271679E-1,-1.0558468E0,4.366295E-1,-7.6392686E-1,1.4579009E-1,-4.1446626E-2,7.626159E-3,2.5013817E-2,8.187965E-1,-3.758984E-1,-4.590651E-2,1.1397679E0,-7.942572E-2,-9.0828454E-1,4.0535197E-1,-3.244238E-1,9.238112E-1,5.5216503E-1,-6.165494E-1,4.367145E-2,2.800719E-3,-4.057883E-1,6.861164E-1,-3.5827726E-2,2.8381104E-2,-1.3524956E-2,2.1005303E-2,-3.7092283E-2,2.1798396E-2,1.5292019E-3,3.110416E-2,3.2423496E-2,-7.3867216E-4,2.2364557E-2,-2.34322E-2,-2.514162E-2,1.953501E-2,3.223436E-2,-3.310639E-2],"categories":[],"categories_nodes":[],"categories_segments":[],"categories_sizes":[],"default_left":[0,0,0,0,0,0,0,0,0,0,0,0,0,0,0,0,0,0,0,0,0,0,0,0,0,0,0,0,0,0,0,0,0,0,0,0,0,0,0,0,0,0,0],"id":15,"left_children":[1,3,-1,5,7,9,11,13,15,-1,-1,17,19,21,-1,23,25,27,29,31,33,35,37,-1,-1,39,41,-1,-1,-1,-1,-1,-1,-1,-1,-1,-1,-1,-1,-1,-1,-1,-1],"loss_changes":[1.8482527E1,1.3190702E1,0E0,1.4274483E1,1.5072819E1,3.3329096E0,1.3311907E1,8.854786E0,9.754927E0,0E0,0E0,1.5218872E1,5.5722675E0,5.338558E0,0E0,2.5222244E0,9.305709E0,7.7167892E0,7.9931583E0,5.1494074E0,3.9398117E0,1.5924675E0,4.6703963E0,0E0,0E0,1.2406704E1,8.95009E0,0E0,0E0,0E0,0E0,0E0,0E0,0E0,0E0,0E0,0E0,0E0,0E0,0E0,0E0,0E0,0E0],"parents":[2147483647,0,0,1,1,3,3,4,4,5,5,6,6,7,7,8,8,11,11,12,12,13,13,15,15,16,16,17,17,18,18,19,19,20,20,21,21,22,22,25,25,26,26],"right_children":[2,4,-1,6,8,10,12,14,16,-1,-1,18,20,22,-1,24,26,28,30,32,34,36,38,-1,-1,40,42,-1,-1,-1,-1,-1,-1,-1,-1,-1,-1,-1,-1,-1,-1,-1,-1],"split_conditions":[2.751542E-3,-6.6287717E-4,-4.2890333E-2,-1.6639163E-4,-3.2670397E-4,-8.005698E-4,2.1210578E4,1.0583334E3,-2.9582385E-4,-4.1446626E-2,7.626159E-3,6.145223E-4,-1.7687338E-3,-7.632695E-5,-4.590651E-2,-3.991032E-6,6.9317836E4,1.0055E4,1.7413285E4,1.78879E4,1.66466E4,1.6949387E4,2.8794055E-4,4.367145E-2,2.800719E-3,5.1745625E-5,1.174742E-4,-3.5827726E-2,2.8381104E-2,-1.3524956E-2,2.1005303E-2,-3.7092283E-2,2.1798396E-2,1.5292019E-3,3.110416E-2,3.2423496E-2,-7.3867216E-4,2.2364557E-2,-2.34322E-2,-2.514162E-2,1.953501E-2,3.223436E-2,-3.310639E-2],"split_indices":[5,2,0,0,2,2,13,12,2,0,0,5,2,0,0,0,13,12,6,8,8,6,5,0,0,0,0,0,0,0,0,0,0,0,0,0,0,0,0,0,0,0,0],"split_type":[0,0,0,0,0,0,0,0,0,0,0,0,0,0,0,0,0,0,0,0,0,0,0,0,0,0,0,0,0,0,0,0,0,0,0,0,0,0,0,0,0,0,0],"sum_hessian":[1.7026314E2,1.6262843E2,7.6347075E0,8.9742455E1,7.288598E1,5.9879436E0,8.375451E1,3.0714264E1,4.217172E1,4.7519307E0,1.2360129E0,4.083661E1,4.2917904E1,2.1379044E1,9.335221E0,7.0400515E0,3.5131668E1,1.1421556E1,2.9415052E1,3.4349296E0,3.948297E1,4.1356325E0,1.724341E1,5.1069403E0,1.9331113E0,2.4960533E1,1.0171133E1,1.02038765E1,1.2176803E0,7.398972E0,2.201608E1,1.74469E0,1.6902397E0,4.6917906E0,3.4791183E1,1.7019861E0,2.4336464E0,1.4778298E0,1.5765581E1,1.7862406E1,7.098128E0,8.685888E0,1.4852444E0],"tree_param":{"num_deleted":"0","num_feature":"17","num_nodes":"43","size_leaf_vector":"1"}},{"base_weights":[6.501857E-2,1.4183336E-1,-4.220478E-2,-2.4282506E-1,3.9366198E-1,1.1782275E0,-4.178938E-1,6.4652234E-1,-1.1608092E-1,4.004921E-2,1.2954842E-2,-6.9843084E-1,1.6616547E-1,6.9433105E-1,-3.0313216E-2,-8.289223E-1,2.3534389E-1,-1.6441117E-1,-1.1965278E0,-3.4857683E-2,6.163458E-1,-5.58349E-1,7.5851405E-1,1.7401542E-1,-4.2178974E-2,-7.505908E-1,6.249752E-1,-2.0072736E-2,3.900117E-2,-4.0909946E-2,-1.0698694E-2,3.255831E-2,-2.9369472E-2,6.1685992E-3,-3.058979E-2,1.9096052E-2,4.019963E-2,-2.9360572E-2,2.4537465E-2,7.4344263E-3,-4.101477E-2,3.6242098E-2,-6.036454E-3],"categories":[],"categories_nodes":[],"categories_segments":[],"categories_sizes":[],"default_left":[0,0,0,0,0,0,0,0,0,0,0,0,0,0,0,0,0,0,0,0,0,0,0,0,0,0,0,0,0,0,0,0,0,0,0,0,0,0,0,0,0,0,0],"id":16,"left_children":[1,3,-1,5,7,9,11,13,15,-1,-1,17,19,21,-1,23,25,27,29,-1,31,33,35,37,-1,39,41,-1,-1,-1,-1,-1,-1,-1,-1,-1,-1,-1,-1,-1,-1,-1,-1],"loss_changes":[1.9015646E1,1.5505375E1,0E0,1.6304756E1,1.25160055E1,2.6977444E-1,9.508931E0,5.824505E0,8.424782E0,0E0,0E0,1.0155085E1,1.2320067E1,5.5248127E0,0E0,6.6506667E0,9.221155E0,1.5607658E1,2.3180008E0,0E0,1.2395042E1,1.5025159E0,3.458023E0,4.4614806E0,0E0,4.5910273E0,8.372676E0,0E0,0E0,0E0,0E0,0E0,0E0,0E0,0E0,0E0,0E0,0E0,0E0,0E0,0E0,0E0,0E0],"parents":[2147483647,0,0,1,1,3,3,4,4,5,5,6,6,7,7,8,8,11,11,12,12,13,13,15,15,16,16,17,17,18,18,20,20,21,21,22,22,23,23,25,25,26,26],"right_children":[2,4,-1,6,8,10,12,14,16,-1,-1,18,20,22,-1,24,26,28,30,-1,32,34,36,38,-1,40,42,-1,-1,-1,-1,-1,-1,-1,-1,-1,-1,-1,-1,-1,-1,-1,-1],"split_conditions":[2.751542E-3,1.36454115E1,-4.220478E-2,1.7635685E0,2.642075E1,7.404312E-4,6.985359E-4,1.6876666E4,3.4700638E1,4.004921E-2,1.2954842E-2,7.3163924E0,-1.2541411E-4,4.4145255E-4,-3.0313216E-2,7.6439034E-4,1.1290916E-3,6.759107E0,6.749888E-4,-3.4857683E-2,-2.8034847E-5,3.4883316E-4,2.3684649E1,6.21249E-4,-4.2178974E-2,7.881789E-4,4.4224865E1,-2.0072736E-2,3.900117E-2,-4.0909946E-2,-1.0698694E-2,3.255831E-2,-2.9369472E-2,6.1685992E-3,-3.058979E-2,1.9096052E-2,4.019963E-2,-2.9360572E-2,2.4537465E-2,7.4344263E-3,-4.101477E-2,3.6242098E-2,-6.036454E-3],"split_indices":[5,7,0,10,7,5,1,12,7,0,0,7,0,3,0,1,3,7,5,0,0,3,7,3,0,3,7,0,0,0,0,0,0,0,0,0,0,0,0,0,0,0,0],"split_type":[0,0,0,0,0,0,0,0,0,0,0,0,0,0,0,0,0,0,0,0,0,0,0,0,0,0,0,0,0,0,0,0,0,0,0,0,0,0,0,0,0,0,0],"sum_hessian":[1.6542673E2,1.5808023E2,7.3464885E0,6.2559216E1,9.552102E1,6.2332377E0,5.6325977E1,6.366926E1,3.185176E1,4.49973E0,1.7335076E0,3.7917507E1,1.8408468E1,6.244838E1,1.2208768E0,1.0068911E1,2.1782848E1,1.894079E1,1.8976719E1,4.2599797E0,1.4148489E1,2.6684294E0,5.977995E1,3.9324694E0,6.136441E0,5.907619E0,1.587523E1,1.4490256E1,4.4505334E0,1.5307086E1,3.669633E0,1.1181508E1,2.9669807E0,1.2133276E0,1.4551018E0,5.114556E1,8.63439E0,1.2230492E0,2.7094202E0,2.483759E0,3.4238603E0,9.035846E0,6.8393846E0],"tree_param":{"num_deleted":"0","num_feature":"17","num_nodes":"43","size_leaf_vector":"1"}},{"base_weights":[4.3772466E-2,-3.8796753E-2,1.0114824E-1,3.5108772E-1,-2.007337E-1,7.306794E-2,6.4452845E-1,-7.382578E-1,1.3467543E-1,-2.7020308E-1,5.776967E-1,7.6439E-1,-8.356391E-1,3.5245463E-2,-9.2325866E-1,-7.4763876E-1,3.8399386E-1,1.08721584E-1,-1.0688491E0,2.2056651E-1,1.1723872E0,8.794031E-2,1.0971315E0,-3.3261314E-2,-4.653463E-3,2.509363E-2,-1.093202E0,1.149617E-1,-4.143588E-2,5.1974434E-1,-3.62618E-2,-7.627672E-3,3.670568E-2,-4.5577608E-2,1.1174863E-3,2.1693597E-2,-3.449186E-2,4.0913448E-2,7.875482E-3,-2.9263863E-2,1.666765E-2,7.239696E-4,3.56962E-2,-3.952704E-2,-1.2533903E-2,-3.3287305E-2,3.3353023E-2,-3.4492664E-2,1.9602701E-2],"categories":[],"categories_nodes":[],"categories_segments":[],"categories_sizes":[],"default_left":[0,0,0,0,0,0,0,0,0,0,0,0,0,0,0,0,0,0,0,0,0,0,0,0,0,0,0,0,0,0,0,0,0,0,0,0,0,0,0,0,0,0,0,0,0,0,0,0,0],"id":17,"left_children":[1,-1,3,5,7,9,11,13,15,17,19,21,23,-1,25,27,29,31,33,35,37,39,41,-1,-1,-1,43,45,-1,47,-1,-1,-1,-1,-1,-1,-1,-1,-1,-1,-1,-1,-1,-1,-1,-1,-1,-1,-1],"loss_changes":[1.3024752E1,0E0,1.2300919E1,7.217021E0,1.345082E1,8.271556E0,8.301479E0,1.121001E1,1.0504223E1,8.760378E0,3.8373218E0,9.014343E0,5.180621E-1,0E0,8.882925E0,5.9366E0,8.600864E0,8.51737E0,4.681673E0,9.977461E0,8.6175346E-1,7.7194924E0,2.6625443E0,0E0,0E0,0E0,3.1974754E0,7.825043E0,0E0,8.49047E0,0E0,0E0,0E0,0E0,0E0,0E0,0E0,0E0,0E0,0E0,0E0,0E0,0E0,0E0,0E0,0E0,0E0,0E0,0E0],"parents":[2147483647,0,0,2,2,3,3,4,4,5,5,6,6,7,7,8,8,9,9,10,10,11,11,12,12,14,14,15,15,16,16,17,17,18,18,19,19,20,20,21,21,22,22,26,26,27,27,29,29],"right_children":[2,-1,4,6,8,10,12,14,16,18,20,22,24,-1,26,28,30,32,34,36,38,40,42,-1,-1,-1,44,46,-1,48,-1,-1,-1,-1,-1,-1,-1,-1,-1,-1,-1,-1,-1,-1,-1,-1,-1,-1,-1],"split_conditions":[-5.333746E-3,-3.8796753E-2,-6.6287717E-4,1.7758025E4,-3.2670397E-4,2.7080498E-5,2.7224913E1,3.3937154E0,1.1888018E1,1.71654E1,1.504334E5,4.4604222E-4,3.3333333E0,3.5245463E-2,-2.2514792E-4,7.228944E0,4.4224865E1,1.4371873E1,2.0183334E3,4.6791664E4,4.9035423E1,1.6132304E-4,-1.907735E-3,-3.3261314E-2,-4.653463E-3,2.509363E-2,8.637517E-4,6.110042E0,-4.143588E-2,8.328695E-5,-3.62618E-2,-7.627672E-3,3.670568E-2,-4.5577608E-2,1.1174863E-3,2.1693597E-2,-3.449186E-2,4.0913448E-2,7.875482E-3,-2.9263863E-2,1.666765E-2,7.239696E-4,3.56962E-2,-3.952704E-2,-1.2533903E-2,-3.3287305E-2,3.3353023E-2,-3.4492664E-2,1.9602701E-2],"split_indices":[2,0,2,11,2,0,7,7,7,7,13,3,12,0,0,7,7,7,12,13,7,4,2,0,0,0,4,7,0,4,0,0,0,0,0,0,0,0,0,0,0,0,0,0,0,0,0,0,0],"split_type":[0,0,0,0,0,0,0,0,0,0,0,0,0,0,0,0,0,0,0,0,0,0,0,0,0,0,0,0,0,0,0,0,0,0,0,0,0,0,0,0,0,0,0,0,0,0,0,0,0],"sum_hessian":[1.6708408E2,5.9888754E0,1.610952E2,8.8040306E1,7.305489E1,4.58494E1,4.2190907E1,2.7608559E1,4.5446335E1,2.7563812E1,1.8285587E1,3.947765E1,2.7132568E0,1.9626055E0,2.5645954E1,9.572267E0,3.587407E1,1.9280077E1,8.283736E0,1.2281224E1,6.0043635E0,1.3433067E1,2.6044582E1,1.4872649E0,1.2259918E0,1.9132156E0,2.3732738E1,4.400054E0,5.1722126E0,3.367736E1,2.1967072E0,1.5126758E1,4.153319E0,5.6212378E0,2.6624985E0,9.331282E0,2.9499426E0,4.5486646E0,1.4556992E0,3.771354E0,9.661714E0,2.1722639E0,2.3872318E1,1.710107E1,6.6316686E0,1.9237125E0,2.4763412E0,1.9331859E0,3.1744175E1],"tree_param":{"num_deleted":"0","num_feature":"17","num_nodes":"49","size_leaf_vector":"1"}},{"base_weights":[-3.5250306E-2,3.4710772E-2,-4.150764E-2,-1.4283347E-1,6.251267E-1,-5.237674E-1,1.2234438E-1,7.585585E-1,-3.6173996E-2,2.4551879E-1,-7.363642E-1,-8.62749E-2,9.6935296E-1,-3.0326584E-2,8.502033E-1,5.70042E-1,-3.283367E-2,2.9060738E-2,-8.767077E-1,-1.0438519E0,1.0997701E-1,1.153157E0,-1.257289E-2,1.0620745E0,4.957814E-2,2.5761293E-2,-2.7009984E-2,3.0000415E-2,-2.9313806E-2,1.1615254E-2,-3.9523028E-2,1.0862286E-2,-1.4997402E-2,-1.6695863E-3,3.996332E-2,3.5613842E-2,-1.2184596E-2,3.1963028E-2,-4.040096E-2],"categories":[],"categories_nodes":[],"categories_segments":[],"categories_sizes":[],"default_left":[0,0,0,0,0,0,0,0,0,0,0,0,0,0,0,0,0,0,0,0,0,0,0,0,0,0,0,0,0,0,0,0,0,0,0,0,0,0,0],"id":18,"left_children":[1,3,-1,5,7,9,11,13,-1,15,17,19,21,-1,23,25,-1,-1,27,29,31,33,-1,35,37,-1,-1,-1,-1,-1,-1,-1,-1,-1,-1,-1,-1,-1,-1],"loss_changes":[1.6179121E1,1.723291E1,0E0,1.284749E1,1.0197216E1,8.706184E0,1.3410779E1,6.7019043E0,0E0,5.8580556E0,1.0682117E1,1.1659962E1,4.307996E0,0E0,5.8500843E0,5.1650853E0,0E0,0E0,8.231136E0,4.6383123E0,8.159236E0,2.9947834E0,0E0,5.5253315E0,1.3251129E1,0E0,0E0,0E0,0E0,0E0,0E0,0E0,0E0,0E0,0E0,0E0,0E0,0E0,0E0],"parents":[2147483647,0,0,1,1,3,3,4,4,5,5,6,6,7,7,9,9,10,10,11,11,12,12,14,14,15,15,18,18,19,19,20,20,21,21,23,23,24,24],"right_children":[2,4,-1,6,8,10,12,14,-1,16,18,20,22,-1,24,26,-1,-1,28,30,32,34,-1,36,38,-1,-1,-1,-1,-1,-1,-1,-1,-1,-1,-1,-1,-1,-1],"split_conditions":[2.751542E-3,1.1709136E-3,-4.150764E-2,6.012152E-4,1.8227775E4,-1.755E4,1.8349633E4,3.191625E-4,-3.6173996E-2,5.594598E-4,1.6099971E4,-1.0874962E-4,7.721586E-4,-3.0326584E-2,3.350814E1,4.9435715E4,-3.283367E-2,2.9060738E-2,2.0251889E-4,4.744149E0,7.881789E-4,-8.802594E1,-1.257289E-2,1.915E4,3.695997E4,2.5761293E-2,-2.7009984E-2,3.0000415E-2,-2.9313806E-2,1.1615254E-2,-3.9523028E-2,1.0862286E-2,-1.4997402E-2,-1.6695863E-3,3.996332E-2,3.5613842E-2,-1.2184596E-2,3.1963028E-2,-4.040096E-2],"split_indices":[5,3,0,5,6,14,6,5,0,5,6,0,4,0,10,13,0,0,3,7,3,15,0,14,13,0,0,0,0,0,0,0,0,0,0,0,0,0,0],"split_type":[0,0,0,0,0,0,0,0,0,0,0,0,0,0,0,0,0,0,0,0,0,0,0,0,0,0,0,0,0,0,0,0,0,0,0,0,0,0,0],"sum_hessian":[1.7000494E2,1.6254523E2,7.4597144E0,1.25549324E2,3.699591E1,5.1127853E1,7.442147E1,3.5028824E1,1.967086E0,1.1036646E1,4.009121E1,6.0434513E1,1.3986956E1,1.2309816E0,3.3797844E1,9.347419E0,1.6892275E0,2.600083E0,3.7491123E1,9.5445595E0,5.0889954E1,1.2501465E1,1.4854903E0,2.6467209E1,7.3306346E0,8.161186E0,1.1862326E0,1.4491814E0,3.6041943E1,1.465222E0,8.079338E0,3.6294067E1,1.4595886E1,1.7009254E0,1.0800539E1,2.4566277E1,1.9009324E0,4.3805366E0,2.9500978E0],"tree_param":{"num_deleted":"0","num_feature":"17","num_nodes":"39","size_leaf_vector":"1"}},{"base_weights":[-1.8716468E-2,6.263552E-2,-3.90034E-2,3.6213586E-1,-3.0112225E-1,1.0734467E-1,9.78425E-1,-7.5789666E-1,3.2373495E-2,-2.563317E-1,6.7645663E-1,-1.3769032E-2,1.1342914E0,2.7759118E-2,-9.232464E-1,-3.7805486E-2,2.0763111E-1,6.518731E-1,-5.2202165E-1,2.1619485E-1,1.128665E0,3.8590035E-1,1.3164891E0,-3.7043983E-1,-1.3985671E0,3.5138705E-1,-3.7092093E-2,3.3611767E-2,-3.2211047E-2,-9.020584E-3,-4.4919338E-2,-3.0292006E-2,1.8523457E-2,3.8937166E-2,-6.0012876E-3,-9.975169E-3,2.499782E-2,4.36786E-2,1.9102389E-2,-3.9870873E-2,8.934545E-3,-1.839512E-2,-4.549358E-2,-1.0598063E-2,2.0523656E-2],"categories":[],"categories_nodes":[],"categories_segments":[],"categories_sizes":[],"default_left":[0,0,0,0,0,0,0,0,0,0,0,0,0,0,0,0,0,0,0,0,0,0,0,0,0,0,0,0,0,0,0,0,0,0,0,0,0,0,0,0,0,0,0,0,0],"id":19,"left_children":[1,3,-1,5,7,9,11,13,15,17,19,-1,21,-1,23,-1,25,27,29,31,33,35,37,39,41,43,-1,-1,-1,-1,-1,-1,-1,-1,-1,-1,-1,-1,-1,-1,-1,-1,-1,-1,-1],"loss_changes":[1.7295265E1,1.7129198E1,0E0,1.3420296E1,1.0854052E1,1.301886E1,6.1375885E0,9.215385E0,9.787184E0,9.652427E0,4.849493E0,0E0,2.6153984E0,0E0,6.8011208E0,0E0,8.299462E0,8.623992E0,6.114752E0,7.197835E0,2.982193E0,2.1730857E0,7.7999496E-1,9.516569E0,4.2349052E-1,8.503216E0,0E0,0E0,0E0,0E0,0E0,0E0,0E0,0E0,0E0,0E0,0E0,0E0,0E0,0E0,0E0,0E0,0E0,0E0,0E0],"parents":[2147483647,0,0,1,1,3,3,4,4,5,5,6,6,7,7,8,8,9,9,10,10,12,12,14,14,16,16,17,17,18,18,19,19,20,20,21,21,22,22,23,23,24,24,25,25],"right_children":[2,4,-1,6,8,10,12,14,16,18,20,-1,22,-1,24,-1,26,28,30,32,34,36,38,40,42,44,-1,-1,-1,-1,-1,-1,-1,-1,-1,-1,-1,-1,-1,-1,-1,-1,-1,-1,-1],"split_conditions":[2.5645199E-3,-6.6287717E-4,-3.90034E-2,5.4E3,1.5098633E1,4.922919E-4,4.8504773E-4,3.3937154E0,-5.2867393E-4,4.744149E0,1.7659938E4,-1.3769032E-2,1.7612754E4,2.7759118E-2,1.3751304E4,-3.7805486E-2,4.4224865E1,4.7821915E2,5.125E3,1.0330619E-3,2.6070578E1,1.0055E4,2.5663576E1,-3.2071752E-4,6.927386E0,3.242906E-4,-3.7092093E-2,3.3611767E-2,-3.2211047E-2,-9.020584E-3,-4.4919338E-2,-3.0292006E-2,1.8523457E-2,3.8937166E-2,-6.0012876E-3,-9.975169E-3,2.499782E-2,4.36786E-2,1.9102389E-2,-3.9870873E-2,8.934545E-3,-1.839512E-2,-4.549358E-2,-1.0598063E-2,2.0523656E-2],"split_indices":[5,2,0,14,7,4,3,7,2,7,6,0,6,0,13,0,7,16,12,3,7,12,7,2,7,4,0,0,0,0,0,0,0,0,0,0,0,0,0,0,0,0,0,0,0],"split_type":[0,0,0,0,0,0,0,0,0,0,0,0,0,0,0,0,0,0,0,0,0,0,0,0,0,0,0,0,0,0,0,0,0,0,0,0,0,0,0,0,0,0,0,0,0],"sum_hessian":[1.6412991E2,1.5522618E2,8.903719E0,8.513481E1,7.009138E1,6.1063595E1,2.4071217E1,2.9041681E1,4.1049694E1,3.759138E1,2.3472214E1,2.1646152E0,2.1906603E1,2.1866212E0,2.685506E1,4.1622076E0,3.6887486E1,8.179156E0,2.9412226E1,1.2365045E1,1.1107169E1,4.8995104E0,1.7007092E1,1.32381735E1,1.3616887E1,3.423591E1,2.651577E0,6.7084317E0,1.4707249E0,2.5038261E1,4.373964E0,2.675202E0,9.689843E0,9.872827E0,1.2343428E0,1.9786996E0,2.920811E0,1.316424E1,3.8428519E0,5.031661E0,8.206512E0,2.586447E0,1.1030439E1,1.0961103E1,2.3274805E1],"tree_param":{"num_deleted":"0","num_feature":"17","num_nodes":"45","size_leaf_vector":"1"}},{"base_weights":[-6.8547605E-3,6.115076E-2,-3.9826E-2,-1.2657796E-1,4.135987E-1,-2.8289273E-1,4.2409217E-1,5.188666E-1,-3.8194913E-2,1.0372078E0,-3.7724906E-1,6.206184E-1,-3.595576E-2,5.940181E-1,-7.6658434E-1,1.1925075E-2,3.683579E-2,6.1432905E-3,-5.965113E-1,-3.0534988E-2,8.1771904E-1,-3.0624798E-2,6.532438E-1,-5.787167E-3,-2.9897982E-2,-2.0186791E-2,1.0722064E-2,-2.6725335E-2,-2.338257E-3,-7.6563717E-3,3.135514E-2,2.7418623E-2,1.1762905E-2],"categories":[],"categories_nodes":[],"categories_segments":[],"categories_sizes":[],"default_left":[0,0,0,0,0,0,0,0,0,0,0,0,0,0,0,0,0,0,0,0,0,0,0,0,0,0,0,0,0,0,0,0,0],"id":20,"left_children":[1,3,-1,5,7,9,11,13,-1,15,17,19,-1,21,23,-1,-1,25,27,-1,29,-1,31,-1,-1,-1,-1,-1,-1,-1,-1,-1,-1],"loss_changes":[1.5448852E1,1.0882391E1,0E0,9.378832E0,1.08028555E1,1.0901798E1,8.455325E0,5.7178097E0,0E0,2.3096275E-1,6.6854963E0,8.010898E0,0E0,5.6429386E0,2.6239204E-1,0E0,0E0,7.374274E0,7.6502037E0,0E0,5.2443104E0,0E0,3.1001778E0,0E0,0E0,0E0,0E0,0E0,0E0,0E0,0E0,0E0,0E0],"parents":[2147483647,0,0,1,1,3,3,4,4,5,5,6,6,7,7,9,9,10,10,11,11,13,13,14,14,17,17,18,18,20,20,22,22],"right_children":[2,4,-1,6,8,10,12,14,-1,16,18,20,-1,22,24,-1,-1,26,28,-1,30,-1,32,-1,-1,-1,-1,-1,-1,-1,-1,-1,-1],"split_conditions":[2.751542E-3,6.3721393E-4,-3.9826E-2,6.6E3,4.4185917E1,1.7635685E0,7.117949E4,1.8415316E4,-3.8194913E-2,-5E3,-9.88151E-4,7.178471E-5,-3.595576E-2,1.6012816E4,-6.6689367E-4,1.1925075E-2,3.683579E-2,8.265155E0,-3.188451E-4,-3.0534988E-2,1.7106326E4,-3.0624798E-2,-6.6449E-4,-5.787167E-3,-2.9897982E-2,-2.0186791E-2,1.0722064E-2,-2.6725335E-2,-2.338257E-3,-7.6563717E-3,3.135514E-2,2.7418623E-2,1.1762905E-2],"split_indices":[5,4,0,14,10,10,13,6,0,14,2,4,0,6,2,0,0,10,2,0,11,0,2,0,0,0,0,0,0,0,0,0,0],"split_type":[0,0,0,0,0,0,0,0,0,0,0,0,0,0,0,0,0,0,0,0,0,0,0,0,0,0,0,0,0,0,0,0,0],"sum_hessian":[1.7010661E2,1.6268329E2,7.4233313E0,1.0656377E2,5.6119522E1,8.338122E1,2.3182549E1,5.347465E1,2.6448705E0,4.8956556E0,7.848556E1,2.1228893E1,1.953655E0,5.1029213E1,2.4454367E0,1.8323681E0,3.0632873E0,2.8908829E1,4.957673E1,1.8324169E0,1.9396477E1,1.2309164E0,4.9798298E1,1.2260988E0,1.2193379E0,9.543719E0,1.9365108E1,3.1168186E1,1.8408545E1,3.3713212E0,1.6025156E1,2.3669052E1,2.6129246E1],"tree_param":{"num_deleted":"0","num_feature":"17","num_nodes":"33","size_leaf_vector":"1"}},{"base_weights":[5.535093E-3,6.1372943E-2,-3.7795674E-2,-3.3677506E-1,2.5531718E-1,7.3738736E-1,-5.670674E-1,3.2630357E-1,-4.4509846E-1,-1.1389018E-2,1.0907243E0,-4.0782947E-2,-3.092366E-1,-3.4363646E-2,3.8615048E-1,3.301138E-2,-9.178132E-1,1.0847096E-2,3.925775E-2,-4.430915E-1,2.9159842E-2,3.0661958E-1,3.5569787E-2,-1.3115516E0,1.2907795E-2,1.5368516E-2,-2.037202E-2,1.1152192E-2,-3.9432995E-2,-4.535689E-2,-6.495924E-3],"categories":[],"categories_nodes":[],"categories_segments":[],"categories_sizes":[],"default_left":[0,0,0,0,0,0,0,0,0,0,0,0,0,0,0,0,0,0,0,0,0,0,0,0,0,0,0,0,0,0,0],"id":21,"left_children":[1,3,-1,5,7,9,11,13,15,-1,17,-1,19,-1,21,-1,23,-1,-1,25,-1,27,-1,29,-1,-1,-1,-1,-1,-1,-1],"loss_changes":[1.2005244E1,1.2644359E1,0E0,1.3702803E1,5.611002E0,4.327634E0,8.72954E0,9.28485E0,8.709517E0,0E0,7.645292E-1,0E0,6.4479647E0,0E0,5.81806E0,0E0,5.13748E0,0E0,0E0,7.6645737E0,0E0,9.965046E0,0E0,1.1896992E0,0E0,0E0,0E0,0E0,0E0,0E0,0E0],"parents":[2147483647,0,0,1,1,3,3,4,4,5,5,6,6,7,7,8,8,10,10,12,12,14,14,16,16,19,19,21,21,23,23],"right_children":[2,4,-1,6,8,10,12,14,16,-1,18,-1,20,-1,22,-1,24,-1,-1,26,-1,28,-1,30,-1,-1,-1,-1,-1,-1,-1],"split_conditions":[2.751542E-3,5.725315E-4,-3.7795674E-2,2.8713326E0,-2.5141702E-5,4.4396977E-4,5.7809367E0,-3.18E4,-4.855E4,-1.1389018E-2,1.7958773E4,-4.0782947E-2,2.25E4,-3.4363646E-2,-1.14414186E-4,3.301138E-2,1.7549021E-3,1.0847096E-2,3.925775E-2,7.044657E0,2.9159842E-2,-2.5416154E-4,3.5569787E-2,1.555E3,1.2907795E-2,1.5368516E-2,-2.037202E-2,1.1152192E-2,-3.9432995E-2,-4.535689E-2,-6.495924E-3],"split_indices":[5,1,0,10,2,5,10,14,14,0,6,0,14,0,2,0,1,0,0,10,0,2,0,12,0,0,0,0,0,0,0],"split_type":[0,0,0,0,0,0,0,0,0,0,0,0,0,0,0,0,0,0,0,0,0,0,0,0,0,0,0,0,0,0,0],"sum_hessian":[1.6781516E2,1.6163423E2,6.1809278E0,5.270327E1,1.0893096E2,8.915652E0,4.3787617E1,9.939183E1,9.53913E0,2.1246061E0,6.7910457E0,9.701243E0,3.4086376E1,3.174894E0,9.6216934E1,1.9233162E0,7.6158137E0,2.1741683E0,4.6168776E0,3.1454388E1,2.6319876E0,8.877007E1,7.4468627E0,5.915218E0,1.7005959E0,5.998373E0,2.5456015E1,8.608268E1,2.6873925E0,4.6785336E0,1.2366841E0],"tree_param":{"num_deleted":"0","num_feature":"17","num_nodes":"31","size_leaf_vector":"1"}},{"base_weights":[-3.0421026E-2,4.077886E-2,-3.722235E-2,-1.0806608E0,1.0593564E-1,-4.020771E-2,9.578729E-3,-1.717339E-1,3.14819E-1,2.4227649E-1,-6.385194E-1,-4.2294074E-2,6.8176085E-1,-3.5308324E-2,3.6243808E-1,-1.7352629E-1,-1.0948105E0,-4.4871452E-1,3.9301676E-1,7.965364E-1,-6.3021964E-1,2.06728E-3,2.8721897E-2,5.9448956E-3,-3.991218E-2,-4.3899268E-2,7.4686306E-3,2.7162068E-2,-2.4958534E-2,-2.3635294E-2,1.9642083E-2,-2.6343875E-2,2.6140915E-2,7.4974555E-3,-3.358788E-2],"categories":[],"categories_nodes":[],"categories_segments":[],"categories_sizes":[],"default_left":[0,0,0,0,0,0,0,0,0,0,0,0,0,0,0,0,0,0,0,0,0,0,0,0,0,0,0,0,0,0,0,0,0,0,0],"id":22,"left_children":[1,3,-1,5,7,-1,-1,9,11,13,15,17,19,-1,21,23,25,27,29,31,33,-1,-1,-1,-1,-1,-1,-1,-1,-1,-1,-1,-1,-1,-1],"loss_changes":[1.4231028E1,1.15410595E1,0E0,3.5810528E0,8.678957E0,0E0,0E0,1.2617149E1,1.1195543E1,6.3783703E0,6.2996893E0,7.9834585E0,6.8397636E0,0E0,5.6867356E0,7.2886753E0,7.915474E0,1.2838619E1,7.2655134E0,5.670351E0,1.9785827E0,0E0,0E0,0E0,0E0,0E0,0E0,0E0,0E0,0E0,0E0,0E0,0E0,0E0,0E0],"parents":[2147483647,0,0,1,1,3,3,4,4,7,7,8,8,9,9,10,10,11,11,12,12,14,14,15,15,16,16,17,17,18,18,19,19,20,20],"right_children":[2,4,-1,6,8,-1,-1,10,12,14,16,18,20,-1,22,24,26,28,30,32,34,-1,-1,-1,-1,-1,-1,-1,-1,-1,-1,-1,-1,-1,-1],"split_conditions":[2.5645199E-3,7.178471E-5,-3.722235E-2,1.8608262E4,1.76448E4,-4.020771E-2,9.578729E-3,1.7190836E4,2.3161555E4,1.5985005E4,7.137462E-4,6.012152E-4,3.350814E1,-3.5308324E-2,9.4625907E-4,1.2815148E1,2.1875366E-3,3.0531525E-4,-2.5026156E-3,3.7687062E-4,5.7382253E-4,2.06728E-3,2.8721897E-2,5.9448956E-3,-3.991218E-2,-4.3899268E-2,7.4686306E-3,2.7162068E-2,-2.4958534E-2,-2.3635294E-2,1.9642083E-2,-2.6343875E-2,2.6140915E-2,7.4974555E-3,-3.358788E-2],"split_indices":[5,4,0,6,11,0,0,6,13,9,3,5,10,0,4,10,4,5,2,5,4,0,0,0,0,0,0,0,0,0,0,0,0,0,0],"split_type":[0,0,0,0,0,0,0,0,0,0,0,0,0,0,0,0,0,0,0,0,0,0,0,0,0,0,0,0,0,0,0,0,0,0,0],"sum_hessian":[1.6355405E2,1.553798E2,8.174241E0,7.6761923E0,1.4770361E2,6.511408E0,1.1647844E0,6.3487396E1,8.421621E1,3.3900597E1,2.95868E1,4.312808E1,4.108813E1,1.9597257E0,3.194087E1,1.5337298E1,1.4249502E1,2.2288248E1,2.083983E1,3.8144062E1,2.94407E0,2.213578E1,9.805088E0,1.2235053E1,3.1022449E0,1.1113031E1,3.1364708E0,4.615933E0,1.7672316E1,3.416147E0,1.7423683E1,1.1722952E0,3.6971767E1,1.2268753E0,1.7171948E0],"tree_param":{"num_deleted":"0","num_feature":"17","num_nodes":"35","size_leaf_vector":"1"}},{"base_weights":[-3.067559E-2,-7.6836085E-1,7.330812E-2,5.8908594E-1,-1.0101167E0,-2.5091097E-1,3.205488E-1,1.8251602E-3,2.8264837E-2,8.9449954E-4,-1.1476654E0,-1.1811335E-1,-1.2195389E0,-7.344478E-1,4.1651636E-1,-1.3180677E0,-5.52308E-4,-3.0439657E-1,3.7011364E-1,-4.2046033E-2,-1.0364642E-2,-3.744359E-2,-7.2893957E-3,7.499308E-1,-6.007167E-2,-4.2860776E-2,-1.1149339E-3,7.43348E-2,-8.3913577E-1,5.851814E-1,-3.2955524E-2,1.8136974E-2,-2.6188722E-2,4.175835E-1,1.0915526E0,7.098105E-1,-3.40888E-1,9.508989E-3,-3.176002E-2,-4.1169286E-2,1.3823624E-2,-2.8792322E-2,2.4189085E-2,-5.426721E-3,1.9125203E-2,-3.5735406E-3,3.5796076E-2,3.342086E-2,-3.1581894E-2,2.24866E-2,-2.1333922E-2],"categories":[],"categories_nodes":[],"categories_segments":[],"categories_sizes":[],"default_left":[0,0,0,0,0,0,0,0,0,0,0,0,0,0,0,0,0,0,0,0,0,0,0,0,0,0,0,0,0,0,0,0,0,0,0,0,0,0,0,0,0,0,0,0,0,0,0,0,0,0,0],"id":23,"left_children":[1,3,5,7,9,11,13,-1,-1,-1,15,17,19,21,23,25,-1,27,29,-1,-1,-1,31,33,35,-1,-1,37,39,41,-1,-1,-1,43,45,47,49,-1,-1,-1,-1,-1,-1,-1,-1,-1,-1,-1,-1,-1,-1],"loss_changes":[1.3065941E1,7.49988E0,1.2069217E1,6.537291E-1,2.6415787E0,8.251463E0,8.941391E0,0E0,0E0,0E0,3.0784416E0,5.433681E0,7.505207E-1,2.7824445E0,1.2569487E1,1.9300995E0,0E0,8.749922E0,5.8889275E0,0E0,0E0,0E0,2.6992476E0,4.8179283E0,7.456283E0,0E0,0E0,7.491272E0,1.3015446E1,5.9459248E0,0E0,0E0,0E0,3.427359E0,2.8847027E0,7.7579284E0,1.0677283E1,0E0,0E0,0E0,0E0,0E0,0E0,0E0,0E0,0E0,0E0,0E0,0E0,0E0,0E0],"parents":[2147483647,0,0,1,1,2,2,3,3,4,4,5,5,6,6,10,10,11,11,12,12,13,13,14,14,15,15,17,17,18,18,22,22,23,23,24,24,27,27,28,28,29,29,33,33,34,34,35,35,36,36],"right_children":[2,4,6,8,10,12,14,-1,-1,-1,16,18,20,22,24,26,-1,28,30,-1,-1,-1,32,34,36,-1,-1,38,40,42,-1,-1,-1,44,46,48,50,-1,-1,-1,-1,-1,-1,-1,-1,-1,-1,-1,-1,-1,-1],"split_conditions":[9.241912E-5,-1.2471813E-3,1.7638203E4,1.1467507E-5,-7.3633335E3,1.756E4,-2.5026156E-3,1.8251602E-3,2.8264837E-2,8.9449954E-4,-1.271905E-4,1.0608321E-3,3.8033333E3,7.5266438E0,-6.0743565E-4,1.8588836E4,-5.52308E-4,7.3569786E-4,3.6760345E1,-4.2046033E-2,-1.0364642E-2,-3.744359E-2,5.7382253E-4,4.7624996E-4,-1.1418333E4,-4.2860776E-2,-1.1149339E-3,3.3374663E-4,3.9342113E1,1.6012816E4,-3.2955524E-2,1.8136974E-2,-2.6188722E-2,5.2840903E3,-1.9673086E-3,2.3995797E5,1.7783844E4,9.508989E-3,-3.176002E-2,-4.1169286E-2,1.3823624E-2,-2.8792322E-2,2.4189085E-2,-5.426721E-3,1.9125203E-2,-3.5735406E-3,3.5796076E-2,3.342086E-2,-3.1581894E-2,2.24866E-2,-2.1333922E-2],"split_indices":[4,2,8,0,12,9,2,0,0,0,2,4,12,10,2,8,0,3,10,0,0,0,4,4,12,0,0,4,10,6,0,0,0,13,2,13,6,0,0,0,0,0,0,0,0,0,0,0,0,0,0],"split_type":[0,0,0,0,0,0,0,0,0,0,0,0,0,0,0,0,0,0,0,0,0,0,0,0,0,0,0,0,0,0,0,0,0,0,0,0,0,0,0,0,0,0,0,0,0,0,0,0,0,0,0],"sum_hessian":[1.6860083E2,2.0040375E1,1.4856046E2,2.812369E0,1.7228006E1,6.42679E1,8.429256E1,1.5963418E0,1.2160273E0,2.1039984E0,1.5124007E1,5.7505856E1,6.7620387E0,6.4735904E0,7.781896E1,1.299577E1,2.1282368E0,4.1896683E1,1.5609173E1,5.0972023E0,1.6648363E0,3.3738408E0,3.0997496E0,4.5449547E1,3.236942E1,1.1856415E1,1.1393557E0,2.5030039E1,1.6866646E1,1.4140038E1,1.4691348E0,1.9928325E0,1.106917E0,2.4163958E1,2.128559E1,8.242962E0,2.4126457E1,2.1208498E1,3.821541E0,1.1921332E1,4.9453135E0,1.3521965E0,1.2787841E1,6.541136E0,1.7622822E1,1.635433E0,1.9650156E1,7.004502E0,1.2384598E0,5.855705E0,1.8270752E1],"tree_param":{"num_deleted":"0","num_feature":"17","num_nodes":"51","size_leaf_vector":"1"}},{"base_weights":[-6.5925315E-2,-7.2879894E-3,-3.7563913E-2,2.6665753E-1,-3.4180167E-1,5.578663E-2,8.4337354E-1,-4.915682E-1,7.058024E-1,-2.2696753E-1,5.985886E-1,-1.7727185E-2,1.1152713E0,-5.648923E-1,3.302243E-2,-8.8444926E-2,3.6041703E-2,9.7321606E-1,-4.0789554E-1,-1.5470329E-2,7.267542E-1,6.2301934E-1,-3.4812998E-2,-5.0267563E-3,3.8940035E-2,6.6819257E-1,-6.755959E-1,2.350044E-2,-3.3897012E-2,3.4970436E-2,6.7307767E-3,-1.7535521E-3,-3.4548126E-2,3.459506E-2,9.461278E-3,-7.815828E-3,3.534354E-2,3.923888E-2,-1.1497584E-2,-2.843461E-2,1.3019218E-3],"categories":[],"categories_nodes":[],"categories_segments":[],"categories_sizes":[],"default_left":[0,0,0,0,0,0,0,0,0,0,0,0,0,0,0,0,0,0,0,0,0,0,0,0,0,0,0,0,0,0,0,0,0,0,0,0,0,0,0,0,0],"id":24,"left_children":[1,3,-1,5,7,9,11,13,15,17,19,21,23,25,-1,27,-1,29,31,-1,33,35,-1,-1,-1,37,39,-1,-1,-1,-1,-1,-1,-1,-1,-1,-1,-1,-1,-1,-1],"loss_changes":[1.1464542E1,1.458761E1,0E0,1.0597845E1,1.1590227E1,1.0137525E1,5.4902554E0,8.010868E0,3.7959757E0,9.858427E0,3.6014948E0,5.5491757E0,4.3838043E0,8.800423E0,0E0,5.000853E0,0E0,6.037197E-1,9.956012E0,0E0,3.2637262E0,2.697425E0,0E0,0E0,0E0,4.228862E0,1.1123302E1,0E0,0E0,0E0,0E0,0E0,0E0,0E0,0E0,0E0,0E0,0E0,0E0,0E0,0E0],"parents":[2147483647,0,0,1,1,3,3,4,4,5,5,6,6,7,7,8,8,9,9,10,10,11,11,12,12,13,13,15,15,17,17,18,18,20,20,21,21,25,25,26,26],"right_children":[2,4,-1,6,8,10,12,14,16,18,20,22,24,26,-1,28,-1,30,32,-1,34,36,-1,-1,-1,38,40,-1,-1,-1,-1,-1,-1,-1,-1,-1,-1,-1,-1,-1,-1],"split_conditions":[2.751542E-3,-6.6287717E-4,-3.7563913E-2,6.6E3,1.0734992E-3,4.922919E-4,1.7612754E4,6.895E4,1.8217686E4,1.7635685E0,-1.9673086E-3,3.3104376E-4,4.3840395E-4,3.3933244E0,3.302243E-2,1.7169078E4,3.6041703E-2,2.4009637E-4,-9.88151E-4,-1.5470329E-2,-1.4410949E-3,1.599738E-4,-3.4812998E-2,-5.0267563E-3,3.8940035E-2,1.8118521E4,1.1863611E-3,2.350044E-2,-3.3897012E-2,3.4970436E-2,6.7307767E-3,-1.7535521E-3,-3.4548126E-2,3.459506E-2,9.461278E-3,-7.815828E-3,3.534354E-2,3.923888E-2,-1.1497584E-2,-2.843461E-2,1.3019218E-3],"split_indices":[5,2,0,14,5,4,6,14,6,10,2,4,3,10,0,6,0,4,2,0,2,4,0,0,0,6,3,0,0,0,0,0,0,0,0,0,0,0,0,0,0],"split_type":[0,0,0,0,0,0,0,0,0,0,0,0,0,0,0,0,0,0,0,0,0,0,0,0,0,0,0,0,0,0,0,0,0,0,0,0,0,0,0,0,0],"sum_hessian":[1.639561E2,1.5719183E2,6.764273E0,8.653115E1,7.066068E1,6.416612E1,2.2365025E1,6.228686E1,8.373824E0,4.2571705E1,2.159442E1,5.5915084E0,1.6773516E1,6.0161728E1,2.1251311E0,3.5330935E0,4.8407307E0,5.003308E0,3.7568398E1,1.9157186E0,1.96787E1,3.8740234E0,1.7174848E0,2.1017182E0,1.4671798E1,4.541361E0,5.562037E1,2.0581055E0,1.4749879E0,3.5375104E0,1.4657973E0,2.6292858E1,1.1275539E1,8.7773485E0,1.0901352E1,1.6995403E0,2.174483E0,2.6717324E0,1.8696284E0,4.0114136E1,1.5506234E1],"tree_param":{"num_deleted":"0","num_feature":"17","num_nodes":"41","size_leaf_vector":"1"}},{"base_weights":[-2.5249423E-2,4.0732037E-2,-3.777285E-2,-1.0888289E-1,4.6264815E-1,-3.6537808E-3,-1.0617872E0,5.6911695E-1,-3.4538087E-2,-1.7355536E-1,5.0383717E-1,1.4603706E-2,-1.3709435E0,6.631598E-1,-2.5517188E-2,2.6813355E-1,-4.6299875E-1,-8.053309E-1,7.5431424E-1,-4.5048185E-2,-7.0541417E-3,-2.596258E-2,7.5745076E-1,-1.764964E-2,1.5455128E-2,-1.9109074E-2,3.1419247E-2,6.9116573E-3,-3.5368893E-2,2.696121E-2,-3.06299E-2,2.4846638E-2,-1.3058768E-2],"categories":[],"categories_nodes":[],"categories_segments":[],"categories_sizes":[],"default_left":[0,0,0,0,0,0,0,0,0,0,0,0,0,0,0,0,0,0,0,0,0,0,0,0,0,0,0,0,0,0,0,0,0],"id":25,"left_children":[1,3,-1,5,7,9,11,13,-1,15,17,-1,19,21,-1,23,25,27,29,-1,-1,-1,31,-1,-1,-1,-1,-1,-1,-1,-1,-1,-1],"loss_changes":[1.3693387E1,1.01524725E1,0E0,1.19235735E1,7.886567E0,9.410243E0,6.3290005E0,5.9243813E0,0E0,1.0575155E1,9.584341E0,0E0,1.1487732E0,6.1636753E0,0E0,7.2842684E0,1.3739414E1,2.1601162E0,6.940421E0,0E0,0E0,0E0,3.4439812E0,0E0,0E0,0E0,0E0,0E0,0E0,0E0,0E0,0E0,0E0],"parents":[2147483647,0,0,1,1,3,3,4,4,5,5,6,6,7,7,9,9,10,10,12,12,13,13,15,15,16,16,17,17,18,18,22,22],"right_children":[2,4,-1,6,8,10,12,14,-1,16,18,-1,20,22,-1,24,26,28,30,-1,-1,-1,32,-1,-1,-1,-1,-1,-1,-1,-1,-1,-1],"split_conditions":[2.751542E-3,1.1316714E-3,-3.777285E-2,2.8296585E1,1.8227775E4,5.4E3,1.29953E-4,2.4664386E-3,-3.4538087E-2,-9.88151E-4,4.263262E-4,1.4603706E-2,1.71E4,1.4755386E1,-2.5517188E-2,-9.207572E-5,1.3234043E-3,1.7892395E4,1.5434077E-3,-4.5048185E-2,-7.0541417E-3,-2.596258E-2,5.162482E1,-1.764964E-2,1.5455128E-2,-1.9109074E-2,3.1419247E-2,6.9116573E-3,-3.5368893E-2,2.696121E-2,-3.06299E-2,2.4846638E-2,-1.3058768E-2],"split_indices":[5,3,0,7,6,14,4,3,0,2,3,0,14,7,0,0,5,6,5,0,0,0,7,0,0,0,0,0,0,0,0,0,0],"split_type":[0,0,0,0,0,0,0,0,0,0,0,0,0,0,0,0,0,0,0,0,0,0,0,0,0,0,0,0,0,0,0,0,0],"sum_hessian":[1.6657089E2,1.5903337E2,7.5375247E0,1.17949455E2,4.1083916E1,1.0712364E2,1.0825816E1,3.9148678E1,1.9352368E0,8.0748184E1,2.6375462E1,1.7059684E0,9.119847E0,3.721629E1,1.9323896E0,3.199604E1,4.875214E1,3.8801098E0,2.2495352E1,7.8901086E0,1.2297386E0,1.6871547E0,3.5529137E1,6.8536353E0,2.5142405E1,4.4235016E1,4.517124E0,1.1302915E0,2.7498183E0,2.1259972E1,1.2353789E0,3.3827614E1,1.7015201E0],"tree_param":{"num_deleted":"0","num_feature":"17","num_nodes":"33","size_leaf_vector":"1"}},{"base_weights":[-7.2275093E-3,-1.0347475E0,6.40622E-2,7.690072E-3,-3.9261427E-2,3.014901E-1,-2.4192898E-1,-1.8828586E-2,5.245387E-1,-6.97761E-1,3.356773E-2,-3.9555314E-1,5.207063E-1,-1.3731985E-1,7.6302606E-1,1.730085E-1,-1.1679589E0,3.721869E-1,-5.855491E-1,3.4361523E-2,-3.9698727E-2,-1.8729884E-2,6.652237E-1,-1.0621011E0,5.3617597E-1,5.0357336E-1,1.146017E0,-5.9292185E-1,1.0476183E0,-4.4511276E-1,-4.2867597E-2,-2.3929484E-1,7.979578E-1,3.7727883E-1,-1.0498928E0,2.3540871E-2,-1.3288761E-2,7.88037E-3,3.0574339E-2,-3.6803875E-2,-5.1477477E-3,3.1222321E-2,-1.135001E-2,2.0709531E-2,-2.9265529E-2,9.543763E-4,4.070606E-2,-3.477635E-2,1.1834532E-2,3.735309E-2,1.2546833E-2,-2.545689E-2,1.7567046E-2,2.109746E-2,-3.9338116E-2,-2.7859604E-3,2.963521E-2,-3.0035619E-2,3.1843975E-2,-4.266972E-2,-7.3542795E-3],"categories":[],"categories_nodes":[],"categories_segments":[],"categories_sizes":[],"default_left":[0,0,0,0,0,0,0,0,0,0,0,0,0,0,0,0,0,0,0,0,0,0,0,0,0,0,0,0,0,0,0,0,0,0,0,0,0,0,0,0,0,0,0,0,0,0,0,0,0,0,0,0,0,0,0,0,0,0,0,0,0],"id":26,"left_children":[1,3,5,-1,-1,7,9,11,13,15,17,19,21,23,25,27,29,31,33,35,-1,-1,37,39,41,43,45,47,49,51,-1,53,55,57,59,-1,-1,-1,-1,-1,-1,-1,-1,-1,-1,-1,-1,-1,-1,-1,-1,-1,-1,-1,-1,-1,-1,-1,-1,-1,-1],"loss_changes":[1.1883127E1,4.0581284E0,1.1100904E1,0E0,0E0,6.1484404E0,8.421709E0,7.570781E0,8.104987E0,1.0535575E1,9.156636E0,8.782082E0,2.9520183E0,9.459132E0,3.1403637E0,7.1329145E0,2.4798164E0,7.526025E0,7.309603E0,6.057561E0,0E0,0E0,1.7405E0,7.207818E-1,4.511096E0,7.326361E0,3.322178E0,3.7120817E0,8.827877E-2,2.9227974E0,0E0,1.3384287E1,2.9402094E0,6.5016203E0,2.8572798E0,0E0,0E0,0E0,0E0,0E0,0E0,0E0,0E0,0E0,0E0,0E0,0E0,0E0,0E0,0E0,0E0,0E0,0E0,0E0,0E0,0E0,0E0,0E0,0E0,0E0,0E0],"parents":[2147483647,0,0,1,1,2,2,5,5,6,6,7,7,8,8,9,9,10,10,11,11,12,12,13,13,14,14,15,15,16,16,17,17,18,18,19,19,22,22,23,23,24,24,25,25,26,26,27,27,28,28,29,29,31,31,32,32,33,33,34,34],"right_children":[2,4,6,-1,-1,8,10,12,14,16,18,20,22,24,26,28,30,32,34,36,-1,-1,38,40,42,44,46,48,50,52,-1,54,56,58,60,-1,-1,-1,-1,-1,-1,-1,-1,-1,-1,-1,-1,-1,-1,-1,-1,-1,-1,-1,-1,-1,-1,-1,-1,-1,-1],"split_conditions":[-3.687206E-3,2.6655896E-4,-6.0743565E-4,7.690072E-3,-3.9261427E-2,1.7638203E4,1.5098633E1,2.8951781E-5,4.489864E-4,7.228944E0,2.4556515E1,9.0211007E-4,-1.710148E-3,1.6132304E-4,2.5116667E3,6.759107E0,-4.2126896E-5,6.339135E-4,-4.952456E-4,-7.065366E-5,-3.9698727E-2,-1.8729884E-2,2.9614244E1,8.3E3,2.6927664E-4,1.2973666E-3,-1.2378876E-4,1.09827284E-4,3.766583E-4,1.6351582E-5,-4.2867597E-2,5.256535E-4,-3.593265E-4,-5.2867393E-4,-1.14414186E-4,2.3540871E-2,-1.3288761E-2,7.88037E-3,3.0574339E-2,-3.6803875E-2,-5.1477477E-3,3.1222321E-2,-1.135001E-2,2.0709531E-2,-2.9265529E-2,9.543763E-4,4.070606E-2,-3.477635E-2,1.1834532E-2,3.735309E-2,1.2546833E-2,-2.545689E-2,1.7567046E-2,2.109746E-2,-3.9338116E-2,-2.7859604E-3,2.963521E-2,-3.0035619E-2,3.1843975E-2,-4.266972E-2,-7.3542795E-3],"split_indices":[2,3,2,0,0,8,7,0,3,7,7,1,2,4,12,7,0,4,2,0,0,0,7,14,4,4,0,4,1,2,0,3,2,2,2,0,0,0,0,0,0,0,0,0,0,0,0,0,0,0,0,0,0,0,0,0,0,0,0,0,0],"split_type":[0,0,0,0,0,0,0,0,0,0,0,0,0,0,0,0,0,0,0,0,0,0,0,0,0,0,0,0,0,0,0,0,0,0,0,0,0,0,0,0,0,0,0,0,0,0,0,0,0,0,0,0,0,0,0,0,0,0,0,0,0],"sum_hessian":[1.6031853E2,9.524491E0,1.5079404E2,1.6785569E0,7.8459344E0,8.491815E1,6.587588E1,3.523417E1,4.9683983E1,2.4238518E1,4.1637363E1,2.0904608E1,1.432956E1,1.3272864E1,3.6411118E1,8.720636E0,1.5517881E1,2.7173796E1,1.4463568E1,1.4942979E1,5.96163E0,1.2338067E0,1.3095754E1,5.3498945E0,7.9229703E0,2.308637E1,1.3324748E1,4.8208766E0,3.8997598E0,4.833911E0,1.06839695E1,1.1334063E1,1.5839732E1,4.766863E0,9.696704E0,5.559553E0,9.383426E0,6.942101E0,6.1536527E0,4.1961975E0,1.153697E0,5.016919E0,2.9060512E0,2.0971828E1,2.114541E0,2.3034577E0,1.102129E1,2.9531891E0,1.8676875E0,2.2237446E0,1.6760151E0,3.601022E0,1.2328889E0,6.214171E0,5.119892E0,2.8728516E0,1.2966881E1,1.4274942E0,3.3393688E0,6.1042852E0,3.5924191E0],"tree_param":{"num_deleted":"0","num_feature":"17","num_nodes":"61","size_leaf_vector":"1"}},{"base_weights":[-2.8013285E-2,-1.0982293E0,3.4450393E-2,-1.9433037E-3,-3.7301753E-2,2.9241818E-1,-2.7803808E-1,-3.8402528E-2,5.382016E-1,-6.1666834E-1,-2.743009E-2,-6.411064E-1,1.8145345E-1,6.482314E-1,-2.0650443E-1,3.095015E-2,-7.47728E-1,8.637235E-1,-2.328183E-1,-1.1042807E0,4.2019978E-1,3.3796406E-1,-3.6146004E-2,3.9074156E-2,8.873895E-1,2.6768085E-2,-9.947812E-1,-1.0655754E0,-2.2590026E-2,-2.2914466E-2,3.662311E-2,-8.720846E-1,1.5306538E-1,-3.8599916E-2,-5.7702437E-3,3.1396426E-2,-1.5962075E-2,1.624535E-2,-2.0992152E-2,2.5018446E-2,-2.1221392E-2,-3.0932003E-3,3.0134972E-2,-3.925556E-3,-3.7798397E-2,-3.812652E-2,-9.01019E-3,3.0476203E-2,-3.272311E-2,-9.975119E-4,-4.183354E-2,-4.0732536E-2,1.5138726E-2],"categories":[],"categories_nodes":[],"categories_segments":[],"categories_sizes":[],"default_left":[0,0,0,0,0,0,0,0,0,0,0,0,0,0,0,0,0,0,0,0,0,0,0,0,0,0,0,0,0,0,0,0,0,0,0,0,0,0,0,0,0,0,0,0,0,0,0,0,0,0,0,0,0],"id":27,"left_children":[1,3,5,-1,-1,7,9,11,13,15,17,19,21,23,25,-1,27,29,31,33,35,37,-1,39,41,-1,43,45,47,-1,-1,49,51,-1,-1,-1,-1,-1,-1,-1,-1,-1,-1,-1,-1,-1,-1,-1,-1,-1,-1,-1,-1],"loss_changes":[1.1129185E1,1.2966404E0,1.2796616E1,0E0,0E0,7.0859137E0,6.079875E0,5.1479526E0,4.224324E0,7.3622103E0,7.9495397E0,5.561551E0,6.613151E0,6.3369465E0,7.110483E0,0E0,6.6233654E0,5.6636243E0,8.8147545E0,9.990921E-1,2.8680825E0,5.972436E0,0E0,8.526432E0,3.7411804E0,0E0,9.0180206E-1,2.7652588E0,1.1991077E1,0E0,0E0,5.8235703E0,1.2792981E1,0E0,0E0,0E0,0E0,0E0,0E0,0E0,0E0,0E0,0E0,0E0,0E0,0E0,0E0,0E0,0E0,0E0,0E0,0E0,0E0],"parents":[2147483647,0,0,1,1,2,2,5,5,6,6,7,7,8,8,9,9,10,10,11,11,12,12,13,13,14,14,16,16,17,17,18,18,19,19,20,20,21,21,23,23,24,24,26,26,27,27,28,28,31,31,32,32],"right_children":[2,4,6,-1,-1,8,10,12,14,16,18,20,22,24,26,-1,28,30,32,34,36,38,-1,40,42,-1,44,46,48,-1,-1,50,52,-1,-1,-1,-1,-1,-1,-1,-1,-1,-1,-1,-1,-1,-1,-1,-1,-1,-1,-1,-1],"split_conditions":[-4.0431954E-3,2.6655896E-4,-6.6287717E-4,-1.9433037E-3,-3.7301753E-2,1.7663537E4,-3.2670397E-4,1.3466529E4,2.7224913E1,3.3937154E0,-2.9582385E-4,1.74306E4,2.925E4,4.7135813E-4,1.7687605E4,3.095015E-2,1.1709136E-3,-7.25E3,1.2417203E1,1.2968973E-3,1.7473652E4,1.756E4,-3.6146004E-2,4.287111E0,5.1852546E0,2.6768085E-2,-1.7426845E-3,1.8217686E4,1.220349E-3,-2.2914466E-2,3.662311E-2,1.4886841E4,-1.4779186E-4,-3.8599916E-2,-5.7702437E-3,3.1396426E-2,-1.5962075E-2,1.624535E-2,-2.0992152E-2,2.5018446E-2,-2.1221392E-2,-3.0932003E-3,3.0134972E-2,-3.925556E-3,-3.7798397E-2,-3.812652E-2,-9.01019E-3,3.0476203E-2,-3.272311E-2,-9.975119E-4,-4.183354E-2,-4.0732536E-2,1.5138726E-2],"split_indices":[2,3,2,0,0,11,2,13,7,7,2,8,14,3,6,0,3,14,10,3,6,9,0,7,10,0,2,6,3,0,0,13,2,0,0,0,0,0,0,0,0,0,0,0,0,0,0,0,0,0,0,0,0],"split_type":[0,0,0,0,0,0,0,0,0,0,0,0,0,0,0,0,0,0,0,0,0,0,0,0,0,0,0,0,0,0,0,0,0,0,0,0,0,0,0,0,0,0,0,0,0,0,0,0,0,0,0,0,0],"sum_hessian":[1.649149E2,8.180094E0,1.5673482E2,1.1856135E0,6.99448E0,8.589246E1,7.0842354E1,3.69722E1,4.8920265E1,2.9508606E1,4.1333744E1,9.369905E0,2.7602291E1,4.273565E1,6.184617E0,1.6672899E0,2.7841314E1,7.14166E0,3.4192085E1,6.4949102E0,2.874995E0,2.5481712E1,2.1205797E0,1.2376067E1,3.0359581E1,2.5283885E0,3.6562288E0,1.9030333E1,8.810984E0,1.0798922E0,6.0617685E0,1.2396203E1,2.1795881E1,5.070022E0,1.4248881E0,1.6745609E0,1.200434E0,2.1702818E1,3.7788935E0,5.9368734E0,6.4391937E0,3.2226298E0,2.713695E1,1.209396E0,2.4468327E0,1.4483667E1,4.546665E0,4.492466E0,4.318517E0,5.1652775E0,7.2309256E0,3.5741138E0,1.8221767E1],"tree_param":{"num_deleted":"0","num_feature":"17","num_nodes":"53","size_leaf_vector":"1"}},{"base_weights":[1.5472978E-2,7.4986674E-2,-3.612487E-2,-4.4062623E-1,1.967929E-1,-8.0373746E-1,3.3277553E-2,3.5137984E-1,-2.017539E-1,-1.089943E0,1.4212415E-1,7.139783E-2,8.81526E-1,-8.8104266E-1,1.528299E-1,7.0502935E-3,-1.2675751E0,-2.5996996E-2,7.3701906E-1,2.9044753E-1,-8.2604414E-1,2.979256E-1,1.1389755E0,1.670584E-2,-1.2768703E0,7.8646857E-1,-2.707092E-1,-5.022884E-3,-4.0548317E-2,3.4345064E-2,-4.295334E-3,-1.7912101E-2,1.4141325E-2,1.8661979E-3,-3.2684654E-2,3.2323007E-2,-2.4848163E-2,-6.7641907E-3,3.793827E-2,-9.480929E-3,-4.202204E-2,3.243935E-2,-6.7760376E-3,1.37375705E-2,-2.7179563E-2],"categories":[],"categories_nodes":[],"categories_segments":[],"categories_sizes":[],"default_left":[0,0,0,0,0,0,0,0,0,0,0,0,0,0,0,0,0,0,0,0,0,0,0,0,0,0,0,0,0,0,0,0,0,0,0,0,0,0,0,0,0,0,0,0,0],"id":28,"left_children":[1,3,-1,5,7,9,-1,11,13,15,17,19,21,23,25,-1,27,-1,29,31,33,35,37,-1,39,41,43,-1,-1,-1,-1,-1,-1,-1,-1,-1,-1,-1,-1,-1,-1,-1,-1,-1,-1],"loss_changes":[1.1856051E1,9.852612E0,0E0,1.7787773E1,7.8629107E0,6.8966866E0,0E0,1.3517307E1,8.801272E0,4.824745E0,4.640971E0,1.2223733E1,4.398218E0,7.8188515E0,6.786129E0,0E0,1.3561707E0,0E0,1.8638806E0,8.268612E0,2.9273577E0,1.0554544E1,3.9750328E0,0E0,7.589073E-1,3.249566E0,7.554472E0,0E0,0E0,0E0,0E0,0E0,0E0,0E0,0E0,0E0,0E0,0E0,0E0,0E0,0E0,0E0,0E0,0E0,0E0],"parents":[2147483647,0,0,1,1,3,3,4,4,5,5,7,7,8,8,9,9,10,10,11,11,12,12,13,13,14,14,16,16,18,18,19,19,20,20,21,21,22,22,24,24,25,25,26,26],"right_children":[2,4,-1,6,8,10,-1,12,14,16,18,20,22,24,26,-1,28,-1,30,32,34,36,38,-1,40,42,44,-1,-1,-1,-1,-1,-1,-1,-1,-1,-1,-1,-1,-1,-1,-1,-1,-1,-1],"split_conditions":[2.751542E-3,1.1001409E-4,-3.612487E-2,1.0651667E4,2.6070578E1,6.706287E-4,3.3277553E-2,1.7399408E1,3.4700638E1,2.8713326E0,1.2178198E4,-5.092506E-7,1.7678076E4,6.660549E-4,1.709102E4,7.0502935E-3,2.7169636E-4,-2.5996996E-2,1.8895889E4,-8.802594E1,7.625704E0,1.7009809E4,1.2456334E1,1.670584E-2,2.6571188E1,9.281477E-4,3.350814E1,-5.022884E-3,-4.0548317E-2,3.4345064E-2,-4.295334E-3,-1.7912101E-2,1.4141325E-2,1.8661979E-3,-3.2684654E-2,3.2323007E-2,-2.4848163E-2,-6.7641907E-3,3.793827E-2,-9.480929E-3,-4.202204E-2,3.243935E-2,-6.7760376E-3,1.37375705E-2,-2.7179563E-2],"split_indices":[5,4,0,12,7,5,0,7,7,10,13,0,6,1,9,0,5,0,13,15,10,6,10,0,7,5,10,0,0,0,0,0,0,0,0,0,0,0,0,0,0,0,0,0,0],"split_type":[0,0,0,0,0,0,0,0,0,0,0,0,0,0,0,0,0,0,0,0,0,0,0,0,0,0,0,0,0,0,0,0,0,0,0,0,0,0,0,0,0,0,0,0,0],"sum_hessian":[1.6109622E2,1.5449591E2,6.6003118E0,2.9022888E1,1.2547302E2,2.390399E1,5.118898E0,9.0491745E1,3.4981277E1,1.823422E1,5.66977E0,5.9960133E1,3.053161E1,1.14882E1,2.3493076E1,2.1174204E0,1.61168E1,1.9339446E0,3.735825E0,4.8739937E1,1.1220196E1,1.0006212E1,2.0525398E1,2.3920145E0,9.096186E0,9.068774E0,1.4424302E1,1.3560821E0,1.4760718E1,2.3475091E0,1.388316E0,7.864097E0,4.087584E1,2.7412949E0,8.478901E0,5.9388695E0,4.067343E0,1.6635588E0,1.886184E1,1.4442551E0,7.6519303E0,6.9704847E0,2.0982893E0,6.8485546E0,7.575747E0],"tree_param":{"num_deleted":"0","num_feature":"17","num_nodes":"45","size_leaf_vector":"1"}},{"base_weights":[-6.6683896E-2,-1.2038165E-2,-3.6053397E-2,-1.4939548E-1,3.0920786E-1,4.5111945E-1,-2.69364E-1,-8.778407E-1,4.4694516E-1,-1.4558102E-1,1.1062323E0,-3.5871738E-1,6.822309E-1,-3.3409264E-2,-1.0310856E-3,2.0136689E-1,1.0050372E0,2.7111828E-1,-3.9488994E-2,3.7512418E-2,1.1736167E-3,8.137723E-1,-4.1754657E-1,1.0046884E0,-1.4017651E-2,-5.2304775E-1,5.501327E-1,3.9471816E-3,1.1453042E0,-2.7741132E-2,1.7668365E-2,3.7344422E-3,3.0826252E-2,-4.12506E-2,-9.456609E-3,3.831299E-3,3.4906033E-2,2.6712472E-2,-4.0774804E-2,2.0647071E-2,-2.8415376E-2,3.7385724E-2,1.2726573E-2],"categories":[],"categories_nodes":[],"categories_segments":[],"categories_sizes":[],"default_left":[0,0,0,0,0,0,0,0,0,0,0,0,0,0,0,0,0,0,0,0,0,0,0,0,0,0,0,0,0,0,0,0,0,0,0,0,0,0,0,0,0,0,0],"id":29,"left_children":[1,3,-1,5,7,9,11,13,15,17,19,21,23,-1,-1,25,27,29,-1,-1,-1,31,33,35,-1,37,39,-1,41,-1,-1,-1,-1,-1,-1,-1,-1,-1,-1,-1,-1,-1,-1],"loss_changes":[9.970366E0,6.8675146E0,0E0,7.971453E0,8.015917E0,7.399555E0,8.020113E0,9.930117E-1,5.6145096E0,5.5154443E0,1.3270197E0,6.1511164E0,3.5066667E0,0E0,0E0,8.050062E0,1.4075518E0,3.8237195E0,0E0,0E0,0E0,5.151789E-1,7.491373E0,7.8703785E-1,0E0,1.3616001E1,5.0411134E0,0E0,2.5911903E-1,0E0,0E0,0E0,0E0,0E0,0E0,0E0,0E0,0E0,0E0,0E0,0E0,0E0,0E0],"parents":[2147483647,0,0,1,1,3,3,4,4,5,5,6,6,7,7,8,8,9,9,10,10,11,11,12,12,15,15,16,16,17,17,21,21,22,22,23,23,25,25,26,26,28,28],"right_children":[2,4,-1,6,8,10,12,14,16,18,20,22,24,-1,-1,26,28,30,-1,-1,-1,32,34,36,-1,38,40,-1,42,-1,-1,-1,-1,-1,-1,-1,-1,-1,-1,-1,-1,-1,-1],"split_conditions":[2.751542E-3,8.439105E-4,-3.6053397E-2,-7.157088E-5,-4.0431954E-3,-8.301405E-5,1.7172933E-3,1.8349633E4,1.805748E4,6.2719156E-4,7.25E3,2.0251889E-4,3.7669353E1,-3.3409264E-2,-1.0310856E-3,-1.5E1,7.4329515E0,1.5098633E1,-3.9488994E-2,3.7512418E-2,1.1736167E-3,2.3749442E0,3.4766612E-4,1.6039177E4,-1.4017651E-2,1.695909E4,6.9317836E4,3.9471816E-3,-2.7873873E-5,-2.7741132E-2,1.7668365E-2,3.7344422E-3,3.0826252E-2,-4.12506E-2,-9.456609E-3,3.831299E-3,3.4906033E-2,2.6712472E-2,-4.0774804E-2,2.0647071E-2,-2.8415376E-2,3.7385724E-2,1.2726573E-2],"split_indices":[5,5,0,0,2,0,3,6,6,5,14,3,7,0,0,12,7,7,0,0,0,7,3,6,0,8,13,0,2,0,0,0,0,0,0,0,0,0,0,0,0,0,0],"split_type":[0,0,0,0,0,0,0,0,0,0,0,0,0,0,0,0,0,0,0,0,0,0,0,0,0,0,0,0,0,0,0,0,0,0,0,0,0,0,0,0,0,0,0],"sum_hessian":[1.5997258E2,1.5358911E2,6.383473E0,1.07962006E2,4.5627094E1,1.7517254E1,9.0444756E1,4.1851673E0,4.144193E1,9.574359E0,7.9428945E0,8.325067E1,7.1940813E0,3.0204575E0,1.1647097E0,2.9723469E1,1.1718459E1,7.627784E0,1.9465748E0,6.8461146E0,1.0967798E0,3.3643827E0,7.988629E1,5.716451E0,1.4776301E0,9.497235E0,2.0226233E1,1.8896053E0,9.828854E0,1.2007005E0,6.4270835E0,1.1709661E0,2.1934166E0,6.512336E0,7.3373955E1,1.1532762E0,4.5631747E0,3.5057511E0,5.991484E0,1.9012945E1,1.2132866E0,7.9836493E0,1.8452048E0],"tree_param":{"num_deleted":"0","num_feature":"17","num_nodes":"43","size_leaf_vector":"1"}},{"base_weights":[-3.4585617E-2,1.9358786E-2,-3.568011E-2,-1.5463974E-1,3.4837323E-1,-8.732635E-2,-4.3300826E-2,4.368924E-1,-3.4559544E-2,-2.8551698E-1,3.732792E-1,-3.0949552E-2,4.9926573E-1,-1.2649068E-1,-1.2088827E0,-7.808175E-1,5.3802687E-1,-2.9203454E-2,5.5490273E-1,-1.1165692E-2,1.4389183E-2,-4.3464947E-2,1.0437827E-2,-3.240638E-2,-2.3990034E-4,2.8365493E-2,1.5853972E-3,1.881849E-2,-1.37375565E-2],"categories":[],"categories_nodes":[],"categories_segments":[],"categories_sizes":[],"default_left":[0,0,0,0,0,0,0,0,0,0,0,0,0,0,0,0,0,0,0,0,0,0,0,0,0,0,0,0,0],"id":30,"left_children":[1,3,-1,5,7,9,-1,11,-1,13,15,-1,17,19,21,23,25,-1,27,-1,-1,-1,-1,-1,-1,-1,-1,-1,-1],"loss_changes":[1.0170797E1,9.020003E0,0E0,8.82074E0,7.7393255E0,9.151355E0,0E0,5.2940626E0,0E0,1.0102286E1,6.1698403E0,0E0,4.6961784E0,9.217631E0,4.2934484E0,9.598026E-1,5.2989306E0,0E0,3.9169054E0,0E0,0E0,0E0,0E0,0E0,0E0,0E0,0E0,0E0,0E0],"parents":[2147483647,0,0,1,1,3,3,4,4,5,5,7,7,9,9,10,10,12,12,13,13,14,14,15,15,16,16,18,18],"right_children":[2,4,-1,6,8,10,-1,12,-1,14,16,-1,18,20,22,24,26,-1,28,-1,-1,-1,-1,-1,-1,-1,-1,-1,-1],"split_conditions":[2.751542E-3,6.3721393E-4,-3.568011E-2,7.2335695E4,5.162482E1,1.75E3,-4.3300826E-2,3.3991266E-4,-3.4559544E-2,4.1266665E3,5.7809367E0,-3.0949552E-2,1.6012816E4,1.8994572E4,9.504301E-4,1.805748E4,1.2456334E1,-2.9203454E-2,1.8415316E4,-1.1165692E-2,1.4389183E-2,-4.3464947E-2,1.0437827E-2,-3.240638E-2,-2.3990034E-4,2.8365493E-2,1.5853972E-3,1.881849E-2,-1.37375565E-2],"split_indices":[5,4,0,13,7,14,0,5,0,12,10,0,6,13,5,6,10,0,6,0,0,0,0,0,0,0,0,0,0],"split_type":[0,0,0,0,0,0,0,0,0,0,0,0,0,0,0,0,0,0,0,0,0,0,0,0,0,0,0,0,0],"sum_hessian":[1.6190556E2,1.5561902E2,6.286533E0,1.0213511E2,5.348392E1,9.807989E1,4.0552154E0,5.1173557E1,2.3103647E0,6.883955E1,2.9240343E1,1.4518008E0,4.9721756E1,5.9695503E1,9.144046E0,3.1855223E0,2.6054821E1,1.2095114E0,4.8512245E1,4.2751743E1,1.6943758E1,7.982997E0,1.1610491E0,2.0093398E0,1.1761824E0,1.3645525E1,1.2409295E1,4.5631863E1,2.8803802E0],"tree_param":{"num_deleted":"0","num_feature":"17","num_nodes":"29","size_leaf_vector":"1"}},{"base_weights":[-1.7503867E-2,3.1820763E-2,-3.477028E-2,2.4394001E-1,-2.2973482E-1,1.9988637E-2,6.638358E-1,-6.2475705E-1,7.136468E-2,1.9375329E-1,-9.5741284E-1,-2.8432332E-2,7.628618E-1,-2.8224713E-1,-4.035084E-2,9.4255733E-1,-1.5957527E-1,-3.545086E-2,2.926477E-1,-4.2616595E-2,2.0885667E-2,-1.8530864E-1,8.687119E-1,3.0359322E-2,-4.366805E-1,-2.6389318E-2,4.1579183E-2,-9.629599E-1,1.6354264E-1,1.85269E-2,-2.6848388E-3,-3.1049797E-2,2.4368504E-2,2.9303282E-2,-5.305701E-3,1.6303517E-2,-2.1554682E-2,1.3964039E-2,-3.6409616E-2,-2.1316286E-2,1.7748507E-2],"categories":[],"categories_nodes":[],"categories_segments":[],"categories_sizes":[],"default_left":[0,0,0,0,0,0,0,0,0,0,0,0,0,0,0,0,0,0,0,0,0,0,0,0,0,0,0,0,0,0,0,0,0,0,0,0,0,0,0,0,0],"id":31,"left_children":[1,3,-1,5,7,9,11,13,15,17,19,-1,21,23,-1,25,27,-1,29,-1,-1,31,33,-1,35,-1,-1,37,39,-1,-1,-1,-1,-1,-1,-1,-1,-1,-1,-1,-1],"loss_changes":[9.182315E0,8.748468E0,0E0,8.167683E0,8.450877E0,9.996723E0,5.547303E0,7.1873207E0,8.400028E0,7.1307E0,7.7960157E0,0E0,3.0749207E0,4.849707E0,0E0,8.278286E0,8.793161E0,0E0,5.932655E0,0E0,0E0,4.0107965E0,3.1436558E0,0E0,6.025347E0,0E0,0E0,4.033887E0,9.617424E0,0E0,0E0,0E0,0E0,0E0,0E0,0E0,0E0,0E0,0E0,0E0,0E0],"parents":[2147483647,0,0,1,1,3,3,4,4,5,5,6,6,7,7,8,8,9,9,10,10,12,12,13,13,15,15,16,16,18,18,21,21,22,22,24,24,27,27,28,28],"right_children":[2,4,-1,6,8,10,12,14,16,18,20,-1,22,24,-1,26,28,-1,30,-1,-1,32,34,-1,36,-1,-1,38,40,-1,-1,-1,-1,-1,-1,-1,-1,-1,-1,-1,-1],"split_conditions":[2.751542E-3,-6.6287717E-4,-3.477028E-2,1.85E3,-3.2670397E-4,4.1266665E3,5.7809367E0,1.0583334E3,-2.9582385E-4,1.6279465E4,1.151994E-3,-2.8432332E-2,-1.4646348E-4,2.8713326E0,-4.035084E-2,-7.25E3,-1.6765704E-4,-3.545086E-2,7.7519985E-4,-4.2616595E-2,2.0885667E-2,2.3710781E-3,1.0059275E-3,3.0359322E-2,-7.632695E-5,-2.6389318E-2,4.1579183E-2,-1.5138333E4,1.2417203E1,1.85269E-2,-2.6848388E-3,-3.1049797E-2,2.4368504E-2,2.9303282E-2,-5.305701E-3,1.6303517E-2,-2.1554682E-2,1.3964039E-2,-3.6409616E-2,-2.1316286E-2,1.7748507E-2],"split_indices":[5,2,0,14,2,12,10,12,2,6,1,0,0,10,0,14,2,0,1,0,0,1,5,0,0,0,0,12,10,0,0,0,0,0,0,0,0,0,0,0,0],"split_type":[0,0,0,0,0,0,0,0,0,0,0,0,0,0,0,0,0,0,0,0,0,0,0,0,0,0,0,0,0,0,0,0,0,0,0,0,0,0,0,0,0],"sum_hessian":[1.6142859E2,1.5567403E2,5.754575E0,8.599786E1,6.9676155E1,5.6768173E1,2.9229692E1,2.967268E1,4.0003475E1,4.887995E1,7.8882217E0,1.1959383E0,2.8033754E1,2.1053152E1,8.619528E0,7.7366214E0,3.2266853E1,2.5442874E0,4.6335663E1,6.272387E0,1.6158345E0,2.7399058E0,2.5293848E1,1.6524019E0,1.940075E1,1.3216312E0,6.41499E0,8.687202E0,2.3579649E1,2.4709991E1,2.1625673E1,1.4593954E0,1.2805104E0,2.2984129E1,2.3097193E0,4.125127E0,1.5275623E1,1.1690967E0,7.518106E0,7.5346913E0,1.6044958E1],"tree_param":{"num_deleted":"0","num_feature":"17","num_nodes":"41","size_leaf_vector":"1"}},{"base_weights":[-2.3599718E-2,3.3755507E-2,-3.516991E-2,-8.7750286E-1,9.0742886E-2,-3.788036E-2,2.0997738E-2,-3.9785352E-1,1.7505594E-1,4.138612E-1,-7.255581E-1,4.4141695E-1,-1.8416812E-1,-1.1199296E-2,2.5485333E-2,-2.3090957E-1,-1.0035326E0,-2.260267E-2,7.8254604E-1,3.1892446E-1,-4.5985597E-1,-3.0135082E-2,2.3129411E-2,-3.656124E-2,6.840554E-3,-2.5688171E-2,1.118037E-2,3.1115266E-2,3.79036E-3,-1.6112119E-2,2.1651035E-2,4.9012685E-3,-2.6497446E-2],"categories":[],"categories_nodes":[],"categories_segments":[],"categories_sizes":[],"default_left":[0,0,0,0,0,0,0,0,0,0,0,0,0,0,0,0,0,0,0,0,0,0,0,0,0,0,0,0,0,0,0,0,0],"id":32,"left_children":[1,3,-1,5,7,-1,-1,9,11,13,15,17,19,-1,-1,21,23,25,27,29,31,-1,-1,-1,-1,-1,-1,-1,-1,-1,-1,-1,-1],"loss_changes":[1.0532587E1,8.0072565E0,0E0,6.3998685E0,6.025651E0,0E0,0E0,6.0414066E0,1.1945793E1,2.664214E0,1.9323521E0,1.1334898E1,7.567089E0,0E0,0E0,6.169897E0,2.8688984E0,1.062163E1,6.7584286E0,7.1210155E0,9.372232E0,0E0,0E0,0E0,0E0,0E0,