{"learner":{"attributes":{"scikit_learn":"{\"_estimator_type\": \"classifier\"}"},"feature_names":["return_mean","return_std","return_last","volatility_mean","volatility_std","volatility_last","ema_5_mean","ema_5_std","ema_5_last","ema_15_mean","ema_15_std","ema_15_last","total_OI_change_mean","total_OI_change_std","total_OI_change_last","regime_pnl_mean","regime_pnl_std"],"feature_types":["float","float","float","float","float","float","float","float","float","float","float","float","float","float","float","float","float"],"gradient_booster":{"model":{"cats":{"enc":[],"feature_segments":[],"sorted_idx":[]},"gbtree_model_param":{"num_parallel_tree":"1","num_trees":"400"},"iteration_indptr":[0,1,2,3,4,5,6,7,8,9,10,11,12,13,14,15,16,17,18,19,20,21,22,23,24,25,26,27,28,29,30,31,32,33,34,35,36,37,38,39,40,41,42,43,44,45,46,47,48,49,50,51,52,53,54,55,56,57,58,59,60,61,62,63,64,65,66,67,68,69,70,71,72,73,74,75,76,77,78,79,80,81,82,83,84,85,86,87,88,89,90,91,92,93,94,95,96,97,98,99,100,101,102,103,104,105,106,107,108,109,110,111,112,113,114,115,116,117,118,119,120,121,122,123,124,125,126,127,128,129,130,131,132,133,134,135,136,137,138,139,140,141,142,143,144,145,146,147,148,149,150,151,152,153,154,155,156,157,158,159,160,161,162,163,164,165,166,167,168,169,170,171,172,173,174,175,176,177,178,179,180,181,182,183,184,185,186,187,188,189,190,191,192,193,194,195,196,197,198,199,200,201,202,203,204,205,206,207,208,209,210,211,212,213,214,215,216,217,218,219,220,221,222,223,224,225,226,227,228,229,230,231,232,233,234,235,236,237,238,239,240,241,242,243,244,245,246,247,248,249,250,251,252,253,254,255,256,257,258,259,260,261,262,263,264,265,266,267,268,269,270,271,272,273,274,275,276,277,278,279,280,281,282,283,284,285,286,287,288,289,290,291,292,293,294,295,296,297,298,299,300,301,302,303,304,305,306,307,308,309,310,311,312,313,314,315,316,317,318,319,320,321,322,323,324,325,326,327,328,329,330,331,332,333,334,335,336,337,338,339,340,341,342,343,344,345,346,347,348,349,350,351,352,353,354,355,356,357,358,359,360,361,362,363,364,365,366,367,368,369,370,371,372,373,374,375,376,377,378,379,380,381,382,383,384,385,386,387,388,389,390,391,392,393,394,395,396,397,398,399,400],"tree_info":[0,0,0,0,0,0,0,0,0,0,0,0,0,0,0,0,0,0,0,0,0,0,0,0,0,0,0,0,0,0,0,0,0,0,0,0,0,0,0,0,0,0,0,0,0,0,0,0,0,0,0,0,0,0,0,0,0,0,0,0,0,0,0,0,0,0,0,0,0,0,0,0,0,0,0,0,0,0,0,0,0,0,0,0,0,0,0,0,0,0,0,0,0,0,0,0,0,0,0,0,0,0,0,0,0,0,0,0,0,0,0,0,0,0,0,0,0,0,0,0,0,0,0,0,0,0,0,0,0,0,0,0,0,0,0,0,0,0,0,0,0,0,0,0,0,0,0,0,0,0,0,0,0,0,0,0,0,0,0,0,0,0,0,0,0,0,0,0,0,0,0,0,0,0,0,0,0,0,0,0,0,0,0,0,0,0,0,0,0,0,0,0,0,0,0,0,0,0,0,0,0,0,0,0,0,0,0,0,0,0,0,0,0,0,0,0,0,0,0,0,0,0,0,0,0,0,0,0,0,0,0,0,0,0,0,0,0,0,0,0,0,0,0,0,0,0,0,0,0,0,0,0,0,0,0,0,0,0,0,0,0,0,0,0,0,0,0,0,0,0,0,0,0,0,0,0,0,0,0,0,0,0,0,0,0,0,0,0,0,0,0,0,0,0,0,0,0,0,0,0,0,0,0,0,0,0,0,0,0,0,0,0,0,0,0,0,0,0,0,0,0,0,0,0,0,0,0,0,0,0,0,0,0,0,0,0,0,0,0,0,0,0,0,0,0,0,0,0,0,0,0,0,0,0,0,0,0,0,0,0,0,0,0,0,0,0,0,0,0,0,0,0,0,0,0,0,0,0,0,0,0,0,0,0,0,0,0,0,0,0,0,0,0,0,0,0,0,0,0,0],"trees":[{"base_weights":[8.438818E-3,-3.678161E-1,3.6512262E-1,-6.857143E-1,8.888889E-1,-7.3170733E-1,4.969697E-1,-3.7383178E-1,-1.6E0,1.1746032E0,-7.692308E-1,3.6363637E-1,-4.9565215E-2,1.4285715E0,3.561644E-1,-3.9215688E-2,-1.1384616E0,-5.5932205E-2,-1.3333334E-1,4.6153846E-1,1.5121951E0,-3.3333335E-2,-0E0,-2.7272727E-2,3.6000002E-2,1.7142858E-2,4.875E-2,-1E0,5.151515E-1,3.6734694E-1,-7.118644E-1,-1.3220339E0,1.2E-2,3.3333335E-2,-3.6000002E-2,4.6666667E-2,-4E-2,1.6756756E0,-0E0,1.6363636E-2,-4.5599997E-2,1.0243902E0,2.795699E-1,1.8571429E-2,-2.6666665E-2,3.6000002E-2,-3.0566039E-2,-4.444444E-2,6.6666664E-3,5.272727E-2,1.5E-2,4.1249998E-2,-5.4545454E-3,-2.5161289E-2,1.4716981E-2],"categories":[],"categories_nodes":[],"categories_segments":[],"categories_sizes":[],"default_left":[0,0,0,0,0,0,0,0,0,0,0,0,0,0,0,0,0,0,0,0,0,0,0,0,0,0,0,0,0,0,0,0,0,0,0,0,0,0,0,0,0,0,0,0,0,0,0,0,0,0,0,0,0,0,0],"id":0,"left_children":[1,3,5,7,9,11,13,15,17,19,21,23,-1,25,27,29,31,-1,33,35,37,-1,-1,-1,-1,-1,-1,39,41,43,45,47,-1,-1,-1,-1,-1,49,-1,-1,-1,51,53,-1,-1,-1,-1,-1,-1,-1,-1,-1,-1,-1,-1],"loss_changes":[2.3989063E1,3.5366394E1,1.3631954E1,1.9362347E1,9.431012E0,1.093512E1,1.0313089E1,1.3643726E1,6.5378532E0,3.093481E0,8.547008E-1,6.9454546E0,0E0,8.392849E-1,1.6254879E1,1.0721875E1,5.118122E0,0E0,6.311111E0,1.4837608E1,2.533949E0,0E0,0E0,0E0,0E0,0E0,0E0,7.2581816E0,7.6314526E0,8.297051E0,9.88014E0,3.9610786E0,0E0,0E0,0E0,0E0,0E0,1.1875153E-2,0E0,0E0,0E0,8.919622E0,1.1383242E1,0E0,0E0,0E0,0E0,0E0,0E0,0E0,0E0,0E0,0E0,0E0,0E0],"parents":[2147483647,0,0,1,1,2,2,3,3,4,4,5,5,6,6,7,7,8,8,9,9,10,10,11,11,13,13,14,14,15,15,16,16,18,18,19,19,20,20,27,27,28,28,29,29,30,30,31,31,37,37,41,41,42,42],"right_children":[2,4,6,8,10,12,14,16,18,20,22,24,-1,26,28,30,32,-1,34,36,38,-1,-1,-1,-1,-1,-1,40,42,44,46,48,-1,-1,-1,-1,-1,50,-1,-1,-1,52,54,-1,-1,-1,-1,-1,-1,-1,-1,-1,-1,-1,-1],"split_conditions":[7.488652E-4,9.803333E3,3.3751217E-4,9.733333E2,6.478753E-4,1.4930082E1,3.0112354E-4,1.3063423E1,8.9012913E-4,5.754901E-4,1.2143067E-3,8.072538E-4,-4.9565215E-2,2.46438E-4,4.3303482E-4,1.8053578E4,1.8344154E4,-5.5932205E-2,7.25829E0,6.9590373E0,8.342654E-4,-3.3333335E-2,-0E0,-2.7272727E-2,3.6000002E-2,1.7142858E-2,4.875E-2,1.7313736E4,6.0498447E-4,6.117231E-4,1.6716083E0,5.203352E1,1.2E-2,3.3333335E-2,-3.6000002E-2,4.6666667E-2,-4E-2,2.8696756E1,-0E0,1.6363636E-2,-4.5599997E-2,-2.0833333E2,1.0877125E1,1.8571429E-2,-2.6666665E-2,3.6000002E-2,-3.0566039E-2,-4.444444E-2,6.6666664E-3,5.272727E-2,1.5E-2,4.1249998E-2,-5.4545454E-3,-2.5161289E-2,1.4716981E-2],"split_indices":[5,12,2,12,4,10,3,10,2,1,1,3,0,3,3,6,6,0,10,10,1,0,0,0,0,0,0,6,3,1,10,10,0,0,0,0,0,10,0,0,0,12,10,0,0,0,0,0,0,0,0,0,0,0,0],"split_type":[0,0,0,0,0,0,0,0,0,0,0,0,0,0,0,0,0,0,0,0,0,0,0,0,0,0,0,0,0,0,0,0,0,0,0,0,0,0,0,0,0,0,0,0,0,0,0,0,0,0,0,0,0,0,0],"sum_hessian":[1.7675E2,8.6E1,9.075E1,6.9E1,1.7E1,9.25E0,8.15E1,5.25E1,1.65E1,1.475E1,2.25E0,4.5E0,4.75E0,9.5E0,7.2E1,3.725E1,1.525E1,1.375E1,2.75E0,5.5E0,9.25E0,1.25E0,1E0,1.75E0,2.75E0,2.5E0,7E0,7E0,6.5E1,2.35E1,1.375E1,1.375E1,1.5E0,1.25E0,1.5E0,3.5E0,2E0,8.25E0,1E0,1.75E0,5.25E0,1.95E1,4.55E1,2E1,3.5E0,1.5E0,1.225E1,1.25E1,1.25E0,7.25E0,1E0,1.5E1,4.5E0,6.75E0,3.875E1],"tree_param":{"num_deleted":"0","num_feature":"17","num_nodes":"55","size_leaf_vector":"1"}},{"base_weights":[-1.6912974E-2,8.437191E-1,-1.9187048E-1,-3.798959E-2,1.0208298E0,6.365279E-2,-8.55023E-1,1.2775041E0,-7.673133E-2,6.4576054E-1,-3.1792253E-1,-1.2614094E0,-9.27619E-2,4.776418E-1,4.3062758E-2,-1.0479542E0,3.973403E-2,-8.19271E-1,9.83107E-1,-6.3011426E-1,8.1278706E-1,-1.7188665E-1,-1.4764372E0,5.154355E-1,-7.901654E-1,4.2487267E-2,-2.6720453E-2,-3.967356E-2,-6.484467E-3,3.566757E-2,-1.4195814E0,1.5023204E0,3.6170477E-1,-1.1505033E-1,-1.1821316E0,-4.9308512E-1,1.1963669E0,6.667306E-1,-3.7586186E-2,-2.9454088E-1,-1.612866E0,-3.960314E-1,9.991167E-1,2.6671547E-2,-4.3675423E-2,-6.7287283E-3,-4.9212877E-2,4.8368275E-2,1.6873784E-2,-2.4202444E-2,2.326171E-2,1.0268811E-2,-4.9893785E-2,-4.1595813E-2,3.573626E-2,2.0034458E-2,-3.7909217E-2,4.1754335E-2,-6.7648585E-3,7.068148E-3,2.3640992E-2,-3.3236325E-2,1.9492446E-2,-5.0897565E-2,-6.510755E-3,-3.5524588E-2,1.9672088E-2,4.602382E-3,4.3967377E-2],"categories":[],"categories_nodes":[],"categories_segments":[],"categories_sizes":[],"default_left":[0,0,0,0,0,0,0,0,0,0,0,0,0,0,0,0,0,0,0,0,0,0,0,0,0,0,0,0,0,0,0,0,0,0,0,0,0,0,0,0,0,0,0,0,0,0,0,0,0,0,0,0,0,0,0,0,0,0,0,0,0,0,0,0,0,0,0,0,0],"id":1,"left_children":[1,3,5,-1,7,9,11,13,15,17,19,21,23,25,-1,27,-1,29,31,33,35,37,39,41,43,-1,-1,-1,-1,-1,45,47,49,51,53,55,57,59,-1,61,63,65,67,-1,-1,-1,-1,-1,-1,-1,-1,-1,-1,-1,-1,-1,-1,-1,-1,-1,-1,-1,-1,-1,-1,-1,-1,-1,-1],"loss_changes":[2.6504839E1,1.2407663E1,2.4829496E1,0E0,7.9840145E0,2.3854631E1,1.2501888E1,2.187271E0,9.891994E0,2.1804E1,2.3451359E1,5.952484E0,6.873562E0,8.002423E0,0E0,6.843257E-1,0E0,1.1932212E1,1.0745853E1,1.45030155E1,7.8514833E0,5.8196845E0,3.0711708E0,4.252538E0,9.674042E0,0E0,0E0,0E0,0E0,0E0,1.4793692E0,1.030365E0,8.961206E0,2.021131E1,1.3655052E1,4.4216433E0,3.508892E0,1.0390639E-2,0E0,3.407451E0,1.9097824E0,3.884229E0,2.1418457E0,0E0,0E0,0E0,0E0,0E0,0E0,0E0,0E0,0E0,0E0,0E0,0E0,0E0,0E0,0E0,0E0,0E0,0E0,0E0,0E0,0E0,0E0,0E0,0E0,0E0,0E0],"parents":[2147483647,0,0,1,1,2,2,4,4,5,5,6,6,7,7,8,8,9,9,10,10,11,11,12,12,13,13,15,15,17,17,18,18,19,19,20,20,21,21,22,22,23,23,24,24,30,30,31,31,32,32,33,33,34,34,35,35,36,36,37,37,39,39,40,40,41,41,42,42],"right_children":[2,4,6,-1,8,10,12,14,16,18,20,22,24,26,-1,28,-1,30,32,34,36,38,40,42,44,-1,-1,-1,-1,-1,46,48,50,52,54,56,58,60,-1,62,64,66,68,-1,-1,-1,-1,-1,-1,-1,-1,-1,-1,-1,-1,-1,-1,-1,-1,-1,-1,-1,-1,-1,-1,-1,-1,-1,-1],"split_conditions":[-1.315E4,9.3367256E-5,1.797614E4,-3.798959E-2,2.5873337E1,1.1151514E1,2.9E3,7.1277417E-4,-2.17E4,4.726563E-4,1.0365E4,3.5158635E-4,1.15E2,1.7018988E4,4.3062758E-2,1.2091127E-3,3.973403E-2,-2.513068E-4,-2.0833333E2,8.164734E-4,5.1304477E-4,6.5528276E3,-9.706667E3,-9.841667E3,3.988584E-5,4.2487267E-2,-2.6720453E-2,-3.967356E-2,-6.484467E-3,3.566757E-2,3.3609447E-4,2.7905578E4,7.506432E0,9.733333E2,1.7972299E4,3.717439E-4,4.142154E1,7.6546297E0,-3.7586186E-2,-1.9786666E4,2.1668298E-3,3.384732E-3,4.6036352E-4,2.6671547E-2,-4.3675423E-2,-6.7287283E-3,-4.9212877E-2,4.8368275E-2,1.6873784E-2,-2.4202444E-2,2.326171E-2,1.0268811E-2,-4.9893785E-2,-4.1595813E-2,3.573626E-2,2.0034458E-2,-3.7909217E-2,4.1754335E-2,-6.7648585E-3,7.068148E-3,2.3640992E-2,-3.3236325E-2,1.9492446E-2,-5.0897565E-2,-6.510755E-3,-3.5524588E-2,1.9672088E-2,4.602382E-3,4.3967377E-2],"split_indices":[14,4,8,0,7,7,14,2,14,1,12,3,12,6,0,4,0,2,12,3,2,13,12,12,4,0,0,0,0,0,1,13,7,12,9,4,7,7,0,12,2,1,1,0,0,0,0,0,0,0,0,0,0,0,0,0,0,0,0,0,0,0,0,0,0,0,0,0,0],"split_type":[0,0,0,0,0,0,0,0,0,0,0,0,0,0,0,0,0,0,0,0,0,0,0,0,0,0,0,0,0,0,0,0,0,0,0,0,0,0,0,0,0,0,0,0,0,0,0,0,0,0,0,0,0,0,0,0,0,0,0,0,0,0,0,0,0,0,0,0,0],"sum_hessian":[1.7395016E2,2.8742203E1,1.4520796E2,1.749488E0,2.6992714E1,1.05471954E2,3.9736015E1,2.174379E1,5.248924E0,4.148803E1,6.3983925E1,2.5491068E1,1.42449465E1,4.2487373E0,1.7495052E1,3.249014E0,1.9999099E0,7.497824E0,3.3990204E1,5.0487053E1,1.3496875E1,4.4982576E0,2.099281E1,7.7484965E0,6.4964504E0,2.4993143E0,1.7494228E0,1.9993615E0,1.2496524E0,1.4998707E0,5.997954E0,1.774539E1,1.6244814E1,2.6742851E1,2.37442E1,2.999566E0,1.0497309E1,2.7489061E0,1.7493511E0,2.4993777E0,1.8493431E1,2.749136E0,4.9993606E0,1.7489882E0,4.7474623E0,1.2497183E0,4.748235E0,1.5246269E1,2.49912E0,3.9991336E0,1.2245681E1,2.1245298E1,5.497553E0,2.2244282E1,1.4999188E0,1.2498719E0,1.7496941E0,9.247335E0,1.2499729E0,1.2496765E0,1.4992297E0,1.2497238E0,1.2496539E0,1.7243732E1,1.2496996E0,1.4995832E0,1.2495526E0,2.2496305E0,2.74973E0],"tree_param":{"num_deleted":"0","num_feature":"17","num_nodes":"69","size_leaf_vector":"1"}},{"base_weights":[1.3447916E-2,-3.8513896E-1,3.1957704E-1,2.7966666E-1,-6.302317E-1,1.0555454E0,1.11877516E-1,-5.101119E-1,1.196289E0,-2.8483087E-1,-1.1940953E0,-3.293841E-2,1.2382088E0,6.6776216E-1,-1.7068328E-1,-1.0648972E0,4.0586527E-2,4.5152795E-2,5.217673E-1,-1.0734792E0,2.993966E-1,-1.4957726E0,3.6342004E-1,1.443507E0,1.0163199E-1,1.0572937E0,-2.2891499E-1,3.5442916E-1,-5.937568E-1,2.6638798E-2,-4.760475E-2,-3.227943E-2,4.1986577E-2,-2.701116E-1,-5.1803432E-2,1.2118192E0,8.4922025E-3,-1.6376679E0,6.747435E-3,3.9451905E-2,-3.2040462E-2,1.6206598E0,2.7211288E-1,-3.579804E-2,3.7263528E-2,-7.736844E-3,1.3886954E0,1.1540078E0,-4.695642E-2,-3.4041944E-1,1.238034E0,-9.3789864E-1,3.621583E-2,-4.431599E-2,2.4273407E-2,6.0788733E-3,4.4293404E-2,1.3046305E-2,-3.4350254E-2,-5.3979598E-2,6.115952E-3,2.6785865E-2,5.3507935E-2,-6.6704694E-3,1.9370522E-2,3.2019123E-2,-3.2416668E-2,4.7835433E-3,4.635018E-2,4.0952668E-2,1.1912824E-2,-3.6050953E-2,1.6937729E-2,-5.5683316E-3,4.582124E-2,6.876242E-3,-4.157432E-2],"categories":[],"categories_nodes":[],"categories_segments":[],"categories_sizes":[],"default_left":[0,0,0,0,0,0,0,0,0,0,0,0,0,0,0,0,0,0,0,0,0,0,0,0,0,0,0,0,0,0,0,0,0,0,0,0,0,0,0,0,0,0,0,0,0,0,0,0,0,0,0,0,0,0,0,0,0,0,0,0,0,0,0,0,0,0,0,0,0,0,0,0,0,0,0,0,0],"id":2,"left_children":[1,3,5,7,9,11,13,15,17,19,21,-1,23,25,27,29,-1,-1,31,33,35,37,39,41,43,45,47,49,51,-1,-1,-1,-1,53,-1,55,57,59,-1,-1,-1,61,63,-1,-1,65,67,69,-1,71,73,75,-1,-1,-1,-1,-1,-1,-1,-1,-1,-1,-1,-1,-1,-1,-1,-1,-1,-1,-1,-1,-1,-1,-1,-1,-1],"loss_changes":[2.1668213E1,1.2748048E1,1.523144E1,1.6157122E1,1.0698956E1,1.0006697E1,1.2590573E1,1.4088495E1,1.3473425E0,1.7121614E1,1.0513218E1,0E0,4.691267E0,9.6632185E0,1.2087156E1,1.1590051E1,0E0,0E0,8.161996E0,7.7918606E0,5.7569084E0,4.7559776E0,7.1903973E0,3.1876144E0,7.755515E0,6.7105083E0,1.8421288E1,1.5451237E1,1.9713488E1,0E0,0E0,0E0,0E0,1.1932681E1,0E0,1.1017375E0,9.09633E0,5.3448334E0,0E0,0E0,0E0,1.8475342E-1,7.8986144E-1,0E0,0E0,7.495734E0,2.536417E0,2.5581503E-1,0E0,1.19712305E1,4.811224E0,1.3769985E1,0E0,0E0,0E0,0E0,0E0,0E0,0E0,0E0,0E0,0E0,0E0,0E0,0E0,0E0,0E0,0E0,0E0,0E0,0E0,0E0,0E0,0E0,0E0,0E0,0E0],"parents":[2147483647,0,0,1,1,2,2,3,3,4,4,5,5,6,6,7,7,8,8,9,9,10,10,12,12,13,13,14,14,15,15,18,18,19,19,20,20,21,21,22,22,23,23,24,24,25,25,26,26,27,27,28,28,33,33,35,35,36,36,37,37,41,41,42,42,45,45,46,46,47,47,49,49,50,50,51,51],"right_children":[2,4,6,8,10,12,14,16,18,20,22,-1,24,26,28,30,-1,-1,32,34,36,38,40,42,44,46,48,50,52,-1,-1,-1,-1,54,-1,56,58,60,-1,-1,-1,62,64,-1,-1,66,68,70,-1,72,74,76,-1,-1,-1,-1,-1,-1,-1,-1,-1,-1,-1,-1,-1,-1,-1,-1,-1,-1,-1,-1,-1,-1,-1,-1,-1],"split_conditions":[6.839613E-4,7.681101E0,1.6946195E4,6.83275E0,1.797614E4,-1.2518602E-4,1.1064184E1,5.553484E-5,4.4892987E-4,1.7529701E4,1.8624096E4,-3.293841E-2,1.0353378E-4,1.7834086E4,8.8965177E-4,1.6716083E0,4.0586527E-2,4.5152795E-2,7.600077E0,1.717848E4,1.7574059E4,6.3346163E-4,3.64724E-4,2.4668861E1,1.5895597E-4,1.1818424E-3,-5.4E3,7.964012E-4,6.072664E-3,2.6638798E-2,-4.760475E-2,-3.227943E-2,4.1986577E-2,1.6642447E4,-5.1803432E-2,1.6121515E1,1.3063423E1,2.750066E1,6.747435E-3,3.9451905E-2,-3.2040462E-2,7.0155086E-4,1.3776222E-3,-3.579804E-2,3.7263528E-2,1.7255656E4,6.1112714E0,2.9425015E-4,-4.695642E-2,2.9034311E1,1.764394E4,1.7056807E4,3.621583E-2,-4.431599E-2,2.4273407E-2,6.0788733E-3,4.4293404E-2,1.3046305E-2,-3.4350254E-2,-5.3979598E-2,6.115952E-3,2.6785865E-2,5.3507935E-2,-6.6704694E-3,1.9370522E-2,3.2019123E-2,-3.2416668E-2,4.7835433E-3,4.635018E-2,4.0952668E-2,1.1912824E-2,-3.6050953E-2,1.6937729E-2,-5.5683316E-3,4.582124E-2,6.876242E-3,-4.157432E-2],"split_indices":[5,7,6,7,8,0,7,0,5,8,6,0,0,6,5,10,0,0,7,9,11,5,5,10,0,1,14,5,5,0,0,0,0,6,0,10,10,10,0,0,0,1,1,0,0,6,7,3,0,7,6,6,0,0,0,0,0,0,0,0,0,0,0,0,0,0,0,0,0,0,0,0,0,0,0,0,0],"split_type":[0,0,0,0,0,0,0,0,0,0,0,0,0,0,0,0,0,0,0,0,0,0,0,0,0,0,0,0,0,0,0,0,0,0,0,0,0,0,0,0,0,0,0,0,0,0,0,0,0,0,0,0,0,0,0,0,0,0,0,0,0,0,0,0,0,0,0,0,0,0,0,0,0,0,0,0,0],"sum_hessian":[1.7557187E2,7.6156425E1,9.941544E1,2.0475706E1,5.5680717E1,2.0982693E1,7.843275E1,1.1237101E1,9.2386055E0,3.5462757E1,2.021796E1,1.2488409E0,1.973385E1,2.597285E1,5.2459896E1,8.988726E0,2.2483745E0,5.492653E0,3.7459528E0,1.4734812E1,2.0727947E1,1.697055E1,3.2474089E0,1.648597E1,3.2478828E0,1.798203E1,7.9908195E0,2.347961E1,2.8980286E1,1.7478023E0,7.240924E0,1.248194E0,2.4977589E0,7.242339E0,7.4924726E0,4.245676E0,1.6482271E1,1.5722273E1,1.2482785E0,1.9994423E0,1.2479668E0,1.3987128E1,2.4988403E0,1.4993031E0,1.7485796E0,4.4992805E0,1.3482751E1,3.9939425E0,3.996877E0,1.3487812E1,9.991798E0,2.4733255E1,4.2470317E0,3.244586E0,3.9977531E0,1.2488285E0,2.9968474E0,1.248884E1,3.9934313E0,1.4474596E1,1.2476766E0,3.74391E0,1.0243218E1,1.2496264E0,1.2492139E0,2.24988E0,2.2494006E0,1.7489457E0,1.1733806E1,2.4947388E0,1.4992037E0,6.7429056E0,6.744907E0,1.7482711E0,8.243527E0,6.994982E0,1.7738274E1],"tree_param":{"num_deleted":"0","num_feature":"17","num_nodes":"77","size_leaf_vector":"1"}},{"base_weights":[2.4696698E-3,8.286383E-1,-1.6164862E-1,-3.6157127E-2,9.9432176E-1,-3.0640754E-1,8.3463454E-1,1.2682406E0,-8.518184E-2,-9.054563E-2,-9.5664775E-1,1.1669029E0,-8.942593E-1,4.982567E-2,7.69902E-1,-3.7269726E-2,5.686245E-1,3.8583452E-1,-4.4608143E-1,-1.5271188E0,-2.679282E-2,1.5108057E0,-2.249351E-2,-3.464596E-2,-6.190791E-3,1.163285E0,-3.559293E-2,-1.8418109E-2,3.487033E-2,7.6314676E-1,-7.889428E-1,-5.8177674E-1,6.0229856E-1,-1.02676805E-2,-1.6015991E0,-4.4826075E-2,6.717416E-1,1.5410131E-2,4.816087E-2,-6.398474E-3,4.1172754E-2,3.168199E-2,-3.2513913E-2,-1.641957E-2,3.0656181E-2,-4.845407E-2,1.1004122E-2,4.249795E-3,-2.4665225E-2,-3.183763E-2,3.376125E-2,-2.385058E-2,-5.33111E-2,-3.202082E-2,3.1255815E-2],"categories":[],"categories_nodes":[],"categories_segments":[],"categories_sizes":[],"default_left":[0,0,0,0,0,0,0,0,0,0,0,0,0,0,0,0,0,0,0,0,0,0,0,0,0,0,0,0,0,0,0,0,0,0,0,0,0,0,0,0,0,0,0,0,0,0,0,0,0,0,0,0,0,0,0],"id":3,"left_children":[1,3,5,-1,7,9,11,13,15,17,19,21,23,-1,25,-1,27,29,31,33,35,37,-1,-1,-1,39,-1,41,-1,43,45,47,49,-1,51,-1,53,-1,-1,-1,-1,-1,-1,-1,-1,-1,-1,-1,-1,-1,-1,-1,-1,-1,-1],"loss_changes":[2.4892345E1,1.1450962E1,2.234655E1,0E0,8.588919E0,1.878822E1,1.2360868E1,3.209488E0,5.8069167E0,1.7458366E1,1.7681889E1,1.23113365E1,4.3251705E-1,0E0,1.0594231E1,0E0,1.7619509E0,2.0173868E1,8.730604E0,1.2776146E0,1.5068851E1,5.623779E-1,0E0,0E0,0E0,3.307907E0,0E0,5.145901E0,0E0,1.2062904E1,1.131143E1,9.275627E0,7.4961786E0,0E0,1.3031998E0,0E0,7.5398617E0,0E0,0E0,0E0,0E0,0E0,0E0,0E0,0E0,0E0,0E0,0E0,0E0,0E0,0E0,0E0,0E0,0E0,0E0],"parents":[2147483647,0,0,1,1,2,2,4,4,5,5,6,6,7,7,8,8,9,9,10,10,11,11,12,12,14,14,16,16,17,17,18,18,19,19,20,20,21,21,25,25,27,27,29,29,30,30,31,31,32,32,34,34,36,36],"right_children":[2,4,6,-1,8,10,12,14,16,18,20,22,24,-1,26,-1,28,30,32,34,36,38,-1,-1,-1,40,-1,42,-1,44,46,48,50,-1,52,-1,54,-1,-1,-1,-1,-1,-1,-1,-1,-1,-1,-1,-1,-1,-1,-1,-1,-1,-1],"split_conditions":[-1.345E4,8.254301E-5,1.3373333E4,-3.6157127E-2,1.6959288E1,9.733333E2,1.745E4,3.9658084E-4,2.8058687E1,1.1151514E1,7.86E3,2.971766E1,4.5897183E-4,4.982567E-2,1.7732912E4,-3.7269726E-2,1.3569457E-3,1.797614E4,1.8414275E4,8.81905E3,6.0563895E-4,1.03827784E-4,-2.249351E-2,-3.464596E-2,-6.190791E-3,5.6105125E-4,-3.559293E-2,6.2369613E-4,3.487033E-2,4.726563E-4,4.0837633E-5,1.7207436E4,1.4166453E1,-1.02676805E-2,-3.3E3,-4.4826075E-2,1.7023166E4,1.5410131E-2,4.816087E-2,-6.398474E-3,4.1172754E-2,3.168199E-2,-3.2513913E-2,-1.641957E-2,3.0656181E-2,-4.845407E-2,1.1004122E-2,4.249795E-3,-2.4665225E-2,-3.183763E-2,3.376125E-2,-2.385058E-2,-5.33111E-2,-3.202082E-2,3.1255815E-2],"split_indices":[14,4,12,0,10,12,14,4,10,7,12,10,4,0,8,0,1,8,8,13,1,2,0,0,0,2,0,1,0,1,0,9,7,0,14,0,8,0,0,0,0,0,0,0,0,0,0,0,0,0,0,0,0,0,0],"split_type":[0,0,0,0,0,0,0,0,0,0,0,0,0,0,0,0,0,0,0,0,0,0,0,0,0,0,0,0,0,0,0,0,0,0,0,0,0,0,0,0,0,0,0,0,0,0,0,0,0,0,0,0,0,0,0],"sum_hessian":[1.8159836E2,2.9424896E1,1.5217346E2,1.7438326E0,2.7681065E1,1.3347249E2,1.8700968E1,2.1939249E1,5.741815E0,1.0106194E2,3.2410545E1,1.5958947E1,2.7420201E0,1.0966516E1,1.0972734E1,1.7479882E0,3.9938269E0,4.3154408E1,5.7907536E1,1.9688948E1,1.2721598E1,1.3710663E1,2.2482839E0,1.4963208E0,1.2456993E0,9.473217E0,1.499517E0,2.495435E0,1.4983919E0,3.2928802E1,1.0225605E1,5.1665386E1,6.2421517E0,1.4953625E0,1.8193586E1,3.7354639E0,8.986134E0,1.7446887E0,1.1965975E1,1.2468178E0,8.226399E0,1.2467604E0,1.2486746E0,5.2453403E0,2.7683462E1,5.7311645E0,4.494441E0,1.2988713E1,3.867667E1,1.2470994E0,4.9950523E0,4.238515E0,1.3955071E1,1.2462877E0,7.7398458E0],"tree_param":{"num_deleted":"0","num_feature":"17","num_nodes":"55","size_leaf_vector":"1"}},{"base_weights":[-7.323978E-2,-5.258384E-1,2.7135763E-1,-6.9842654E-1,1.3207289E0,1.0052047E0,4.2695764E-2,-7.282554E-2,-9.829387E-1,4.5258224E-2,1.139764E-2,1.2038852E0,-3.5980586E-2,-2.1213502E-1,6.729714E-1,3.3462456E-1,-1.0822285E0,-6.5087295E-1,-1.5762941E0,1.4774181E0,-2.3057067E-1,3.5669187E-1,-7.5455886E-1,1.2173017E0,-5.8834966E-2,-4.426502E-1,1.075893E0,-4.4959098E-2,-8.2544726E-4,-4.8600398E-2,-3.8949347E-1,-5.0157744E-2,-6.2602335E-3,-2.3396486E-4,4.8113674E-2,-3.9449453E-2,3.491543E-2,6.3000673E-1,-4.4145588E-2,5.0706685E-1,-1.0972133E0,1.4258083E0,4.0615853E-3,1.1986225E0,-1.1554321E0,-4.1900706E-2,2.6166413E-2,-1.142756E-2,4.2190187E-2,-5.4859207E-4,-4.1332513E-2,2.632651E-3,4.4919286E-2,3.5083584E-2,-3.4411035E-2,-4.7201846E-2,-1.0731712E-2,2.2306567E-2,4.848237E-2,4.3380592E-2,5.979291E-3,-6.003721E-3,-4.0618844E-2],"categories":[],"categories_nodes":[],"categories_segments":[],"categories_sizes":[],"default_left":[0,0,0,0,0,0,0,0,0,0,0,0,0,0,0,0,0,0,0,0,0,0,0,0,0,0,0,0,0,0,0,0,0,0,0,0,0,0,0,0,0,0,0,0,0,0,0,0,0,0,0,0,0,0,0,0,0,0,0,0,0,0,0],"id":4,"left_children":[1,3,5,7,9,11,13,15,17,-1,-1,19,-1,21,23,25,27,29,31,33,35,37,39,41,43,45,47,-1,-1,-1,49,-1,-1,-1,-1,-1,-1,51,-1,53,55,57,-1,59,61,-1,-1,-1,-1,-1,-1,-1,-1,-1,-1,-1,-1,-1,-1,-1,-1,-1,-1],"loss_changes":[2.795664E1,2.5598389E1,1.7057434E1,1.2648346E1,6.5780354E-1,1.2028492E1,1.2789762E1,9.994542E0,8.637207E0,0E0,0E0,9.234474E0,0E0,1.7804256E1,9.197766E0,1.0529926E1,3.0204964E0,7.766013E0,1.860714E0,3.6108284E0,8.327557E0,1.5127724E1,1.3271185E1,2.7811127E0,1.6175453E1,1.279189E1,4.9756155E0,0E0,0E0,0E0,1.0035225E1,0E0,0E0,0E0,0E0,0E0,0E0,1.1825295E1,0E0,8.973672E0,7.6932125E0,2.1966743E-1,0E0,1.0684338E0,9.1225433E-1,0E0,0E0,0E0,0E0,0E0,0E0,0E0,0E0,0E0,0E0,0E0,0E0,0E0,0E0,0E0,0E0,0E0,0E0],"parents":[2147483647,0,0,1,1,2,2,3,3,4,4,5,5,6,6,7,7,8,8,11,11,13,13,14,14,15,15,16,16,17,17,18,18,19,19,20,20,21,21,22,22,23,23,24,24,25,25,26,26,30,30,37,37,39,39,40,40,41,41,43,43,44,44],"right_children":[2,4,6,8,10,12,14,16,18,-1,-1,20,-1,22,24,26,28,30,32,34,36,38,40,42,44,46,48,-1,-1,-1,50,-1,-1,-1,-1,-1,-1,52,-1,54,56,58,-1,60,62,-1,-1,-1,-1,-1,-1,-1,-1,-1,-1,-1,-1,-1,-1,-1,-1,-1,-1],"split_conditions":[6.839613E-4,2.0505E4,1.6946195E4,6.102153E0,4.6442525E-4,4.1868747E-3,2.1576893E-3,1.6270942E4,9.733333E2,4.5258224E-2,1.139764E-2,2.4668861E1,-3.5980586E-2,8.8965177E-4,1.1064184E1,1.0625446E4,2.4187315E-5,8.982572E0,2.8058687E1,6.930287E0,1.6908275E4,5.7585504E4,-8.145E4,1.773753E4,-1.772E4,4.9604325E0,4.119565E-4,-4.4959098E-2,-8.2544726E-4,-4.8600398E-2,5.3616972E-5,-5.0157744E-2,-6.2602335E-3,-2.3396486E-4,4.8113674E-2,-3.9449453E-2,3.491543E-2,2.2270871E4,-4.4145588E-2,3.9658084E-4,1.3361599E-3,7.506432E0,4.0615853E-3,2.3930351E1,6.4746614E0,-4.1900706E-2,2.6166413E-2,-1.142756E-2,4.2190187E-2,-5.4859207E-4,-4.1332513E-2,2.632651E-3,4.4919286E-2,3.5083584E-2,-3.4411035E-2,-4.7201846E-2,-1.0731712E-2,2.2306567E-2,4.848237E-2,4.3380592E-2,5.979291E-3,-6.003721E-3,-4.0618844E-2],"split_indices":[5,12,6,10,4,5,5,13,12,0,0,10,0,5,7,13,0,10,10,10,6,13,14,6,12,10,5,0,0,0,0,0,0,0,0,0,0,13,0,4,5,7,0,7,10,0,0,0,0,0,0,0,0,0,0,0,0,0,0,0,0,0,0],"split_type":[0,0,0,0,0,0,0,0,0,0,0,0,0,0,0,0,0,0,0,0,0,0,0,0,0,0,0,0,0,0,0,0,0,0,0,0,0,0,0,0,0,0,0,0,0,0,0,0,0,0,0,0,0,0,0,0,0,0,0,0,0,0,0],"sum_hessian":[1.7733536E2,7.642796E1,1.00907394E2,7.046387E1,5.9640884E0,2.3165634E1,7.774176E1,2.2420473E1,4.80434E1,4.4682574E0,1.4958313E0,2.166687E1,1.4987645E0,5.583157E1,2.1910194E1,1.6449179E1,5.9712934E0,3.2148647E1,1.58947525E1,1.8171785E1,3.4950838E0,2.7419651E1,2.8411919E1,1.2184059E1,9.726134E0,8.226224E0,8.222956E0,3.9793317E0,1.9919615E0,5.724704E0,2.6423943E1,1.4647986E1,1.2467663E0,1.4984975E0,1.6673288E1,1.9981389E0,1.496945E0,2.4423737E1,2.9959147E0,5.9659514E0,2.2445967E1,9.94886E0,2.2351987E0,4.4874177E0,5.238717E0,4.7311563E0,3.4950676E0,1.4921037E0,6.730852E0,1.9949177E1,6.474765E0,1.5705552E1,8.7181835E0,4.4692397E0,1.4967116E0,1.296786E1,9.4781065E0,3.239786E0,6.709075E0,3.2386253E0,1.2487923E0,1.2468765E0,3.9918406E0],"tree_param":{"num_deleted":"0","num_feature":"17","num_nodes":"63","size_leaf_vector":"1"}},{"base_weights":[-1.6890865E-2,-1.6198662E-1,8.3548003E-1,-5.9385234E-1,2.8994393E-1,9.670623E-1,-3.1124627E-2,-3.667869E-1,-1.2633898E0,1.4225246E-1,1.2262578E0,-3.3698815E-1,1.170704E0,-7.0405024E-1,3.2448018E-1,-5.0880067E-2,1.1666262E-1,6.6936046E-1,-3.3725464E-1,4.6548348E-2,6.0489196E-1,2.2117853E-2,-3.5698343E-2,1.3895893E0,-1.0299298E-2,-1.9833228E-1,-1.3999045E0,1.1879202E0,-3.5692888E-1,2.6847819E-2,-2.6878504E-2,9.6052337E-1,2.1042436E-2,-6.8297796E-2,-4.38551E-2,4.1715693E-2,-3.1707253E-2,-6.128119E-3,1.5142063E0,-3.451507E-2,2.831722E-2,-3.169914E-2,5.5090785E-3,-4.4530604E-2,-5.0179563E-3,4.2174906E-3,4.4788264E-2,1.2646713E-2,-3.8133234E-2,7.7118147E-3,3.8227152E-2,2.720484E-2,-3.481291E-2,3.4408988E-3,-4.2070955E-2,1.0426004E-2,4.8017487E-2],"categories":[],"categories_nodes":[],"categories_segments":[],"categories_sizes":[],"default_left":[0,0,0,0,0,0,0,0,0,0,0,0,0,0,0,0,0,0,0,0,0,0,0,0,0,0,0,0,0,0,0,0,0,0,0,0,0,0,0,0,0,0,0,0,0,0,0,0,0,0,0,0,0,0,0,0,0],"id":5,"left_children":[1,3,5,7,9,11,-1,13,15,17,19,21,23,25,27,-1,29,31,33,-1,35,-1,-1,37,39,41,43,45,47,-1,-1,49,51,53,-1,-1,-1,-1,55,-1,-1,-1,-1,-1,-1,-1,-1,-1,-1,-1,-1,-1,-1,-1,-1,-1,-1],"loss_changes":[2.27953E1,3.0893776E1,7.611742E0,1.1823305E1,1.0554932E1,7.185381E0,0E0,1.4627123E1,1.2173161E1,1.7450441E1,1.1720095E0,4.7536173E0,5.789686E0,1.44404335E1,1.2741898E1,0E0,5.311799E0,6.1709433E0,1.0894899E1,0E0,8.293511E0,0E0,0E0,4.0544357E0,5.966623E0,8.51676E0,1.5669098E0,2.814021E0,9.410779E0,0E0,0E0,4.6623745E0,1.2759992E1,7.5783534E0,0E0,0E0,0E0,0E0,1.2180634E0,0E0,0E0,0E0,0E0,0E0,0E0,0E0,0E0,0E0,0E0,0E0,0E0,0E0,0E0,0E0,0E0,0E0,0E0],"parents":[2147483647,0,0,1,1,2,2,3,3,4,4,5,5,7,7,8,8,9,9,10,10,11,11,12,12,13,13,14,14,16,16,17,17,18,18,20,20,23,23,24,24,25,25,26,26,27,27,28,28,31,31,32,32,33,33,38,38],"right_children":[2,4,6,8,10,12,-1,14,16,18,20,22,24,26,28,-1,30,32,34,-1,36,-1,-1,38,40,42,44,46,48,-1,-1,50,52,54,-1,-1,-1,-1,56,-1,-1,-1,-1,-1,-1,-1,-1,-1,-1,-1,-1,-1,-1,-1,-1,-1,-1],"split_conditions":[9.826667E3,8.1093766E-4,7.76339E-5,9.733333E2,2.4033592E-3,1.2213147E-4,-3.1124627E-2,2.15E3,9.0556167E-4,6.242297E-4,1.0805388E-3,1.616527E4,1.125E4,5.316892E-4,1.0700377E-4,-5.0880067E-2,0E0,1.7840236E4,1.54E3,4.6548348E-2,-3.935E4,2.2117853E-2,-3.5698343E-2,-1.7866073E-4,8.298188E-4,-2.71E3,7.5E1,4.0754076E-4,4.95E3,2.6847819E-2,-2.6878504E-2,1.1818424E-3,3.9658084E-4,1.6127357E-3,-4.38551E-2,4.1715693E-2,-3.1707253E-2,-6.128119E-3,-2.4E4,-3.451507E-2,2.831722E-2,-3.169914E-2,5.5090785E-3,-4.4530604E-2,-5.0179563E-3,4.2174906E-3,4.4788264E-2,1.2646713E-2,-3.8133234E-2,7.7118147E-3,3.8227152E-2,2.720484E-2,-3.481291E-2,3.4408988E-3,-4.2070955E-2,1.0426004E-2,4.8017487E-2],"split_indices":[12,5,0,12,4,2,0,14,2,3,2,6,14,5,4,0,14,11,12,0,14,0,0,0,5,12,12,5,14,0,0,1,4,4,0,0,0,0,14,0,0,0,0,0,0,0,0,0,0,0,0,0,0,0,0,0,0],"split_type":[0,0,0,0,0,0,0,0,0,0,0,0,0,0,0,0,0,0,0,0,0,0,0,0,0,0,0,0,0,0,0,0,0,0,0,0,0,0,0,0,0,0,0,0,0,0,0,0,0,0,0,0,0,0,0,0,0],"sum_hessian":[1.8222125E2,1.5640671E2,2.5814545E1,7.981822E1,7.6588486E1,2.4571957E1,1.2425885E0,6.0760025E1,1.9058199E1,6.714859E1,9.439899E0,3.230454E0,2.1341503E1,4.08239E1,1.9936127E1,1.4335449E1,4.722749E0,3.1798025E1,3.5350563E1,5.213143E0,4.226757E0,1.4897895E0,1.7406645E0,1.7855562E1,3.48594E0,2.4386108E1,1.6437792E1,8.465646E0,1.147048E1,2.73609E0,1.9866593E0,2.1610899E1,1.0187126E1,2.9383814E1,5.9667487E0,2.9808E0,1.2459569E0,1.2484615E0,1.6607101E1,1.4944599E0,1.9914801E0,6.966242E0,1.7419867E1,1.51927185E1,1.2450726E0,2.2389114E0,6.226734E0,6.48604E0,4.98444E0,7.226307E0,1.4384591E1,5.9549685E0,4.232158E0,2.6643187E1,2.7406287E0,1.4910623E0,1.5116038E1],"tree_param":{"num_deleted":"0","num_feature":"17","num_nodes":"57","size_leaf_vector":"1"}},{"base_weights":[8.035501E-3,6.986204E-1,-1.292589E-1,8.370905E-1,-3.4075867E-2,-3.0148035E-1,5.62033E-1,1.6204335E-1,1.1079522E0,-7.424206E-2,-1.4621874E0,7.589903E-1,-3.8940333E-2,4.423188E-2,-1.1197101E0,1.3155949E0,-3.298689E-2,3.6661777E-1,-4.202395E-1,-1.2376812E-2,-4.623174E-2,-1.214014E-2,1.1553152E0,-4.8322203E-3,-4.1360173E-2,4.226889E-2,5.0717616E-1,6.840157E-1,-9.8863035E-1,-5.506165E-1,9.0437555E-1,3.4544922E-2,-1.0726798E0,1.4895122E0,2.8430691E-2,3.0280305E-2,-6.574382E-3,-2.3118967E-2,2.648088E-2,2.0210993E-2,-4.0365852E-2,-3.0988773E-2,1.6767447E-4,4.1233223E-2,4.6079066E-3,-4.287229E-2,-1.3703408E-4,1.4134028E-2,4.782509E-2,1.9784687E-2,-3.285773E-2],"categories":[],"categories_nodes":[],"categories_segments":[],"categories_sizes":[],"default_left":[0,0,0,0,0,0,0,0,0,0,0,0,0,0,0,0,0,0,0,0,0,0,0,0,0,0,0,0,0,0,0,0,0,0,0,0,0,0,0,0,0,0,0,0,0,0,0,0,0,0,0],"id":6,"left_children":[1,3,5,7,-1,9,11,13,15,17,19,21,-1,-1,23,25,-1,27,29,-1,-1,31,33,-1,-1,-1,35,37,39,41,43,-1,45,47,49,-1,-1,-1,-1,-1,-1,-1,-1,-1,-1,-1,-1,-1,-1,-1,-1],"loss_changes":[1.6863047E1,8.44277E0,1.7838339E1,4.9399567E0,0E0,3.1400105E1,1.1956704E1,1.7107653E1,1.0527103E1,1.5553518E1,9.7893906E-1,8.483236E0,0E0,0E0,1.0730581E0,6.8650436E-1,0E0,2.0001501E1,1.034691E1,0E0,0E0,1.40661E1,6.854969E0,0E0,0E0,0E0,1.4920406E0,1.1371401E1,6.2069283E0,1.4101504E1,1.7259173E0,0E0,2.2612262E0,7.523632E-1,4.415809E0,0E0,0E0,0E0,0E0,0E0,0E0,0E0,0E0,0E0,0E0,0E0,0E0,0E0,0E0,0E0,0E0],"parents":[2147483647,0,0,1,1,2,2,3,3,5,5,6,6,7,7,8,8,9,9,10,10,11,11,14,14,15,15,17,17,18,18,21,21,22,22,26,26,27,27,28,28,29,29,30,30,32,32,33,33,34,34],"right_children":[2,4,6,8,-1,10,12,14,16,18,20,22,-1,-1,24,26,-1,28,30,-1,-1,32,34,-1,-1,-1,36,38,40,42,44,-1,46,48,50,-1,-1,-1,-1,-1,-1,-1,-1,-1,-1,-1,-1,-1,-1,-1,-1],"split_conditions":[-1.345E4,3.236749E1,7.86E3,7.424505E-4,-3.4075867E-2,9.733333E2,2.895E4,1.7018988E4,1.0752548E-4,1.1321502E1,8.81905E3,5.1304477E-4,-3.8940333E-2,4.423188E-2,1.6185947E4,2.2917532E1,-3.298689E-2,1.8062838E4,2.8E2,-1.2376812E-2,-4.623174E-2,1.5711909E4,1.3356307E-3,-4.8322203E-3,-4.1360173E-2,4.226889E-2,-9.607718E-5,4.5585217E0,-5.4E3,1.7834086E4,-1.1449583E-4,3.4544922E-2,2.5976246E1,1.5251992E4,3.9234684E4,3.0280305E-2,-6.574382E-3,-2.3118967E-2,2.648088E-2,2.0210993E-2,-4.0365852E-2,-3.0988773E-2,1.6767447E-4,4.1233223E-2,4.6079066E-3,-4.287229E-2,-1.3703408E-4,1.4134028E-2,4.782509E-2,1.9784687E-2,-3.285773E-2],"split_indices":[14,10,12,2,0,12,14,6,0,7,13,2,0,0,13,7,0,8,12,0,0,13,2,0,0,0,0,7,14,6,0,0,10,13,13,0,0,0,0,0,0,0,0,0,0,0,0,0,0,0,0],"split_type":[0,0,0,0,0,0,0,0,0,0,0,0,0,0,0,0,0,0,0,0,0,0,0,0,0,0,0,0,0,0,0,0,0,0,0,0,0,0,0,0,0,0,0,0,0,0,0,0,0,0,0],"sum_hessian":[1.759026E2,2.8493425E1,1.4740918E2,2.699917E1,1.494256E0,1.18460915E2,2.8948261E1,8.188894E0,1.8810276E1,9.995593E1,1.8504984E1,2.6711744E1,2.2365165E0,3.9718885E0,4.217006E0,1.7562366E1,1.2479084E0,4.3926487E1,5.6029446E1,1.7287856E0,1.6776197E1,9.397116E0,1.7314629E1,1.2418563E0,2.9751496E0,1.5078068E1,2.4842994E0,3.5992386E1,7.934101E0,5.1540794E1,4.4886513E0,4.439869E0,4.9572463E0,1.3106016E1,4.208613E0,1.2384156E0,1.2458838E0,3.9792628E0,3.2013123E1,1.245458E0,6.688643E0,2.7144167E1,2.4396627E1,2.2495272E0,2.2391243E0,3.4636014E0,1.493645E0,1.7340811E0,1.1371935E1,2.9596105E0,1.2490023E0],"tree_param":{"num_deleted":"0","num_feature":"17","num_nodes":"51","size_leaf_vector":"1"}},{"base_weights":[-3.4190506E-2,-3.4912598E-1,2.699504E-1,5.498497E-1,-6.135381E-1,1.1359255E0,2.7253395E-2,1.0114284E0,-4.8369446E-1,7.515606E-1,-7.150877E-1,1.2300788E0,2.8992365E-3,-5.954883E-1,2.8178307E-1,-5.0072977E-3,1.1864824E0,-4.1166298E-2,5.2337927E-1,3.5998873E-2,5.1972974E-4,-3.9695913E-1,-1.1619524E0,1.2935715E0,6.24081E-3,-1.3953913E0,1.3711393E-1,1.0511285E0,1.2108432E-2,1.3493065E0,-5.6624756E-4,2.480526E-4,2.478298E-2,-9.274875E-2,-4.4396263E-2,-1.4120833E0,3.0727694E-2,1.4327475E-2,1.3560629E0,-4.9559686E-2,1.9317805E-3,7.535991E-1,-4.0906772E-1,1.257976E0,-1.0576338E-2,2.0204243E-1,-3.9882477E-2,1.7104868E-2,4.365131E-2,-3.216799E-2,7.708505E-3,-5.094148E-2,-1.2988519E-2,4.401883E-2,2.0328516E-2,4.1561764E-2,-1.0375596E-2,-4.153021E-2,1.6490435E-2,4.3668564E-2,-7.178139E-3,1.7772118E-2,-1.2601623E-2],"categories":[],"categories_nodes":[],"categories_segments":[],"categories_sizes":[],"default_left":[0,0,0,0,0,0,0,0,0,0,0,0,0,0,0,0,0,0,0,0,0,0,0,0,0,0,0,0,0,0,0,0,0,0,0,0,0,0,0,0,0,0,0,0,0,0,0,0,0,0,0,0,0,0,0,0,0,0,0,0,0,0,0],"id":7,"left_children":[1,3,5,7,9,11,13,15,17,19,21,23,-1,25,27,-1,29,-1,31,-1,-1,33,35,37,-1,39,41,43,45,47,-1,-1,-1,49,-1,51,-1,-1,53,-1,-1,55,57,59,-1,61,-1,-1,-1,-1,-1,-1,-1,-1,-1,-1,-1,-1,-1,-1,-1,-1,-1],"loss_changes":[1.6993101E1,2.1043543E1,1.8950449E1,1.0185822E1,9.934134E0,1.8133125E0,1.1511887E1,3.1630392E0,6.9383774E0,1.6849487E0,8.580719E0,9.00301E-1,0E0,1.254795E1,1.0668541E1,0E0,2.5058727E0,0E0,6.141392E-1,0E0,0E0,1.2602846E1,1.5626575E1,2.0775604E-1,0E0,3.9156342E0,4.3207216E0,4.319772E0,1.0239519E1,8.881378E-2,0E0,0E0,0E0,1.0982594E1,0E0,5.897846E0,0E0,0E0,1.4056396E-1,0E0,0E0,4.6120434E0,7.2751093E0,3.85635E0,0E0,8.784032E0,0E0,0E0,0E0,0E0,0E0,0E0,0E0,0E0,0E0,0E0,0E0,0E0,0E0,0E0,0E0,0E0,0E0],"parents":[2147483647,0,0,1,1,2,2,3,3,4,4,5,5,6,6,7,7,8,8,9,9,10,10,11,11,13,13,14,14,16,16,18,18,21,21,22,22,23,23,25,25,26,26,27,27,28,28,29,29,33,33,35,35,38,38,41,41,42,42,43,43,45,45],"right_children":[2,4,6,8,10,12,14,16,18,20,22,24,-1,26,28,-1,30,-1,32,-1,-1,34,36,38,-1,40,42,44,46,48,-1,-1,-1,50,-1,52,-1,-1,54,-1,-1,56,58,60,-1,62,-1,-1,-1,-1,-1,-1,-1,-1,-1,-1,-1,-1,-1,-1,-1,-1,-1],"split_conditions":[7.499156E-4,1.7207436E4,-1.315E4,1.4930082E1,4.227233E-5,7.628856E-5,7.5420743E-4,7.600077E0,7.929543E-4,2.5351043E-4,1.800331E4,3.6031178E1,2.8992365E-3,3.8239203E-5,1.6946195E4,-5.0072977E-3,3.4564378E-4,-4.1166298E-2,1.6946195E4,3.5998873E-2,5.1972974E-4,6.478753E-4,3.0068033E-3,9.347692E-5,6.24081E-3,1.823209E4,0E0,2.4668861E1,7.965827E4,-2.3782248E-5,-5.6624756E-4,2.480526E-4,2.478298E-2,1.756828E4,-4.4396263E-2,3.6289806E-5,3.0727694E-2,1.4327475E-2,2.2917532E1,-4.9559686E-2,1.9317805E-3,5.5617707E-5,1.7991383E4,1.115E4,-1.0576338E-2,9.151435E-5,-3.9882477E-2,1.7104868E-2,4.365131E-2,-3.216799E-2,7.708505E-3,-5.094148E-2,-1.2988519E-2,4.401883E-2,2.0328516E-2,4.1561764E-2,-1.0375596E-2,-4.153021E-2,1.6490435E-2,4.3668564E-2,-7.178139E-3,1.7772118E-2,-1.2601623E-2],"split_indices":[2,9,14,10,4,0,1,7,4,1,6,7,0,0,6,0,4,0,6,0,0,4,1,4,0,6,14,10,13,0,0,0,0,9,0,0,0,0,7,0,0,0,6,14,0,0,0,0,0,0,0,0,0,0,0,0,0,0,0,0,0,0,0],"split_type":[0,0,0,0,0,0,0,0,0,0,0,0,0,0,0,0,0,0,0,0,0,0,0,0,0,0,0,0,0,0,0,0,0,0,0,0,0,0,0,0,0,0,0,0,0,0,0,0,0,0,0,0,0,0,0,0,0,0,0,0,0,0,0],"sum_hessian":[1.7542531E2,8.611058E1,8.931473E1,1.9325665E1,6.678491E1,1.8746017E1,7.056871E1,1.3374181E1,5.9514832E0,4.1809435E0,6.260397E1,1.7020475E1,1.7255422E0,2.0085997E1,5.0482708E1,1.7358963E0,1.1638285E1,2.969233E0,2.9822502E0,2.2019196E0,1.9790237E0,3.7672653E1,2.493132E1,1.5774839E1,1.2456356E0,9.169468E0,1.0916529E1,1.23505335E1,3.8132175E1,1.0148027E1,1.4902565E0,1.4841398E0,1.4981103E0,3.0258226E1,7.414425E0,2.2689445E1,2.241875E0,1.7369399E0,1.40379E1,7.6866546E0,1.482814E0,4.949819E0,5.96671E0,1.0854755E1,1.4957775E0,3.414701E1,3.9851654E0,1.976451E0,8.1715765E0,7.416927E0,2.28413E1,1.6992397E1,5.6970477E0,1.1061613E1,2.976287E0,2.9782896E0,1.9715295E0,2.7378109E0,3.2288992E0,9.613533E0,1.2412225E0,2.1010677E1,1.3136333E1],"tree_param":{"num_deleted":"0","num_feature":"17","num_nodes":"63","size_leaf_vector":"1"}},{"base_weights":[-2.3584342E-2,5.9152776E-1,-1.583493E-1,-4.0160745E-2,8.160746E-1,-9.0965563E-1,-3.3932585E-2,1.0103567E0,-3.7068706E-2,-1.1215197E0,3.2798044E-2,2.1491493E-1,-6.398649E-1,4.1916095E-2,6.8289226E-1,1.0732617E-1,-4.580704E-2,-1.2400883E0,3.184543E-1,-1.095763E0,1.5889388E-1,1.1050375E0,-9.488029E-1,-3.0676488E-2,6.4906794E-1,-4.4728994E-2,-3.9061701E-3,6.339488E-1,-2.352851E-1,-1.3064692E0,2.7632442E-1,5.573935E-1,-3.776479E-2,6.324033E-3,4.230961E-2,-3.671318E-2,-5.633805E-3,3.463038E-2,-2.8075725E-3,8.849611E-3,3.1332966E-2,-3.2214284E-2,6.3653016E-3,-4.424671E-2,-9.070038E-3,1.9004624E-2,-3.4957223E-3,3.331371E-2,-2.3614373E-3],"categories":[],"categories_nodes":[],"categories_segments":[],"categories_sizes":[],"default_left":[0,0,0,0,0,0,0,0,0,0,0,0,0,0,0,0,0,0,0,0,0,0,0,0,0,0,0,0,0,0,0,0,0,0,0,0,0,0,0,0,0,0,0,0,0,0,0,0,0],"id":8,"left_children":[1,3,5,-1,7,9,11,13,-1,15,-1,17,19,-1,21,23,-1,25,27,29,31,33,35,-1,37,-1,-1,39,41,43,45,47,-1,-1,-1,-1,-1,-1,-1,-1,-1,-1,-1,-1,-1,-1,-1,-1,-1],"loss_changes":[1.4767737E1,1.4972591E1,1.3615977E1,0E0,1.2930952E1,1.001145E1,1.9180326E1,2.5071316E0,0E0,9.736525E0,0E0,1.3994606E1,1.3654293E1,0E0,1.258838E1,4.1533365E0,0E0,1.5326471E0,1.5011366E1,7.2110004E0,8.794374E0,3.462347E0,6.0333323E-1,0E0,1.7835693E0,0E0,0E0,7.2700844E0,1.2086933E1,3.0571861E0,6.3219535E-1,4.264971E0,0E0,0E0,0E0,0E0,0E0,0E0,0E0,0E0,0E0,0E0,0E0,0E0,0E0,0E0,0E0,0E0,0E0],"parents":[2147483647,0,0,1,1,2,2,4,4,5,5,6,6,7,7,9,9,11,11,12,12,14,14,15,15,17,17,18,18,19,19,20,20,21,21,22,22,24,24,27,27,28,28,29,29,30,30,31,31],"right_children":[2,4,6,-1,8,10,12,14,-1,16,-1,18,20,-1,22,24,-1,26,28,30,32,34,36,-1,38,-1,-1,40,42,44,46,48,-1,-1,-1,-1,-1,-1,-1,-1,-1,-1,-1,-1,-1,-1,-1,-1,-1],"split_conditions":[-1.315E4,9.3367256E-5,8.132206E-5,-4.0160745E-2,3.236749E1,3.0068033E-3,1.7931027E4,8.710821E-4,-3.7068706E-2,6.093606E0,3.2798044E-2,8.254301E-5,2.45E3,4.1916095E-2,1.7729205E4,4.3889327E0,-4.580704E-2,1.3612473E1,8.265184E-4,5.689152E4,1.6577734E1,8.7764044E-4,1.8613911E-3,-3.0676488E-2,-1.9367496E-4,-4.4728994E-2,-3.9061701E-3,7.9549564E-4,2.4788871E4,2.504742E-3,3.4258515E-4,1.6270942E4,-3.776479E-2,6.324033E-3,4.230961E-2,-3.671318E-2,-5.633805E-3,3.463038E-2,-2.8075725E-3,8.849611E-3,3.1332966E-2,-3.2214284E-2,6.3653016E-3,-4.424671E-2,-9.070038E-3,1.9004624E-2,-3.4957223E-3,3.331371E-2,-2.3614373E-3],"split_indices":[14,4,2,0,10,1,8,1,0,10,0,4,14,0,6,10,0,10,3,13,10,3,1,0,2,0,0,1,13,2,2,13,0,0,0,0,0,0,0,0,0,0,0,0,0,0,0,0,0],"split_type":[0,0,0,0,0,0,0,0,0,0,0,0,0,0,0,0,0,0,0,0,0,0,0,0,0,0,0,0,0,0,0,0,0,0,0,0,0,0,0,0,0,0,0,0,0,0,0,0,0],"sum_hessian":[1.7601877E2,3.1024286E1,1.4499449E2,2.715962E0,2.8308325E1,1.9703146E1,1.2529134E2,2.6323242E1,1.9850827E0,1.821633E1,1.4868171E0,8.9273384E1,3.6017956E1,1.0569886E1,1.5753355E1,4.7010727E0,1.3515256E1,5.2015004E0,8.4071884E1,2.2693579E1,1.3324375E1,1.2771845E1,2.9815104E0,1.2359043E0,3.4651682E0,3.9624677E0,1.2390327E0,5.3465134E1,3.0606752E1,1.9713999E1,2.979581E0,1.0874544E1,2.4498305E0,3.6807323E0,9.091113E0,1.7434657E0,1.2380446E0,1.7322483E0,1.7329199E0,3.0225054E1,2.3240082E1,1.0162633E1,2.044412E1,1.6480883E1,3.2331169E0,1.2398275E0,1.7397535E0,5.418088E0,5.4564567E0],"tree_param":{"num_deleted":"0","num_feature":"17","num_nodes":"49","size_leaf_vector":"1"}},{"base_weights":[-5.5212427E-2,4.5072004E-1,-2.0863195E-1,5.6538385E-1,-8.5135716E-1,-4.131089E-1,4.7181997E-1,3.408427E-1,4.003915E-2,-4.9596922E-3,-3.3785816E-2,-2.4891567E-1,-4.7814365E-2,7.6228607E-1,-2.9894045E-1,6.2552345E-1,-9.074821E-1,-3.7928593E-1,8.860402E-1,2.2988838E-1,4.7304295E-2,-4.6465818E-2,7.9288733E-1,8.046671E-1,-4.12306E-1,-4.3015536E-2,1.9637566E-2,-5.796983E-1,4.96515E-1,-3.1299256E-2,1.2825146E0,6.346718E-1,-3.269971E-2,4.0727865E-2,-1.442887E-2,2.1109506E-4,3.180814E-2,-3.8952317E-2,3.1586863E-2,-1.1434051E-2,-3.425085E-2,2.4556888E-2,-3.6380805E-2,6.3048694E-3,4.302978E-2,1.9674042E-4,3.3884436E-2],"categories":[],"categories_nodes":[],"categories_segments":[],"categories_sizes":[],"default_left":[0,0,0,0,0,0,0,0,0,0,0,0,0,0,0,0,0,0,0,0,0,0,0,0,0,0,0,0,0,0,0,0,0,0,0,0,0,0,0,0,0,0,0,0,0,0,0],"id":9,"left_children":[1,3,5,7,9,11,13,15,-1,-1,-1,17,-1,19,21,23,25,27,29,31,-1,-1,33,35,37,-1,-1,39,41,-1,43,45,-1,-1,-1,-1,-1,-1,-1,-1,-1,-1,-1,-1,-1,-1,-1],"loss_changes":[1.3725921E1,6.6296988E0,1.9039959E1,6.186344E0,5.174818E-1,1.9896832E1,7.338976E0,1.1621412E1,0E0,0E0,0E0,1.41093025E1,0E0,9.763648E0,1.4072736E1,5.1509027E0,6.0233693E0,1.5065715E1,8.903711E0,8.861596E0,0E0,0E0,4.7425966E0,4.568288E0,7.1794114E0,0E0,0E0,7.262125E0,9.919428E0,0E0,1.1072454E0,3.826167E0,0E0,0E0,0E0,0E0,0E0,0E0,0E0,0E0,0E0,0E0,0E0,0E0,0E0,0E0,0E0],"parents":[2147483647,0,0,1,1,2,2,3,3,4,4,5,5,6,6,7,7,11,11,13,13,14,14,15,15,16,16,17,17,18,18,19,19,22,22,23,23,24,24,27,27,28,28,30,30,31,31],"right_children":[2,4,6,8,10,12,14,16,-1,-1,-1,18,-1,20,22,24,26,28,30,32,-1,-1,34,36,38,-1,-1,40,42,-1,44,46,-1,-1,-1,-1,-1,-1,-1,-1,-1,-1,-1,-1,-1,-1,-1],"split_conditions":[1.7128943E4,4.2372826E1,1.4678476E-3,9.125E3,7.424505E-4,8.8965177E-4,1.0752548E-4,5.166667E2,4.003915E-2,-4.9596922E-3,-3.3785816E-2,8.1093766E-4,-4.7814365E-2,1.959223E-3,1.923795E-4,2.5197939E1,1.7009762E4,9.826667E3,1.76239E4,-1.8E3,4.7304295E-2,-4.6465818E-2,5.258115E-4,7.2906015E-4,3.9178493E1,-4.3015536E-2,1.9637566E-2,2.4786917E-4,1.1044102E-3,-3.1299256E-2,5.1304477E-4,4.178866E-5,-3.269971E-2,4.0727865E-2,-1.442887E-2,2.1109506E-4,3.180814E-2,-3.8952317E-2,3.1586863E-2,-1.1434051E-2,-3.425085E-2,2.4556888E-2,-3.6380805E-2,6.3048694E-3,4.302978E-2,1.9674042E-4,3.3884436E-2],"split_indices":[11,7,5,12,2,5,0,12,0,0,0,5,0,2,0,7,9,12,9,12,0,0,4,5,7,0,0,4,3,0,2,0,0,0,0,0,0,0,0,0,0,0,0,0,0,0,0],"split_type":[0,0,0,0,0,0,0,0,0,0,0,0,0,0,0,0,0,0,0,0,0,0,0,0,0,0,0,0,0,0,0,0,0,0,0,0,0,0,0,0,0,0,0,0,0,0,0],"sum_hessian":[1.7462355E2,4.0180904E1,1.3444264E2,3.744886E1,2.732047E0,1.0367963E2,3.0763014E1,3.0104578E1,7.3442802E0,1.2395283E0,1.4925187E0,9.208478E1,1.159485E1,2.2350918E1,8.412095E0,2.4920387E1,5.184191E0,8.319423E1,8.890551E0,1.42916765E1,8.059241E0,3.726928E0,4.6851673E0,2.1443592E1,3.4767954E0,3.9389625E0,1.2452288E0,6.797694E1,1.5217291E1,1.2374293E0,7.653121E0,1.1334676E1,2.9570005E0,3.2005806E0,1.4845866E0,5.4534025E0,1.599019E1,2.2374785E0,1.2393169E0,5.1469902E1,1.6507036E1,1.3243117E1,1.9741732E0,1.244772E0,6.408349E0,5.4410415E0,5.893635E0],"tree_param":{"num_deleted":"0","num_feature":"17","num_nodes":"47","size_leaf_vector":"1"}},{"base_weights":[-3.45008E-2,-1.6821203E-1,7.75534E-1,2.5876807E-2,-9.6381414E-1,9.325354E-1,-3.2199718E-2,-1.2608674E-1,6.666015E-1,-1.1222047E0,3.242923E-2,1.0668812E0,-1.5687814E-2,6.311608E-1,-3.1941926E-1,8.1212276E-1,-1.9220382E-2,2.976412E-1,-1.3740046E0,-1.4485E-1,1.2392248E0,1.2226447E0,1.4786686E-1,-1.3482491E0,-1.4401147E-1,-4.127693E-2,9.329416E-1,-3.0784989E-2,3.2901164E-2,-5.726326E-1,-4.908526E-2,2.8471442E-2,-3.197732E-2,1.3467447E0,-1.5949716E-3,4.3506563E-2,4.108797E-4,3.5004828E-2,-2.214103E-2,-8.687268E-3,-4.896055E-2,-1.6250685E-3,-4.2460803E-2,-3.032689E-2,2.5458762E-2,4.1972782E-2,1.5291179E-2,-3.490847E-2,3.3732392E-2,1.2754695E-2,4.3454815E-2],"categories":[],"categories_nodes":[],"categories_segments":[],"categories_sizes":[],"default_left":[0,0,0,0,0,0,0,0,0,0,0,0,0,0,0,0,0,0,0,0,0,0,0,0,0,0,0,0,0,0,0,0,0,0,0,0,0,0,0,0,0,0,0,0,0,0,0,0,0,0,0],"id":10,"left_children":[1,3,5,7,9,11,-1,13,15,17,-1,19,-1,21,23,25,-1,27,29,31,33,35,37,39,41,43,45,-1,-1,47,-1,-1,-1,49,-1,-1,-1,-1,-1,-1,-1,-1,-1,-1,-1,-1,-1,-1,-1,-1,-1],"loss_changes":[1.9635782E1,2.402042E1,8.458958E0,1.2341856E1,1.1091419E1,5.2932186E0,0E0,1.5222231E1,5.141856E0,1.0704868E1,0E0,4.878208E0,0E0,5.8803406E0,1.4675483E1,2.3379126E0,0E0,6.5835247E0,4.23954E0,4.736485E0,2.8233395E0,2.5654316E0,1.2421392E1,3.0970402E0,8.091769E0,4.0706177E0,3.1494255E0,0E0,0E0,8.942642E0,0E0,0E0,0E0,1.1020164E0,0E0,0E0,0E0,0E0,0E0,0E0,0E0,0E0,0E0,0E0,0E0,0E0,0E0,0E0,0E0,0E0,0E0],"parents":[2147483647,0,0,1,1,2,2,3,3,4,4,5,5,7,7,8,8,9,9,11,11,13,13,14,14,15,15,17,17,18,18,19,19,20,20,21,21,22,22,23,23,24,24,25,25,26,26,29,29,33,33],"right_children":[2,4,6,8,10,12,-1,14,16,18,-1,20,-1,22,24,26,-1,28,30,32,34,36,38,40,42,44,46,-1,-1,48,-1,-1,-1,50,-1,-1,-1,-1,-1,-1,-1,-1,-1,-1,-1,-1,-1,-1,-1,-1,-1],"split_conditions":[1.0365E4,1.54E3,2.895E4,1.959223E-3,3.039444E-3,6.943163E-5,-3.2199718E-2,1.7058219E4,3.1028164E-4,5.722602E0,3.242923E-2,1.03827784E-4,-1.5687814E-2,1.597413E-4,1.7513752E4,3.8239203E-5,-1.9220382E-2,4.19E3,-3.3E3,1.616527E4,1.6991723E-3,1.4301414E-3,-1.475E4,1.7252268E4,1.0752548E-4,1.7896863E4,1.0353378E-4,-3.0784989E-2,3.2901164E-2,-4.45E3,-4.908526E-2,2.8471442E-2,-3.197732E-2,-1.9042932E-4,-1.5949716E-3,4.3506563E-2,4.108797E-4,3.5004828E-2,-2.214103E-2,-8.687268E-3,-4.896055E-2,-1.6250685E-3,-4.2460803E-2,-3.032689E-2,2.5458762E-2,4.1972782E-2,1.5291179E-2,-3.490847E-2,3.3732392E-2,1.2754695E-2,4.3454815E-2],"split_indices":[12,12,14,2,1,0,0,6,0,7,0,2,0,4,6,0,0,12,14,6,2,2,14,8,0,6,0,0,0,14,0,0,0,0,0,0,0,0,0,0,0,0,0,0,0,0,0,0,0,0,0],"split_type":[0,0,0,0,0,0,0,0,0,0,0,0,0,0,0,0,0,0,0,0,0,0,0,0,0,0,0,0,0,0,0,0,0,0,0,0,0,0,0,0,0,0,0,0,0,0,0,0,0,0,0],"sum_hessian":[1.7908672E2,1.5439354E2,2.4693172E1,1.2489308E2,2.9500462E1,2.3217226E1,1.4759467E0,1.0159949E2,2.3293594E1,2.779837E1,1.7020904E0,2.1499691E1,1.7175364E0,2.0203093E1,8.139639E1,2.1301199E1,1.9923954E0,4.159845E0,2.3638525E1,2.6969857E0,1.8802704E1,8.396788E0,1.1806304E1,1.0882172E1,7.051422E1,2.72334E0,1.857786E1,1.4588172E0,2.7010276E0,6.6119895E0,1.7026535E1,1.218933E0,1.4780527E0,1.731974E1,1.4829648E0,6.898614E0,1.4981743E0,5.3433228E0,6.462981E0,2.7273948E0,8.154777E0,6.683388E1,3.6803489E0,1.2382284E0,1.4851115E0,7.743487E0,1.08343725E1,5.1372952E0,1.4746945E0,2.2369695E0,1.508277E1],"tree_param":{"num_deleted":"0","num_feature":"17","num_nodes":"51","size_leaf_vector":"1"}},{"base_weights":[-1.4099004E-3,-1.2735763E-1,6.9847316E-1,-3.5859466E-1,4.402088E-1,8.3316416E-1,-1.8827863E-2,-1.6554566E-1,-9.6616966E-1,-3.5770684E-1,6.9350755E-1,-1.6045658E-2,9.7394156E-1,4.6924332E-1,-3.420831E-1,-1.4227406E0,-5.3318437E-2,2.5136444E-1,-4.14269E-2,1.3079358E0,-3.946187E-2,3.2237004E-2,-3.291046E-2,1.8168208E-1,1.1318827E0,1.0248119E0,-7.3319536E-1,-1.4109645E0,-1.3532314E-1,-6.433294E-1,-4.6808954E-2,-1.038328E0,1.0375053E0,8.0214506E-1,-5.5141175E-1,1.2429458E-2,1.377312E0,1.15849E0,-7.286891E-1,3.3763736E-2,-3.2732435E-2,1.2403284E0,5.8452915E-3,3.63424E-2,5.33217E-3,9.362107E-3,-3.3864573E-2,-4.057165E-3,-4.7238816E-2,1.9593404E-3,-3.5866555E-2,-3.4008127E-2,8.75475E-3,-1.9076199E-3,-3.924345E-2,3.809957E-2,5.4982854E-3,-4.494986E-3,3.4805994E-2,-5.176932E-3,-2.0096596E-2,4.366621E-2,1.3624145E-2,1.5444496E-2,4.0131897E-2,-4.7440793E-2,4.3510995E-3,4.830128E-3,3.9718267E-2],"categories":[],"categories_nodes":[],"categories_segments":[],"categories_sizes":[],"default_left":[0,0,0,0,0,0,0,0,0,0,0,0,0,0,0,0,0,0,0,0,0,0,0,0,0,0,0,0,0,0,0,0,0,0,0,0,0,0,0,0,0,0,0,0,0,0,0,0,0,0,0,0,0,0,0,0,0,0,0,0,0,0,0,0,0,0,0,0,0],"id":11,"left_children":[1,3,5,7,9,11,-1,13,15,17,19,21,23,25,27,29,31,33,-1,35,37,-1,-1,39,41,43,45,47,49,51,-1,53,55,57,59,-1,61,63,65,-1,-1,67,-1,-1,-1,-1,-1,-1,-1,-1,-1,-1,-1,-1,-1,-1,-1,-1,-1,-1,-1,-1,-1,-1,-1,-1,-1,-1,-1],"loss_changes":[1.5050146E1,1.9146984E1,5.1737585E0,1.196269E1,8.804025E0,2.8929424E0,0E0,9.085314E0,1.022464E1,7.1151285E0,1.4675947E1,6.37347E0,2.379757E0,1.2609461E1,1.3707762E1,7.5834274E-1,1.1047098E1,3.8264487E0,0E0,5.263214E-1,1.3871992E1,0E0,0E0,6.7842035E0,1.4895077E0,1.769681E0,2.913076E0,1.893156E0,1.1522818E1,2.2413788E0,0E0,1.330481E0,7.409587E-1,1.8599763E0,5.078745E-2,0E0,4.936943E-1,2.0705223E-2,8.148644E0,0E0,0E0,1.1479931E0,0E0,0E0,0E0,0E0,0E0,0E0,0E0,0E0,0E0,0E0,0E0,0E0,0E0,0E0,0E0,0E0,0E0,0E0,0E0,0E0,0E0,0E0,0E0,0E0,0E0,0E0,0E0],"parents":[2147483647,0,0,1,1,2,2,3,3,4,4,5,5,7,7,8,8,9,9,10,10,11,11,12,12,13,13,14,14,15,15,16,16,17,17,19,19,20,20,23,23,24,24,25,25,26,26,27,27,28,28,29,29,31,31,32,32,33,33,34,34,36,36,37,37,38,38,41,41],"right_children":[2,4,6,8,10,12,-1,14,16,18,20,22,24,26,28,30,32,34,-1,36,38,-1,-1,40,42,44,46,48,50,52,-1,54,56,58,60,-1,62,64,66,-1,-1,68,-1,-1,-1,-1,-1,-1,-1,-1,-1,-1,-1,-1,-1,-1,-1,-1,-1,-1,-1,-1,-1,-1,-1,-1,-1,-1,-1],"split_conditions":[1.0365E4,1.340698E-3,1.1675746E5,9.733333E2,4.566414E-5,1.03827784E-4,-1.8827863E-2,1.7207436E4,7.675497E-4,-1.2632736E-5,1.0353378E-4,1.616527E4,5.629273E-4,7.597352E-4,1.761078E4,1.7098342E4,7.3416665E3,2.3731494E4,-4.14269E-2,5.0266016E3,3.2567457E-4,3.2237004E-2,-3.291046E-2,1.4717717E-4,1.767591E4,7.830638E-5,1.0021425E-4,4.6656898E-4,5.4114153E-5,1.6290033E4,-4.6808954E-2,3.8684916E-4,8.795E3,1.7537146E4,-4.1251693E-5,1.2429458E-2,1.15E2,2.46438E-4,1.9953259E-4,3.3763736E-2,-3.2732435E-2,2.392256E-4,5.8452915E-3,3.63424E-2,5.33217E-3,9.362107E-3,-3.3864573E-2,-4.057165E-3,-4.7238816E-2,1.9593404E-3,-3.5866555E-2,-3.4008127E-2,8.75475E-3,-1.9076199E-3,-3.924345E-2,3.809957E-2,5.4982854E-3,-4.494986E-3,3.4805994E-2,-5.176932E-3,-2.0096596E-2,4.366621E-2,1.3624145E-2,1.5444496E-2,4.0131897E-2,-4.7440793E-2,4.3510995E-3,4.830128E-3,3.9718267E-2],"split_indices":[12,2,13,12,0,2,0,9,2,0,0,6,1,2,9,6,12,13,0,13,3,0,0,2,6,0,4,3,0,6,0,1,12,6,0,0,12,3,0,0,0,2,0,0,0,0,0,0,0,0,0,0,0,0,0,0,0,0,0,0,0,0,0,0,0,0,0,0,0],"split_type":[0,0,0,0,0,0,0,0,0,0,0,0,0,0,0,0,0,0,0,0,0,0,0,0,0,0,0,0,0,0,0,0,0,0,0,0,0,0,0,0,0,0,0,0,0,0,0,0,0,0,0,0,0,0,0,0,0,0,0,0,0,0,0,0,0,0,0,0,0],"sum_hessian":[1.6872678E2,1.4368747E2,2.5039305E1,1.0235454E2,4.1332935E1,2.3067957E1,1.9713478E0,7.864014E1,2.3714401E1,9.8601885E0,3.1472748E1,3.4062855E0,1.9661673E1,1.6750622E1,6.188951E1,1.5435585E1,8.278817E0,6.6537576E0,3.2064307E0,1.6694101E1,1.4778646E1,1.6985284E0,1.7077571E0,3.6255608E0,1.6036112E1,1.1558099E1,5.1925216E0,9.087248E0,5.2802265E1,3.1671472E0,1.2268438E1,4.375701E0,3.903116E0,3.9467196E0,2.707038E0,1.7049515E0,1.498915E1,5.1487336E0,9.629912E0,2.1482978E0,1.477263E0,1.4082629E1,1.9534817E0,9.11913E0,2.4389694E0,1.4836936E0,3.7088282E0,1.2409068E0,7.8463407E0,4.5189198E1,7.613068E0,1.938589E0,1.2285581E0,1.2164303E0,3.1592705E0,2.685537E0,1.2175788E0,1.2376515E0,2.7090683E0,1.230098E0,1.4769399E0,1.3286592E1,1.7025582E0,1.9648668E0,3.1838667E0,4.463788E0,5.1661243E0,1.2228689E0,1.285976E1],"tree_param":{"num_deleted":"0","num_feature":"17","num_nodes":"69","size_leaf_vector":"1"}},{"base_weights":[2.3877526E-2,-2.3499022E-1,2.8576025E-1,5.6048E-1,-5.363973E-1,4.991516E-1,-4.6570355E-1,9.361946E-1,-2.3714769E-1,2.8844433E-2,-6.3929164E-1,-7.631808E-1,7.1414405E-1,-1.3271688E0,4.0283525E-1,-2.9556429E-2,1.143431E0,-4.1240435E-2,7.319987E-1,-4.6151876E-2,-4.777377E-1,2.168552E-1,-1.1731147E0,8.0666125E-1,-6.328553E-1,1.1404744E-2,-4.958624E-2,7.597902E-1,-3.2999128E-2,1.3155525E0,-5.3295717E-3,1.0192298E0,-4.2190924E-3,-1.5547948E-2,-9.654044E-1,1.7026503E-2,-4.419341E-3,-4.5306027E-2,9.511057E-3,5.8338225E-1,1.2461411E0,-3.7165843E-2,1.6191324E-2,3.6750935E-2,1.0247323E-1,1.1102485E-2,4.1835297E-2,3.860055E-2,9.234501E-3,2.0305686E-2,-1.5701754E-2,-4.273863E-2,6.952036E-3,2.4326505E-2,-2.1732036E-2,4.3003224E-2,1.1603157E-2,-2.2660611E-2,2.7811855E-2],"categories":[],"categories_nodes":[],"categories_segments":[],"categories_sizes":[],"default_left":[0,0,0,0,0,0,0,0,0,0,0,0,0,0,0,0,0,0,0,0,0,0,0,0,0,0,0,0,0,0,0,0,0,0,0,0,0,0,0,0,0,0,0,0,0,0,0,0,0,0,0,0,0,0,0,0,0,0,0],"id":12,"left_children":[1,3,5,7,9,11,13,15,17,-1,19,21,23,25,27,-1,29,-1,31,-1,33,35,37,39,41,-1,-1,43,-1,45,-1,47,-1,49,51,-1,-1,-1,-1,53,55,-1,-1,-1,57,-1,-1,-1,-1,-1,-1,-1,-1,-1,-1,-1,-1,-1,-1],"loss_changes":[1.2121903E1,2.1872368E1,1.447928E1,7.777596E0,1.0749802E1,1.9455175E1,1.5623655E1,8.031501E0,1.0786017E1,0E0,8.290201E0,4.522417E0,7.994564E0,6.387972E0,6.6341996E0,0E0,3.898201E0,0E0,1.507513E0,0E0,1.2183385E1,5.915301E-1,4.3196707E0,4.8303986E0,3.809449E0,0E0,0E0,2.7264676E0,0E0,5.5718803E-1,0E0,4.061246E-1,0E0,1.0482093E1,1.4798315E1,0E0,0E0,0E0,0E0,1.2320234E1,2.3749886E0,0E0,0E0,0E0,4.2062135E0,0E0,0E0,0E0,0E0,0E0,0E0,0E0,0E0,0E0,0E0,0E0,0E0,0E0,0E0],"parents":[2147483647,0,0,1,1,2,2,3,3,4,4,5,5,6,6,7,7,8,8,10,10,11,11,12,12,13,13,14,14,16,16,18,18,20,20,21,21,22,22,23,23,24,24,27,27,29,29,31,31,33,33,34,34,39,39,40,40,44,44],"right_children":[2,4,6,8,10,12,14,16,18,-1,20,22,24,26,28,-1,30,-1,32,-1,34,36,38,40,42,-1,-1,44,-1,46,-1,48,-1,50,52,-1,-1,-1,-1,54,56,-1,-1,-1,58,-1,-1,-1,-1,-1,-1,-1,-1,-1,-1,-1,-1,-1,-1],"split_conditions":[7.675497E-4,1.7277666E4,1.0752548E-4,1.4930082E1,4.227233E-5,5.020096E3,1.9953259E-4,4.6036352E-4,7.929543E-4,2.8844433E-2,1.7552145E4,1.7006992E4,2.895E4,5.516079E-4,1.7624383E4,-2.9556429E-2,7.4986025E-4,-4.1240435E-2,2.3E3,-4.6151876E-2,1.800331E4,1.9786139E1,6.342551E-4,1.3409886E-3,4.566414E-5,1.1404744E-2,-4.958624E-2,5.3545565E-4,-3.2999128E-2,5.1799655E-4,-5.3295717E-3,1.1913675E-3,-4.2190924E-3,1.2063308E4,1.1047991E-3,1.7026503E-2,-4.419341E-3,-4.5306027E-2,9.511057E-3,1.0012023E-3,1.5554324E-3,-3.7165843E-2,1.6191324E-2,3.6750935E-2,8.9623936E-4,1.1102485E-2,4.1835297E-2,3.860055E-2,9.234501E-3,2.0305686E-2,-1.5701754E-2,-4.273863E-2,6.952036E-3,2.4326505E-2,-2.1732036E-2,4.3003224E-2,1.1603157E-2,-2.2660611E-2,2.7811855E-2],"split_indices":[2,9,0,10,4,13,0,1,4,0,6,6,14,1,6,0,4,0,14,0,6,7,4,5,0,0,0,4,0,5,0,4,0,13,1,0,0,0,0,5,4,0,0,0,4,0,0,0,0,0,0,0,0,0,0,0,0,0,0],"split_type":[0,0,0,0,0,0,0,0,0,0,0,0,0,0,0,0,0,0,0,0,0,0,0,0,0,0,0,0,0,0,0,0,0,0,0,0,0,0,0,0,0,0,0,0,0,0,0,0,0,0,0,0,0,0,0,0,0,0,0],"sum_hessian":[1.768171E2,8.8972046E1,8.7845055E1,2.4212124E1,6.4759926E1,6.867838E1,1.916667E1,1.6341091E1,7.8710337E0,3.626278E0,6.1133648E1,9.623575E0,5.9054806E1,9.357415E0,9.809255E0,1.2254221E0,1.5115669E1,3.4284508E0,4.4425826E0,8.013459E0,5.312019E1,2.977121E0,6.6464543E0,5.563474E1,3.420069E0,1.4723383E0,7.8850765E0,8.326029E0,1.4832257E0,1.3376991E1,1.7386776E0,3.216025E0,1.2265576E0,2.7802265E1,2.5317923E1,1.2321051E0,1.745016E0,5.4093513E0,1.2371029E0,3.843511E1,1.7199627E1,2.2174876E0,1.2025814E0,4.3695965E0,3.9564323E0,1.4693602E0,1.1907631E1,1.7496231E0,1.466402E0,1.1622762E1,1.6179504E1,1.816131E1,7.156613E0,3.3063377E1,5.3717303E0,1.3573307E1,3.6263208E0,1.9802859E0,1.9761463E0],"tree_param":{"num_deleted":"0","num_feature":"17","num_nodes":"59","size_leaf_vector":"1"}},{"base_weights":[3.008623E-2,-6.3022025E-2,8.166698E-1,1.2924755E-1,-6.759979E-1,-2.7993452E-2,9.954353E-1,-5.553809E-2,5.5615383E-1,-1.2631353E0,5.45926E-3,-1.1270862E-2,1.1508669E0,1.0613941E-1,-1.0116856E0,-1.7414096E-1,7.5142044E-1,-1.3233647E0,-1.1795805E-2,2.616125E-1,-3.5671547E-2,1.2234567E0,4.740672E-3,9.7122407E-1,-4.3555584E-2,-4.5355137E-2,-3.5303319E-1,5.0482106E-1,-3.8572557E-2,4.0299635E-2,1.4436702E-1,-5.216199E-1,-4.4212192E-2,4.7200218E-1,-3.188742E-2,1.7794598E-2,4.0310867E-2,1.2619864E-2,3.9545137E-2,-2.7236287E-2,5.186789E-3,2.2900991E-2,-3.9218288E-2,3.0680219E-2,-1.4369449E-2,-2.9605808E-2,2.4871456E-2,-3.5519287E-2,1.9634666E-2,2.0336587E-2,-2.8836474E-2],"categories":[],"categories_nodes":[],"categories_segments":[],"categories_sizes":[],"default_left":[0,0,0,0,0,0,0,0,0,0,0,0,0,0,0,0,0,0,0,0,0,0,0,0,0,0,0,0,0,0,0,0,0,0,0,0,0,0,0,0,0,0,0,0,0,0,0,0,0,0,0],"id":13,"left_children":[1,3,5,7,9,-1,11,13,15,17,19,-1,21,23,25,27,29,31,-1,33,-1,35,-1,37,39,-1,41,43,-1,-1,45,47,-1,49,-1,-1,-1,-1,-1,-1,-1,-1,-1,-1,-1,-1,-1,-1,-1,-1,-1],"loss_changes":[1.2655158E1,1.8332428E1,6.6488485E0,9.393349E0,1.4860556E1,0E0,4.0713787E0,1.3052457E1,5.256507E0,5.2477646E-1,5.873023E0,0E0,9.29718E-1,9.435214E0,3.4874735E0,6.9850826E0,1.0064089E1,1.4293766E0,0E0,4.9011626E0,0E0,2.9224968E-1,0E0,1.4974985E0,1.1903817E1,0E0,8.000449E0,3.5108447E0,0E0,0E0,1.2602171E1,4.2238436E0,0E0,4.875929E0,0E0,0E0,0E0,0E0,0E0,0E0,0E0,0E0,0E0,0E0,0E0,0E0,0E0,0E0,0E0,0E0,0E0],"parents":[2147483647,0,0,1,1,2,2,3,3,4,4,6,6,7,7,8,8,9,9,10,10,12,12,13,13,14,14,15,15,16,16,17,17,19,19,21,21,23,23,24,24,26,26,27,27,30,30,31,31,33,33],"right_children":[2,4,6,8,10,-1,12,14,16,18,20,-1,22,24,26,28,30,32,-1,34,-1,36,-1,38,40,-1,42,44,-1,-1,46,48,-1,50,-1,-1,-1,-1,-1,-1,-1,-1,-1,-1,-1,-1,-1,-1,-1,-1,-1],"split_conditions":[1.556E4,1.54E3,3.9882176E-5,1.340698E-3,7.0133335E3,-2.7993452E-2,-1.3521203E-4,5.823605E-5,4.178866E-5,2.1668298E-3,1.8026164E4,-1.1270862E-2,3.8935363E-5,1.6946195E4,1.2499919E-3,-1.8505743E-5,1.0353378E-4,1.7098342E4,-1.1795805E-2,6.943163E-5,-3.5671547E-2,6.096105E-4,4.740672E-3,7.9549564E-4,1.755606E4,-4.5355137E-2,9.0920314E-4,1.2764961E-3,-3.8572557E-2,4.0299635E-2,1.923795E-4,1.6807557E4,-4.4212192E-2,6.656875E4,-3.188742E-2,1.7794598E-2,4.0310867E-2,1.2619864E-2,3.9545137E-2,-2.7236287E-2,5.186789E-3,2.2900991E-2,-3.9218288E-2,3.0680219E-2,-1.4369449E-2,-2.9605808E-2,2.4871456E-2,-3.5519287E-2,1.9634666E-2,2.0336587E-2,-2.8836474E-2],"split_indices":[12,12,2,2,12,0,0,0,0,2,9,0,0,6,1,0,0,6,0,0,0,3,0,1,8,0,4,1,0,0,0,6,0,13,0,0,0,0,0,0,0,0,0,0,0,0,0,0,0,0,0],"split_type":[0,0,0,0,0,0,0,0,0,0,0,0,0,0,0,0,0,0,0,0,0,0,0,0,0,0,0,0,0,0,0,0,0,0,0,0,0,0,0,0,0,0,0,0,0,0,0,0,0,0,0],"sum_hessian":[1.7109358E2,1.5380722E2,1.7286352E1,1.1768318E2,3.612404E1,1.2111968E0,1.6075155E1,8.273946E1,3.494372E1,1.8946407E1,1.7177633E1,1.4924531E0,1.4582703E1,7.153278E1,1.1206674E1,7.3949366E0,2.7548786E1,1.7232147E1,1.7142597E0,1.478755E1,2.3900833E0,1.3372709E1,1.2099932E0,9.7425785E0,6.1790207E1,5.6334925E0,5.5731816E0,4.929753E0,2.4651835E0,1.3334386E1,1.42144E1,3.4273818E0,1.3804766E1,1.3316053E1,1.4714963E0,3.0928473E0,1.0279861E1,4.6214232E0,5.1211553E0,1.1735136E1,5.0055073E1,2.660549E0,2.9126325E0,3.203819E0,1.725934E0,5.1930795E0,9.021321E0,2.1882963E0,1.2390854E0,1.2104273E1,1.2117801E0],"tree_param":{"num_deleted":"0","num_feature":"17","num_nodes":"51","size_leaf_vector":"1"}},{"base_weights":[3.561531E-2,7.086867E-1,-9.7779185E-2,-3.431674E-2,8.8806576E-1,-2.3831998E-1,7.238672E-1,-2.8136887E-2,1.0131938E0,-1.4145106E-2,-9.3499845E-1,9.881119E-1,-6.8736094E-1,1.1710005E0,1.1395237E-1,1.7799012E-1,-9.4906116E-1,-1.3070766E0,-5.3971384E-2,1.1272781E0,-1.038654E-2,-3.394546E-2,5.0240774E-3,3.2294262E-3,1.257651E0,2.2383409E-2,-2.927735E-2,4.2876768E-1,-3.4157854E-1,-1.1233296E0,1.9000715E-2,-4.5429565E-2,-9.1746527E-1,-3.7044678E-2,6.0016453E-1,4.0353492E-2,5.7550097E-1,4.523192E-2,2.5240775E-2,2.0234456E-2,-2.547701E-2,-2.6160048E-2,2.1077145E-2,-4.5434747E-2,-1.8257352E-2,-6.921304E-4,-4.15075E-2,2.73898E-2,-1.0699727E-2,3.442009E-2,-3.099686E-2],"categories":[],"categories_nodes":[],"categories_segments":[],"categories_sizes":[],"default_left":[0,0,0,0,0,0,0,0,0,0,0,0,0,0,0,0,0,0,0,0,0,0,0,0,0,0,0,0,0,0,0,0,0,0,0,0,0,0,0,0,0,0,0,0,0,0,0,0,0,0,0],"id":14,"left_children":[1,3,5,-1,7,9,11,-1,13,15,17,19,21,23,25,27,29,31,33,35,-1,-1,-1,-1,37,-1,-1,39,41,43,-1,-1,45,-1,47,-1,49,-1,-1,-1,-1,-1,-1,-1,-1,-1,-1,-1,-1,-1,-1],"loss_changes":[1.5367491E1,1.0421862E1,1.6695139E1,0E0,6.97501E0,1.918682E1,8.565155E0,0E0,3.4367065E0,1.7058544E1,9.735186E0,3.774023E0,1.6797011E0,1.8267174E0,4.07909E0,1.0418684E1,5.1752357E0,3.0530548E-1,8.407469E0,1.2375393E0,0E0,0E0,0E0,0E0,7.7158546E-1,0E0,0E0,1.7409534E1,1.5135061E1,2.0868187E0,0E0,0E0,4.063916E0,0E0,2.4387803E0,0E0,7.151114E0,0E0,0E0,0E0,0E0,0E0,0E0,0E0,0E0,0E0,0E0,0E0,0E0,0E0,0E0],"parents":[2147483647,0,0,1,1,2,2,4,4,5,5,6,6,8,8,9,9,10,10,11,11,12,12,13,13,14,14,15,15,16,16,17,17,18,18,19,19,24,24,27,27,28,28,29,29,32,32,34,34,36,36],"right_children":[2,4,6,-1,8,10,12,-1,14,16,18,20,22,24,26,28,30,32,34,36,-1,-1,-1,-1,38,-1,-1,40,42,44,-1,-1,46,-1,48,-1,50,-1,-1,-1,-1,-1,-1,-1,-1,-1,-1,-1,-1,-1,-1],"split_conditions":[-1.315E4,8.254301E-5,1.146E4,-3.431674E-2,-8.5744316E-5,9.733333E2,1.895E4,-2.8136887E-2,7.628856E-5,2.3930351E1,7.86E3,4.142154E1,1.427545E-3,-1.086219E-4,-8.145E4,1.797614E4,2.1666666E1,1.6524551E-4,4.8419854E-4,6.478753E-4,-1.038654E-2,-3.394546E-2,5.0240774E-3,3.2294262E-3,9.3983626E-4,2.2383409E-2,-2.927735E-2,8.164734E-4,2.7E3,-6.95E2,1.9000715E-2,-4.5429565E-2,2.3117376E-4,-3.7044678E-2,5.5617707E-5,4.0353492E-2,1.7056807E4,4.523192E-2,2.5240775E-2,2.0234456E-2,-2.547701E-2,-2.6160048E-2,2.1077145E-2,-4.5434747E-2,-1.8257352E-2,-6.921304E-4,-4.15075E-2,2.73898E-2,-1.0699727E-2,3.442009E-2,-3.099686E-2],"split_indices":[14,4,12,0,2,12,14,0,0,7,12,7,4,0,14,8,12,4,2,4,0,0,0,0,1,0,0,3,14,12,0,0,4,0,0,0,6,0,0,0,0,0,0,0,0,0,0,0,0,0,0],"split_type":[0,0,0,0,0,0,0,0,0,0,0,0,0,0,0,0,0,0,0,0,0,0,0,0,0,0,0,0,0,0,0,0,0,0,0,0,0,0,0,0,0,0,0,0,0,0,0,0,0,0,0],"sum_hessian":[1.6938884E2,2.730462E1,1.4208421E2,1.9357512E0,2.536887E1,1.21937096E2,2.0147121E1,1.210396E0,2.4158474E1,9.302434E1,2.8912758E1,1.7222183E1,2.9249382E0,2.0294765E1,3.863709E0,7.783752E1,1.5186821E1,1.9987844E1,8.924912E0,1.5736131E1,1.4860528E0,1.7118295E0,1.2131087E0,1.698124E0,1.8596642E1,2.6449485E0,1.2187606E0,5.2616257E1,2.522126E1,1.3941582E1,1.2452391E0,1.1163179E1,8.824665E0,2.8650987E0,6.059814E0,1.025122E1,5.484911E0,9.979704E0,8.616938E0,4.452745E1,8.088806E0,1.6834358E1,8.386902E0,6.818209E0,7.1233726E0,3.3829358E0,5.4417295E0,4.6012588E0,1.4585551E0,4.2581315E0,1.2267797E0],"tree_param":{"num_deleted":"0","num_feature":"17","num_nodes":"51","size_leaf_vector":"1"}},{"base_weights":[-4.3901885E-3,-3.8850304E-1,1.6292888E-1,-1.4386047E0,-4.414358E-2,-8.172043E-1,2.4362594E-1,-4.6007123E-2,-1.7936751E-2,4.3947682E-1,-4.6609303E-1,-4.3407977E-2,4.3826225E-1,4.171446E-1,-2.317778E-1,-7.5824994E-1,6.7502815E-1,3.0056411E-2,-8.0145824E-1,2.7966375E-2,-3.7760092E-3,7.332246E-1,7.7182174E-2,-1.0394307E0,2.1671696E-1,-3.111023E-2,-3.217223E-3,8.5331166E-1,-2.7101694E-2,2.5051374E-2,-1.0631946E0,3.6684194E-1,1.1224811E0,4.0284008E-1,-4.4541787E-2,-4.7458224E-2,2.5623508E-2,-9.3326706E-1,4.9908584E-1,3.1352896E-2,5.431556E-4,1.810957E-3,-3.850976E-2,2.4268616E-2,-4.405318E-2,3.776186E-2,-3.6458448E-3,2.6306347E-3,3.598271E-2,-3.2452333E-3,-3.6473285E-2,2.302573E-2,-1.5919812E-2],"categories":[],"categories_nodes":[],"categories_segments":[],"categories_sizes":[],"default_left":[0,0,0,0,0,0,0,0,0,0,0,0,0,0,0,0,0,0,0,0,0,0,0,0,0,0,0,0,0,0,0,0,0,0,0,0,0,0,0,0,0,0,0,0,0,0,0,0,0,0,0,0,0],"id":15,"left_children":[1,3,5,7,9,11,13,-1,-1,15,17,-1,19,21,23,25,27,-1,29,-1,-1,31,33,35,37,-1,-1,39,-1,-1,41,43,45,47,-1,-1,-1,49,51,-1,-1,-1,-1,-1,-1,-1,-1,-1,-1,-1,-1,-1,-1],"loss_changes":[1.1184234E1,1.9029358E1,9.788196E0,1.2155914E-1,8.5290365E0,8.107008E0,9.400468E0,0E0,0E0,6.019449E0,1.1766859E1,0E0,1.2110152E0,8.860473E0,1.1382229E1,5.5648136E-1,5.51046E0,0E0,8.890952E0,0E0,0E0,5.704319E0,2.15031E1,1.28254385E1,7.165155E0,0E0,0E0,2.4874907E0,0E0,0E0,4.17651E0,2.0318226E1,3.595007E0,8.629934E0,0E0,0E0,0E0,8.9774585E-1,5.166106E0,0E0,0E0,0E0,0E0,0E0,0E0,0E0,0E0,0E0,0E0,0E0,0E0,0E0,0E0],"parents":[2147483647,0,0,1,1,2,2,3,3,4,4,5,5,6,6,9,9,10,10,12,12,13,13,14,14,15,15,16,16,18,18,21,21,22,22,23,23,24,24,27,27,30,30,31,31,32,32,33,33,37,37,38,38],"right_children":[2,4,6,8,10,12,14,-1,-1,16,18,-1,20,22,24,26,28,-1,30,-1,-1,32,34,36,38,-1,-1,40,-1,-1,42,44,46,48,-1,-1,-1,50,52,-1,-1,-1,-1,-1,-1,-1,-1,-1,-1,-1,-1,-1,-1],"split_conditions":[4.2447823E-4,-3.5477486E-5,8.254301E-5,1.1336667E4,-2.0833333E2,1.1650496E-3,1.7840236E4,-4.6007123E-2,-1.7936751E-2,4.9831445E-4,5.644834E-5,-4.3407977E-2,3.354858E-4,6.9817866E-4,1.8055336E4,1.0700377E-4,1.3747877E-3,3.0056411E-2,1.616527E4,2.7966375E-2,-3.7760092E-3,1.7542914E4,7.628856E-5,6.905E3,7.499156E-4,-3.111023E-2,-3.217223E-3,1.0942142E-3,-2.7101694E-2,2.5051374E-2,3.212025E-4,1.7395805E4,5.0950688E4,1.3821667E4,-4.4541787E-2,-4.7458224E-2,2.5623508E-2,4.8419854E-4,2.1666666E1,3.1352896E-2,5.431556E-4,1.810957E-3,-3.850976E-2,2.4268616E-2,-4.405318E-2,3.776186E-2,-3.6458448E-3,2.6306347E-3,3.598271E-2,-3.2452333E-3,-3.6473285E-2,2.302573E-2,-1.5919812E-2],"split_indices":[2,0,4,12,12,2,11,0,0,3,4,0,3,3,11,4,3,0,6,0,0,9,0,12,2,0,0,5,0,0,5,9,13,12,0,0,0,2,12,0,0,0,0,0,0,0,0,0,0,0,0,0,0],"split_type":[0,0,0,0,0,0,0,0,0,0,0,0,0,0,0,0,0,0,0,0,0,0,0,0,0,0,0,0,0,0,0,0,0,0,0,0,0,0,0,0,0,0,0,0,0,0,0,0,0,0,0,0,0],"sum_hessian":[1.7203622E2,5.1799244E1,1.20236984E2,1.2007014E1,3.979223E1,8.452121E0,1.1178487E2,1.0047885E1,1.9591299E0,1.85218E1,2.1270432E1,5.5272217E0,2.9248993E0,8.1983925E1,2.9800943E1,2.6792676E0,1.5842531E1,3.5860415E0,1.768439E1,1.2115705E0,1.7133287E0,4.1884777E1,4.0099144E1,1.0169689E1,1.9631254E1,1.4608277E0,1.21844E0,1.4647475E1,1.1950554E0,2.1363678E0,1.5548021E1,2.2576944E1,1.9307835E1,3.3794975E1,6.3041677E0,8.032813E0,2.1368759E0,3.4156084E0,1.6215645E1,1.17077675E1,2.9397078E0,2.6695051E0,1.2878516E1,1.8644724E1,3.9322193E0,1.7391262E1,1.9165728E0,2.5010254E1,8.784723E0,1.2239275E0,2.191681E0,1.3064567E1,3.151079E0],"tree_param":{"num_deleted":"0","num_feature":"17","num_nodes":"53","size_leaf_vector":"1"}},{"base_weights":[5.8058187E-2,-2.6061502E-1,3.2182652E-1,-4.002716E-1,1.0702244E0,5.2069366E-1,-1.7507648E-1,-2.846928E-1,-4.2456787E-2,3.9887924E-2,-4.435648E-3,9.550204E-1,2.0393473E-1,2.1907488E-1,-4.363609E-2,-5.9618536E-2,-7.1220773E-1,1.0848082E0,-3.0409604E-2,4.435473E-1,-4.2318266E-2,6.4819807E-1,-4.2452955E-1,-1.0998356E0,1.5380906E-1,-1.1143981E0,2.780793E-2,1.1928957E0,5.775494E-1,-2.1597165E-1,7.9100364E-1,3.9704077E-2,7.215552E-2,-1.0549643E0,3.570728E-1,-4.158741E-2,-2.5863457E-3,-1.1287916E-3,3.132361E-2,-4.4855136E-2,8.215342E-3,1.4492972E-2,-2.5579052E-2,1.7301394E-2,3.807292E-2,2.8133746E-2,-1.6675556E-2,-2.526316E-2,2.7168527E-2,3.582605E-2,-3.65391E-3,-3.928366E-2,2.6486993E-2,-3.943935E-2,-2.8912863E-3,3.4178495E-2,-1.638194E-2],"categories":[],"categories_nodes":[],"categories_segments":[],"categories_sizes":[],"default_left":[0,0,0,0,0,0,0,0,0,0,0,0,0,0,0,0,0,0,0,0,0,0,0,0,0,0,0,0,0,0,0,0,0,0,0,0,0,0,0,0,0,0,0,0,0,0,0,0,0,0,0,0,0,0,0,0,0],"id":16,"left_children":[1,3,5,7,9,11,13,15,-1,-1,-1,17,19,21,-1,23,25,27,-1,29,-1,31,33,35,37,39,41,43,45,47,49,-1,51,53,55,-1,-1,-1,-1,-1,-1,-1,-1,-1,-1,-1,-1,-1,-1,-1,-1,-1,-1,-1,-1,-1,-1],"loss_changes":[1.4226692E1,1.4693094E1,9.232325E0,7.8306904E0,2.5854797E0,8.9289E0,1.4029854E1,6.1412377E0,0E0,0E0,0E0,8.176373E0,1.5953353E1,6.2558327E0,0E0,9.758132E0,6.600544E0,7.6216125E-1,0E0,8.251011E0,0E0,5.11215E0,4.942854E0,2.050827E0,6.2969823E0,7.9817886E0,3.9186003E0,2.4845695E-1,3.210949E0,9.858556E0,8.723942E0,0E0,1.0433485E1,1.2130876E0,4.072702E0,0E0,0E0,0E0,0E0,0E0,0E0,0E0,0E0,0E0,0E0,0E0,0E0,0E0,0E0,0E0,0E0,0E0,0E0,0E0,0E0,0E0,0E0],"parents":[2147483647,0,0,1,1,2,2,3,3,4,4,5,5,6,6,7,7,11,11,12,12,13,13,15,15,16,16,17,17,19,19,21,21,22,22,23,23,24,24,25,25,26,26,27,27,28,28,29,29,30,30,32,32,33,33,34,34],"right_children":[2,4,6,8,10,12,14,16,-1,-1,-1,18,20,22,-1,24,26,28,-1,30,-1,32,34,36,38,40,42,44,46,48,50,-1,52,54,56,-1,-1,-1,-1,-1,-1,-1,-1,-1,-1,-1,-1,-1,-1,-1,-1,-1,-1,-1,-1,-1,-1],"split_conditions":[7.153195E-4,2.0505E4,2.526208E1,7.830638E-5,8.342654E-4,1.7331611E4,-1.2632736E-5,1.8053578E4,-4.2456787E-2,3.9887924E-2,-4.435648E-3,5.0981683E-3,2.1666666E1,9.609993E-4,-4.363609E-2,-7.618775E-5,1.3224489E-5,1.4930082E1,-3.0409604E-2,4.566414E-5,-4.2318266E-2,2.4668861E1,4.124127E1,3.9178493E1,2.0016336E1,1.6121515E1,2.1666666E1,4.4926805E0,1.7006992E4,2.0695017E1,1.0752548E-4,3.9704077E-2,1.7719242E4,-4.139095E-5,4.2372826E1,-4.158741E-2,-2.5863457E-3,-1.1287916E-3,3.132361E-2,-4.4855136E-2,8.215342E-3,1.4492972E-2,-2.5579052E-2,1.7301394E-2,3.807292E-2,2.8133746E-2,-1.6675556E-2,-2.526316E-2,2.7168527E-2,3.582605E-2,-3.65391E-3,-3.928366E-2,2.6486993E-2,-3.943935E-2,-2.8912863E-3,3.4178495E-2,-1.638194E-2],"split_indices":[5,12,7,0,1,6,0,6,0,0,0,5,12,5,0,0,0,10,0,0,0,10,7,7,7,10,12,10,6,7,0,0,6,0,7,0,0,0,0,0,0,0,0,0,0,0,0,0,0,0,0,0,0,0,0,0,0],"split_type":[0,0,0,0,0,0,0,0,0,0,0,0,0,0,0,0,0,0,0,0,0,0,0,0,0,0,0,0,0,0,0,0,0,0,0,0,0,0,0,0,0,0,0,0,0,0,0,0,0,0,0,0,0,0,0,0,0],"sum_hessian":[1.6725494E2,7.5749596E1,9.1505356E1,6.91883E1,6.561296E0,6.531682E1,2.6188532E1,6.32645E1,5.9237986E0,5.3339524E0,1.2273436E0,2.6696585E1,3.8620235E1,2.0654474E1,5.5340567E0,4.2191402E1,2.1073097E1,2.5466623E1,1.2299612E0,3.4260895E1,4.35934E0,1.2387784E1,8.266691E0,6.4758387E0,3.571556E1,1.3325127E1,7.7479706E0,1.9879108E1,5.5875154E0,1.195228E1,2.2308617E1,5.1054053E0,7.2823787E0,4.3822527E0,3.8844383E0,4.7625184E0,1.7133203E0,3.0183271E1,5.532292E0,1.0396504E1,2.9286225E0,5.4045115E0,2.3434591E0,3.1308334E0,1.6748276E1,4.37086E0,1.2166551E0,7.830207E0,4.122073E0,1.5259831E1,7.0487847E0,2.4655838E0,4.816795E0,3.1558862E0,1.2263664E0,1.9414605E0,1.9429778E0],"tree_param":{"num_deleted":"0","num_feature":"17","num_nodes":"57","size_leaf_vector":"1"}},{"base_weights":[4.122329E-2,1.055587E0,-5.114307E-2,-5.66662E-3,1.2095853E0,4.335797E-2,-7.3912317E-1,1.7349147E-3,4.337862E-2,-7.509991E-1,1.4484017E-1,-4.576738E-2,-7.557718E-3,-1.0847095E0,2.3069266E-2,-4.366099E-1,2.7618185E-1,7.034432E-1,-3.4051824E-2,2.128193E-2,-1.366199E0,6.3147455E-1,-8.10324E-1,6.0847497E-1,2.9960679E-2,3.6346443E-2,4.1227143E-2,-1.8535588E-2,-4.4153824E-2,-5.269898E-3,3.9500155E-2,2.8975785E-2,-3.0092603E-2,3.2722883E-2,-2.0805391E-4,-9.5931925E-3,1.6431987E-2,1.681695E-2,-1.07505135E-2],"categories":[],"categories_nodes":[],"categories_segments":[],"categories_sizes":[],"default_left":[0,0,0,0,0,0,0,0,0,0,0,0,0,0,0,0,0,0,0,0,0,0,0,0,0,0,0,0,0,0,0,0,0,0,0,0,0,0,0],"id":17,"left_children":[1,3,5,-1,7,9,11,-1,-1,13,15,-1,17,19,-1,21,23,25,-1,-1,27,29,31,33,35,-1,37,-1,-1,-1,-1,-1,-1,-1,-1,-1,-1,-1,-1],"loss_changes":[1.5876635E1,2.9384642E0,1.0157257E1,0E0,3.3788376E0,1.1223146E1,1.0841718E1,0E0,0E0,8.838312E0,9.521015E0,0E0,9.438689E0,7.713335E0,0E0,9.719885E0,8.247295E0,2.3818338E0,0E0,0E0,2.9809952E-2,3.8490644E0,6.969944E0,1.27538185E1,1.0873303E1,0E0,1.0668396E0,0E0,0E0,0E0,0E0,0E0,0E0,0E0,0E0,0E0,0E0,0E0,0E0],"parents":[2147483647,0,0,1,1,2,2,4,4,5,5,6,6,9,9,10,10,12,12,13,13,15,15,16,16,17,17,20,20,21,21,22,22,23,23,24,24,26,26],"right_children":[2,4,6,-1,8,10,12,-1,-1,14,16,-1,18,20,-1,22,24,26,-1,-1,28,30,32,34,36,-1,38,-1,-1,-1,-1,-1,-1,-1,-1,-1,-1,-1,-1],"split_conditions":[3.0112354E-4,1.04403825E-5,1.0752548E-4,-5.66662E-3,3.7659993E0,8.254301E-5,1.638075E-4,1.7349147E-3,4.337862E-2,1.1650496E-3,1.7776332E-4,-4.576738E-2,1.7350033E4,-2.513068E-4,2.3069266E-2,7.681101E0,-2.0833333E2,5.3545565E-4,-3.4051824E-2,2.128193E-2,1.7665354E4,5.653873E0,-5.698702E-4,1.4685143E1,7.86E3,3.6346443E-2,1.61035E4,-1.8535588E-2,-4.4153824E-2,-5.269898E-3,3.9500155E-2,2.8975785E-2,-3.0092603E-2,3.2722883E-2,-2.0805391E-4,-9.5931925E-3,1.6431987E-2,1.681695E-2,-1.07505135E-2],"split_indices":[3,0,0,0,10,4,0,0,0,2,2,0,8,2,0,7,12,4,0,0,8,10,2,7,12,0,8,0,0,0,0,0,0,0,0,0,0,0,0],"split_type":[0,0,0,0,0,0,0,0,0,0,0,0,0,0,0,0,0,0,0,0,0,0,0,0,0,0,0,0,0,0,0,0,0,0,0,0,0,0,0],"sum_hessian":[1.6787744E2,1.3140519E1,1.5473692E2,1.422072E0,1.1718447E1,1.3687302E2,1.7863916E1,2.2073498E0,9.511097E0,1.4780171E1,1.2209284E2,8.085925E0,9.777991E0,1.2354176E1,2.4259953E0,2.2069014E1,1.0002383E2,6.2272234E0,3.550768E0,1.4692945E0,1.0884881E1,5.54151E0,1.6527504E1,4.1944912E1,5.8078915E1,3.0542352E0,3.1729882E0,2.1931703E0,8.691711E0,2.8857872E0,2.6557226E0,1.2254224E0,1.5302082E1,2.3082827E1,1.8862085E1,3.4892727E1,2.318619E1,1.2045369E0,1.9684513E0],"tree_param":{"num_deleted":"0","num_feature":"17","num_nodes":"39","size_leaf_vector":"1"}},{"base_weights":[-3.1980697E-2,-3.023187E-1,2.3186041E-1,-1.8034242E-1,-4.2648714E-2,1.1966147E0,1.2189627E-1,-3.3829936E-1,3.7480593E-1,1.5935052E-2,3.992153E-2,3.065065E-1,-6.454126E-1,-6.32431E-2,-8.378518E-1,4.0726904E-2,5.412591E-2,-9.394297E-1,3.9050734E-1,-4.4104733E-2,-2.9693607E-2,-6.6712654E-1,2.2725302E-1,5.696747E-1,-1.2670087E0,-4.693526E-1,9.231537E-1,-4.9201087E-3,-3.5564754E-2,9.560708E-2,8.6906666E-1,3.2557417E-2,-8.6306036E-1,6.0354252E-3,-4.343436E-2,1.1346397E-2,-3.5750587E-2,-2.5825595E-2,3.3498924E-2,-4.3584194E-2,1.857397E-2,2.7618501E-2,-2.9947622E-2,3.8477376E-2,-7.276536E-3,-2.3204045E-2,1.1391594E-2,3.2210253E-2,-3.2975204E-2,1.5349223E-2,-3.86032E-2],"categories":[],"categories_nodes":[],"categories_segments":[],"categories_sizes":[],"default_left":[0,0,0,0,0,0,0,0,0,0,0,0,0,0,0,0,0,0,0,0,0,0,0,0,0,0,0,0,0,0,0,0,0,0,0,0,0,0,0,0,0,0,0,0,0,0,0,0,0,0,0],"id":18,"left_children":[1,3,5,7,-1,9,11,13,15,-1,-1,17,19,21,23,-1,25,27,29,-1,31,33,35,37,39,41,43,-1,-1,45,47,-1,49,-1,-1,-1,-1,-1,-1,-1,-1,-1,-1,-1,-1,-1,-1,-1,-1,-1,-1],"loss_changes":[1.2345927E1,1.1408833E1,9.154548E0,6.983308E0,0E0,8.350849E-2,1.1503167E1,8.383219E0,5.5343447E0,0E0,0E0,7.170795E0,7.9797325E0,7.287388E0,1.3841575E1,0E0,7.010394E0,6.4506364E-1,8.611815E0,0E0,1.0290389E1,9.419554E0,6.493581E0,5.471869E0,6.8411655E0,8.0395155E0,2.7295156E0,0E0,0E0,9.983531E0,1.0590418E1,0E0,4.3384366E0,0E0,0E0,0E0,0E0,0E0,0E0,0E0,0E0,0E0,0E0,0E0,0E0,0E0,0E0,0E0,0E0,0E0,0E0],"parents":[2147483647,0,0,1,1,2,2,3,3,5,5,6,6,7,7,8,8,11,11,12,12,13,13,14,14,16,16,17,17,18,18,20,20,21,21,22,22,23,23,24,24,25,25,26,26,29,29,30,30,32,32],"right_children":[2,4,6,8,-1,10,12,14,16,-1,-1,18,20,22,24,-1,26,28,30,-1,32,34,36,38,40,42,44,-1,-1,46,48,-1,50,-1,-1,-1,-1,-1,-1,-1,-1,-1,-1,-1,-1,-1,-1,-1,-1,-1,-1],"split_conditions":[7.488652E-4,7.830638E-5,3.0112354E-4,3.6289806E-5,-4.2648714E-2,2.46438E-4,1.0752548E-4,1.800331E4,3.212025E-4,1.5935052E-2,3.992153E-2,4.440909E-4,1.638075E-4,1.752804E4,-1.315E4,4.0726904E-2,6.4733335E3,1.0689693E4,1.5695246E-5,-4.4104733E-2,1.7023166E4,1.713017E4,7.175528E-4,8.254301E-5,6.2776764E-4,5.644834E-5,8.694664E0,-4.9201087E-3,-3.5564754E-2,2.2014948E1,2.2917532E1,3.2557417E-2,6.3849874E0,6.0354252E-3,-4.343436E-2,1.1346397E-2,-3.5750587E-2,-2.5825595E-2,3.3498924E-2,-4.3584194E-2,1.857397E-2,2.7618501E-2,-2.9947622E-2,3.8477376E-2,-7.276536E-3,-2.3204045E-2,1.1391594E-2,3.2210253E-2,-3.2975204E-2,1.5349223E-2,-3.86032E-2],"split_indices":[5,0,3,0,0,3,0,6,5,0,0,3,0,8,14,0,12,13,0,0,8,8,5,4,5,4,10,0,0,7,7,0,7,0,0,0,0,0,0,0,0,0,0,0,0,0,0,0,0,0,0],"split_type":[0,0,0,0,0,0,0,0,0,0,0,0,0,0,0,0,0,0,0,0,0,0,0,0,0,0,0,0,0,0,0,0,0,0,0,0,0,0,0,0,0,0,0,0,0,0,0,0,0,0,0],"sum_hessian":[1.7110812E2,8.444149E1,8.6666626E1,7.719075E1,7.2507405E0,7.856543E0,7.881008E1,6.039664E1,1.6794106E1,2.149783E0,5.70676E0,6.401015E1,1.4799941E1,3.9676918E1,2.0719725E1,3.3362942E0,1.3457812E1,3.3997672E0,6.061038E1,5.7329903E0,9.066951E0,1.2466026E1,2.721089E1,4.7648354E0,1.595489E1,8.685697E0,4.772115E0,1.2203957E0,2.1793714E0,3.8243534E1,2.2366844E1,3.7490048E0,5.317946E0,6.2532415E0,6.2127852E0,2.5257238E1,1.9536514E0,1.1591793E0,3.6056561E0,1.4733305E1,1.2215855E0,2.1899142E0,6.495783E0,3.570845E0,1.2012705E0,8.997769E0,2.9245764E1,2.067235E1,1.6944945E0,1.2040362E0,4.1139097E0],"tree_param":{"num_deleted":"0","num_feature":"17","num_nodes":"51","size_leaf_vector":"1"}},{"base_weights":[7.278031E-3,-2.721851E-1,2.9288387E-1,6.1373353E-1,-5.313749E-1,9.566992E-1,8.168377E-2,1.9997567E-1,1.1045672E0,2.2521386E-2,-6.1403686E-1,1.0476943E0,-6.9627254E-3,-6.294761E-1,2.751101E-1,7.0537096E-1,-3.109378E-2,3.596159E-2,8.859961E-3,-4.103862E-2,-4.583511E-1,6.6173244E-3,1.1304601E0,-4.2232793E-2,-7.405668E-2,7.6135807E-3,8.470473E-1,-1.330952E-1,1.025618E0,-1.2444328E0,-2.6307836E-1,4.2529814E-2,5.9643567E-1,3.2347798E-1,-3.43836E-2,-4.0585828E-1,6.566028E-1,1.1102102E0,-3.2245364E-2,-3.0215435E-2,2.509283E-2,1.1796827E-2,3.730608E-2,-4.27474E-2,-8.603944E-3,4.034629E-3,-1.9908957E-2,-3.2991633E-2,3.552326E-2,2.4727693E-2,-3.1179927E-2,1.561648E-2,-3.0124247E-2,3.281923E-2,-8.879191E-3,3.547522E-2,4.1311635E-3],"categories":[],"categories_nodes":[],"categories_segments":[],"categories_sizes":[],"default_left":[0,0,0,0,0,0,0,0,0,0,0,0,0,0,0,0,0,0,0,0,0,0,0,0,0,0,0,0,0,0,0,0,0,0,0,0,0,0,0,0,0,0,0,0,0,0,0,0,0,0,0,0,0,0,0,0,0],"id":19,"left_children":[1,3,5,7,9,11,13,15,17,-1,19,21,-1,23,25,27,-1,-1,-1,-1,29,-1,31,-1,33,35,37,39,41,43,45,-1,47,49,-1,51,53,55,-1,-1,-1,-1,-1,-1,-1,-1,-1,-1,-1,-1,-1,-1,-1,-1,-1,-1,-1],"loss_changes":[1.340929E1,1.9827295E1,1.1568867E1,3.7772727E0,7.4811363E0,2.4021358E0,8.992943E0,8.169313E0,3.152237E-1,0E0,6.7415733E0,1.0322056E0,0E0,5.9537225E0,7.8118553E0,2.565117E0,0E0,0E0,0E0,0E0,7.890625E0,0E0,1.7273235E0,0E0,4.3059125E0,9.880369E0,9.425008E0,3.7109435E0,4.2877293E-1,1.3862152E0,7.120373E0,0E0,8.870756E0,5.9858766E0,0E0,1.2994902E1,6.2919006E0,8.78252E-1,0E0,0E0,0E0,0E0,0E0,0E0,0E0,0E0,0E0,0E0,0E0,0E0,0E0,0E0,0E0,0E0,0E0,0E0,0E0],"parents":[2147483647,0,0,1,1,2,2,3,3,4,4,5,5,6,6,7,7,8,8,10,10,11,11,13,13,14,14,15,15,20,20,22,22,24,24,25,25,26,26,27,27,28,28,29,29,30,30,32,32,33,33,35,35,36,36,37,37],"right_children":[2,4,6,8,10,12,14,16,18,-1,20,22,-1,24,26,28,-1,-1,-1,-1,30,-1,32,-1,34,36,38,40,42,44,46,-1,48,50,-1,52,54,56,-1,-1,-1,-1,-1,-1,-1,-1,-1,-1,-1,-1,-1,-1,-1,-1,-1,-1,-1],"split_conditions":[7.675497E-4,1.7207436E4,-1.315E4,1.6807557E4,4.227233E-5,3.6031178E1,-2.71E3,1.3468885E1,1.3536527E-3,2.2521386E-2,8.254301E-5,9.347692E-5,-6.9627254E-3,1.5522505E-3,1.5522505E-3,4.5E2,-3.109378E-2,3.596159E-2,8.859961E-3,-4.103862E-2,1.756828E4,6.6173244E-3,9.580216E-4,-4.2232793E-2,-4.99E3,7.3416665E3,1.7834086E4,7.1116537E-4,1.695E4,1.0365E4,1.7928838E4,4.2529814E-2,1.2379658E-3,8.6668006E-4,-3.43836E-2,1.5310754E-4,1.3356307E-3,2.895E4,-3.2245364E-2,-3.0215435E-2,2.509283E-2,1.1796827E-2,3.730608E-2,-4.27474E-2,-8.603944E-3,4.034629E-3,-1.9908957E-2,-3.2991633E-2,3.552326E-2,2.4727693E-2,-3.1179927E-2,1.561648E-2,-3.0124247E-2,3.281923E-2,-8.879191E-3,3.547522E-2,4.1311635E-3],"split_indices":[2,9,14,6,4,7,12,7,5,0,4,4,0,5,5,14,0,0,0,0,9,0,3,0,12,12,6,3,14,12,6,0,3,3,0,4,2,14,0,0,0,0,0,0,0,0,0,0,0,0,0,0,0,0,0,0,0],"split_type":[0,0,0,0,0,0,0,0,0,0,0,0,0,0,0,0,0,0,0,0,0,0,0,0,0,0,0,0,0,0,0,0,0,0,0,0,0,0,0,0,0,0,0,0,0,0,0,0,0,0,0,0,0,0,0,0,0],"sum_hessian":[1.6600316E2,8.392762E1,8.207554E1,1.8687E1,6.5240616E1,1.8958364E1,6.3117172E1,1.0903283E1,7.783716E0,3.4620745E0,6.1778545E1,1.772064E1,1.237725E0,1.3014208E1,5.0102962E1,8.044564E0,2.8587193E0,6.5413465E0,1.2423699E0,9.241142E0,5.2537403E1,1.9453151E0,1.5775326E1,4.7806764E0,8.233531E0,3.4827408E1,1.5275556E1,2.384886E0,5.659678E0,9.384951E0,4.315245E1,9.182351E0,6.592974E0,6.515695E0,1.7178365E0,2.1502663E1,1.3324744E1,1.3807275E1,1.4682813E0,1.2337451E0,1.1511409E0,2.1692038E0,3.4904742E0,7.486127E0,1.8988235E0,2.1990356E1,2.1162094E1,1.4722922E0,5.1206822E0,5.053801E0,1.4618939E0,8.488552E0,1.3014111E1,9.030148E0,4.294596E0,1.2650855E1,1.1564194E0],"tree_param":{"num_deleted":"0","num_feature":"17","num_nodes":"57","size_leaf_vector":"1"}},{"base_weights":[-9.958549E-3,4.7679687E-1,-1.14143305E-1,-3.309048E-1,7.367059E-1,7.331429E-1,-1.9939527E-1,4.5477998E-1,-3.3370435E-2,9.0454537E-1,-3.1784672E-2,2.090674E-1,3.985122E-2,-7.60356E-1,-8.281852E-2,-2.7520066E-2,3.4925956E-2,1.1207299E0,-2.1768676E-1,-3.5358E-2,8.2771766E-1,2.7554475E-2,-1.3245125E0,1.9576597E-1,-3.6743015E-1,6.9917303E-1,4.2438727E-2,-3.4986477E-2,3.0413534E-2,3.4636386E-2,1.00855855E-2,-3.7081975E-2,5.7153016E-1,-4.344028E-2,-1.6481284E-3,-8.862717E-1,3.6049977E-1,-5.410131E-1,5.361638E-1,2.8128726E-2,-1.1645617E-2,-1.7234294E-2,3.9952766E-2,-3.416131E-2,7.833739E-3,1.7548105E-2,-1.6680244E-2,-2.040447E-2,2.2972122E-2,3.0979678E-2,-1.2396247E-3],"categories":[],"categories_nodes":[],"categories_segments":[],"categories_sizes":[],"default_left":[0,0,0,0,0,0,0,0,0,0,0,0,0,0,0,0,0,0,0,0,0,0,0,0,0,0,0,0,0,0,0,0,0,0,0,0,0,0,0,0,0,0,0,0,0,0,0,0,0,0,0],"id":20,"left_children":[1,3,5,7,9,11,13,15,-1,17,-1,19,-1,21,23,-1,-1,25,27,-1,29,31,33,35,37,39,-1,-1,-1,-1,-1,-1,41,-1,-1,43,45,47,49,-1,-1,-1,-1,-1,-1,-1,-1,-1,-1,-1,-1],"loss_changes":[8.797146E0,6.6649766E0,1.0461779E1,5.501454E0,8.028164E0,3.8616295E0,8.473749E0,5.7082396E0,0E0,5.5780563E0,0E0,8.052244E0,0E0,9.966095E0,8.730407E0,0E0,0E0,1.3150597E0,6.308608E0,0E0,6.2214756E-1,7.78679E0,1.9646664E0,1.0272504E1,8.817054E0,2.857451E0,0E0,0E0,0E0,0E0,0E0,0E0,7.6342497E0,0E0,0E0,2.518046E0,1.0439623E1,8.902811E0,2.6984901E0,0E0,0E0,0E0,0E0,0E0,0E0,0E0,0E0,0E0,0E0,0E0,0E0],"parents":[2147483647,0,0,1,1,2,2,3,3,4,4,5,5,6,6,7,7,9,9,11,11,13,13,14,14,17,17,18,18,20,20,21,21,22,22,23,23,24,24,25,25,32,32,35,35,36,36,37,37,38,38],"right_children":[2,4,6,8,10,12,14,16,-1,18,-1,20,-1,22,24,-1,-1,26,28,-1,30,32,34,36,38,40,-1,-1,-1,-1,-1,-1,42,-1,-1,44,46,48,50,-1,-1,-1,-1,-1,-1,-1,-1,-1,-1,-1,-1],"split_conditions":[1.6946195E4,7.153195E-4,2.9425015E-4,1.0700377E-4,4.1868747E-3,2.7824438E-4,4.3303482E-4,4.8E3,-3.3370435E-2,2.4668861E1,-3.1784672E-2,3.7659993E0,3.985122E-2,4.9791565E0,7.313503E-4,-2.7520066E-2,3.4925956E-2,4.3772956E-4,1.6908275E4,-3.5358E-2,3.0162686E3,-2.325E3,1.4930082E1,8.254301E-5,2.4033592E-3,2.1666666E1,4.2438727E-2,-3.4986477E-2,3.0413534E-2,3.4636386E-2,1.00855855E-2,-3.7081975E-2,8.685997E-4,-4.344028E-2,-1.6481284E-3,1.8268754E4,1.8105697E4,1.8504322E4,2.1088477E-3,2.8128726E-2,-1.1645617E-2,-1.7234294E-2,3.9952766E-2,-3.416131E-2,7.833739E-3,1.7548105E-2,-1.6680244E-2,-2.040447E-2,2.2972122E-2,3.0979678E-2,-1.2396247E-3],"split_indices":[6,5,3,4,5,3,3,14,0,10,0,10,0,10,3,0,0,4,6,0,13,12,10,4,4,12,0,0,0,0,0,0,2,0,0,6,11,9,3,0,0,0,0,0,0,0,0,0,0,0,0],"split_type":[0,0,0,0,0,0,0,0,0,0,0,0,0,0,0,0,0,0,0,0,0,0,0,0,0,0,0,0,0,0,0,0,0,0,0,0,0,0,0,0,0,0,0,0,0,0,0,0,0,0,0],"sum_hessian":[1.7139781E2,2.9587475E1,1.4181035E2,7.136549E0,2.2450926E1,1.2269437E1,1.2954091E2,3.7670631E0,3.3694859E0,2.0986338E1,1.4645882E0,7.2432775E0,5.026159E0,2.1338564E1,1.0820234E2,1.1839861E0,2.5830772E0,1.7597692E1,3.3886452E0,1.9543793E0,5.2888985E0,9.300495E0,1.203807E1,5.4837894E1,5.336445E1,8.61684E0,8.980852E0,1.9441624E0,1.4444828E0,2.3664954E0,2.922403E0,2.4160004E0,6.8844943E0,1.0842799E1,1.1952708E0,6.666913E0,4.8170982E1,4.5101574E1,8.262875E0,7.180015E0,1.4368254E0,2.8430605E0,4.041434E0,5.4708424E0,1.1960703E0,3.89858E1,9.18518E0,4.1194874E1,3.9066992E0,4.019185E0,4.243689E0],"tree_param":{"num_deleted":"0","num_feature":"17","num_nodes":"51","size_leaf_vector":"1"}},{"base_weights":[9.866565E-3,-9.192536E-2,5.8982575E-1,6.1274916E-2,-7.638257E-1,7.74801E-1,-3.3279862E-2,-2.7194795E-1,3.3974797E-1,-4.1888796E-2,-2.8145164E-1,9.2767763E-1,-2.3174608E-2,2.4201052E-1,-6.5538794E-1,3.9322916E-1,-2.5285235E-2,-3.871496E-2,2.1104519E-1,1.1235881E0,-2.5834286E-1,7.728431E-1,-4.5866147E-1,-1.757484E-1,-1.0786269E0,2.92399E-1,1.179765E0,8.94449E-1,-3.966657E-1,7.2168545E-3,1.2453237E0,-3.305086E-2,2.0950846E-2,-2.6973944E-2,2.985943E-2,3.0084107E-2,-2.3457842E-2,-1.8001556E-2,2.5571741E-2,-3.6151506E-2,8.556944E-3,1.2197932E-2,-2.760468E-2,3.9708406E-2,8.584328E-3,3.8424198E-2,-5.8460464E-3,-3.7303954E-2,2.3413721E-2,3.956083E-2,8.192726E-3],"categories":[],"categories_nodes":[],"categories_segments":[],"categories_sizes":[],"default_left":[0,0,0,0,0,0,0,0,0,0,0,0,0,0,0,0,0,0,0,0,0,0,0,0,0,0,0,0,0,0,0,0,0,0,0,0,0,0,0,0,0,0,0,0,0,0,0,0,0,0,0],"id":21,"left_children":[1,3,5,7,9,11,-1,13,15,-1,17,19,-1,21,23,25,-1,-1,27,29,31,33,35,37,39,41,43,45,47,-1,49,-1,-1,-1,-1,-1,-1,-1,-1,-1,-1,-1,-1,-1,-1,-1,-1,-1,-1,-1,-1],"loss_changes":[1.0105579E1,1.5044911E1,8.891913E0,1.1188313E1,7.8833323E0,6.307603E0,0E0,1.0996057E1,4.4793797E0,0E0,8.542893E0,5.393957E0,0E0,9.365596E0,6.258771E0,4.685318E0,0E0,0E0,5.356534E0,1.7469482E0,3.9378088E0,6.160755E0,6.0143595E0,7.5284333E0,3.2197285E0,8.343292E0,5.053654E-1,2.764627E0,8.015226E0,0E0,8.163147E-1,0E0,0E0,0E0,0E0,0E0,0E0,0E0,0E0,0E0,0E0,0E0,0E0,0E0,0E0,0E0,0E0,0E0,0E0,0E0,0E0],"parents":[2147483647,0,0,1,1,2,2,3,3,4,4,5,5,7,7,8,8,10,10,11,11,13,13,14,14,15,15,18,18,19,19,20,20,21,21,22,22,23,23,24,24,25,25,26,26,27,27,28,28,30,30],"right_children":[2,4,6,8,10,12,-1,14,16,-1,18,20,-1,22,24,26,-1,-1,28,30,32,34,36,38,40,42,44,46,48,-1,50,-1,-1,-1,-1,-1,-1,-1,-1,-1,-1,-1,-1,-1,-1,-1,-1,-1,-1,-1,-1],"split_conditions":[1.0365E4,1.54E3,2.895E4,7.5923844E-4,5.6349457E-4,6.943163E-5,-3.3279862E-2,4.5272624E-4,3.6183792E1,-4.1888796E-2,4.1333335E3,3.0164078E1,-2.3174608E-2,2.5533192E-4,5.396639E-4,2.4033592E-3,-2.5285235E-2,-3.871496E-2,7.25829E0,1.03827784E-4,5.203352E1,-3.509568E-5,1.6716083E0,3.15E3,9.7E2,1.2879708E-3,-1.772E4,0E0,1.1047991E-3,7.2168545E-3,1.125E4,-3.305086E-2,2.0950846E-2,-2.6973944E-2,2.985943E-2,3.0084107E-2,-2.3457842E-2,-1.8001556E-2,2.5571741E-2,-3.6151506E-2,8.556944E-3,1.2197932E-2,-2.760468E-2,3.9708406E-2,8.584328E-3,3.8424198E-2,-5.8460464E-3,-3.7303954E-2,2.3413721E-2,3.956083E-2,8.192726E-3],"split_indices":[12,12,14,5,2,0,0,5,10,0,12,10,0,2,1,4,0,0,10,2,10,0,10,14,12,4,12,14,1,0,14,0,0,0,0,0,0,0,0,0,0,0,0,0,0,0,0,0,0,0,0],"split_type":[0,0,0,0,0,0,0,0,0,0,0,0,0,0,0,0,0,0,0,0,0,0,0,0,0,0,0,0,0,0,0,0,0,0,0,0,0,0,0,0,0,0,0,0,0,0,0,0,0,0,0],"sum_hessian":[1.6926054E2,1.447042E2,2.4556356E1,1.18576355E2,2.612784E1,2.2636124E1,1.9202312E0,5.399226E1,6.458409E1,1.0485323E1,1.5642517E1,2.0965155E1,1.6709694E0,2.3227386E1,3.0764874E1,6.242833E1,2.1557627E0,4.599192E0,1.1043325E1,1.8038193E1,2.9269624E0,1.3156758E1,1.0070628E1,1.5084954E1,1.5679918E1,5.655057E1,5.87776E0,4.975864E0,6.0674615E0,2.5460632E0,1.5492129E1,1.4750905E0,1.4518719E0,1.1878622E0,1.1968896E1,1.4433326E0,8.627296E0,1.0972911E1,4.1120434E0,1.4456325E1,1.2235937E0,5.2290512E1,4.2600574E0,4.6483254E0,1.2294345E0,3.5433311E0,1.4325329E0,3.496086E0,2.5713756E0,1.4073686E1,1.4184442E0],"tree_param":{"num_deleted":"0","num_feature":"17","num_nodes":"51","size_leaf_vector":"1"}},{"base_weights":[-3.7719376E-2,8.084786E-1,-1.1626965E-1,-4.853053E-2,1.0838242E0,3.2616818E-1,-2.841583E-1,-3.4259867E-2,3.218696E-2,5.0629884E-1,3.8475193E-2,7.141878E-1,-1.04329064E-1,-1.0474449E0,-1.4756665E-1,2.7706863E-2,-3.2363113E-3,-3.1018326E-2,8.860915E-1,-7.578792E-1,5.192575E-1,-1.3244656E0,5.7102278E-2,5.937022E-1,-2.7653056E-1,1.0346617E0,-1.46328965E-2,4.4034892E-1,-4.3382738E-2,7.9407734E-1,-1.6521413E-2,-1.0260322E-2,-4.4251796E-2,-2.808681E-2,2.2428693E-2,-2.8363382E-2,8.328176E-1,-5.046722E-1,3.376622E-2,-5.206412E-3,3.7558157E-2,-1.12700015E-2,2.7722072E-2,-8.927254E-3,3.1074053E-2,3.273278E-2,3.7353722E-5,-5.6749196E-3,-4.243053E-2,1.727339E-2,-1.08157545E-2],"categories":[],"categories_nodes":[],"categories_segments":[],"categories_sizes":[],"default_left":[0,0,0,0,0,0,0,0,0,0,0,0,0,0,0,0,0,0,0,0,0,0,0,0,0,0,0,0,0,0,0,0,0,0,0,0,0,0,0,0,0,0,0,0,0,0,0,0,0,0,0],"id":22,"left_children":[1,3,5,7,9,11,13,-1,-1,15,-1,17,19,21,23,-1,-1,-1,25,27,29,31,33,35,37,39,-1,41,-1,43,-1,-1,-1,-1,-1,-1,45,47,49,-1,-1,-1,-1,-1,-1,-1,-1,-1,-1,-1,-1],"loss_changes":[1.1052893E1,3.3869877E0,1.1364098E1,6.6122603E0,5.827007E-1,7.124773E0,1.1369653E1,0E0,0E0,1.2273949E0,0E0,7.6253567E0,8.903364E0,5.1592255E0,9.238331E0,0E0,0E0,0E0,4.76363E0,9.379555E0,3.7538097E0,1.4668331E0,3.642501E0,6.0813904E0,5.789136E0,5.2443886E0,0E0,2.176445E0,0E0,2.7842941E0,0E0,0E0,0E0,0E0,0E0,0E0,2.7868423E0,1.3236715E1,7.79114E0,0E0,0E0,0E0,0E0,0E0,0E0,0E0,0E0,0E0,0E0,0E0,0E0],"parents":[2147483647,0,0,1,1,2,2,3,3,4,4,5,5,6,6,9,9,11,11,12,12,13,13,14,14,18,18,19,19,20,20,21,21,22,22,23,23,24,24,25,25,27,27,29,29,36,36,37,37,38,38],"right_children":[2,4,6,8,10,12,14,-1,-1,16,-1,18,20,22,24,-1,-1,-1,26,28,30,32,34,36,38,40,-1,42,-1,44,-1,-1,-1,-1,-1,-1,46,48,50,-1,-1,-1,-1,-1,-1,-1,-1,-1,-1,-1,-1],"split_conditions":[3.0112354E-4,3.2447152E0,1.7255656E4,2.7824438E-4,3.717439E-4,1.4930082E1,1.7527213E4,-3.4259867E-2,3.218696E-2,3.988584E-5,3.8475193E-2,5.4472027E0,7.929543E-4,1.7351842E-3,1.7570691E4,2.7706863E-2,-3.2363113E-3,-3.1018326E-2,3.6412743E-3,1.3868963E-4,1.2201082E5,1.7277666E4,-2.71E3,2.392256E-4,7.597352E-4,4.8653534E-4,-1.46328965E-2,7.865477E-4,-4.3382738E-2,-8.9E3,-1.6521413E-2,-1.0260322E-2,-4.4251796E-2,-2.808681E-2,2.2428693E-2,-2.8363382E-2,3.5E2,9.733333E2,-4E3,-5.206412E-3,3.7558157E-2,-1.12700015E-2,2.7722072E-2,-8.927254E-3,3.1074053E-2,3.273278E-2,3.7353722E-5,-5.6749196E-3,-4.243053E-2,1.727339E-2,-1.08157545E-2],"split_indices":[3,10,6,3,4,10,9,0,0,4,0,10,4,2,11,0,0,0,5,4,13,9,12,2,2,3,0,3,0,14,0,0,0,0,0,0,14,12,14,0,0,0,0,0,0,0,0,0,0,0,0],"split_type":[0,0,0,0,0,0,0,0,0,0,0,0,0,0,0,0,0,0,0,0,0,0,0,0,0,0,0,0,0,0,0,0,0,0,0,0,0,0,0,0,0,0,0,0,0,0,0,0,0,0,0],"sum_hessian":[1.6387201E2,1.3130343E1,1.5074167E2,3.3931036E0,9.73724E0,4.1206688E1,1.0953497E2,1.708686E0,1.6844175E0,3.4006343E0,6.336606E0,2.1325983E1,1.9880707E1,1.5614012E1,9.392096E1,1.7249697E0,1.6756645E0,1.460376E0,1.9865606E1,9.601986E0,1.0278721E1,1.2324038E1,3.2899745E0,1.3384555E1,8.053641E1,1.8149761E1,1.7158448E0,3.6343937E0,5.9675922E0,8.383331E0,1.8953892E0,2.072756E0,1.0251281E1,1.2032483E0,2.0867262E0,1.4025604E0,1.1981995E1,4.6051342E1,3.4485065E1,2.797119E0,1.5352643E1,1.4357402E0,2.1986535E0,1.4779056E0,6.905426E0,8.904343E0,3.0776522E0,3.508915E1,1.0962192E1,1.43283205E1,2.0156746E1],"tree_param":{"num_deleted":"0","num_feature":"17","num_nodes":"51","size_leaf_vector":"1"}},{"base_weights":[-3.0817777E-2,-1.3366991E-1,5.8802754E-1,1.9587645E-2,-8.328098E-1,8.39542E-1,-6.726667E-1,1.908942E-1,-3.1736E-1,-3.893648E-2,-2.3299761E-1,3.121627E-1,1.0503225E0,-3.7814528E-2,1.6618192E-2,-6.2115026E-1,3.260225E-1,4.4149423E-1,-6.927331E-1,-1.0021458E0,7.2501314E-1,3.1701867E-2,-3.485286E-2,2.698109E-1,1.2308359E0,-1.0188044E0,6.766124E-1,5.7766384E-1,-4.521241E-2,-1.20716736E-1,3.8777936E-2,-9.8496306E-1,7.936606E-1,-3.766433E-2,-3.2423338E-1,3.3965144E-2,8.779915E-2,2.8777715E-2,-1.7777555E-2,1.5425631E-2,4.0077057E-2,-3.6739944E-3,-4.177801E-2,2.6009144E-2,5.587586E-3,-3.4857877E-2,2.0750467E-2,9.807374E-3,-1.710393E-2,2.0202024E-2,-3.7516706E-2,-3.4351427E-2,2.7779257E-2,-5.56085E-3,3.4150776E-2,1.1659822E-2,-2.6819393E-2,2.6872726E-2,-2.5275307E-2],"categories":[],"categories_nodes":[],"categories_segments":[],"categories_sizes":[],"default_left":[0,0,0,0,0,0,0,0,0,0,0,0,0,0,0,0,0,0,0,0,0,0,0,0,0,0,0,0,0,0,0,0,0,0,0,0,0,0,0,0,0,0,0,0,0,0,0,0,0,0,0,0,0,0,0,0,0,0,0],"id":23,"left_children":[1,3,5,7,9,11,13,15,17,-1,19,21,23,-1,-1,25,27,29,31,33,35,-1,-1,37,39,41,43,45,47,49,-1,51,53,-1,55,-1,57,-1,-1,-1,-1,-1,-1,-1,-1,-1,-1,-1,-1,-1,-1,-1,-1,-1,-1,-1,-1,-1,-1],"loss_changes":[1.092743E1,1.5763925E1,8.325724E0,7.075021E0,7.0753193E0,1.989852E0,4.0337653E0,9.111266E0,1.2080143E1,0E0,1.0135725E1,9.323015E0,1.7071171E0,0E0,0E0,6.844321E0,6.5897603E0,6.9940214E0,1.2963223E1,8.8140965E-1,1.5264897E0,0E0,0E0,2.9463701E0,1.7704582E-1,3.021965E0,1.5573835E-1,9.123926E0,5.9122005E0,9.384037E0,0E0,8.366278E0,1.9528348E0,0E0,1.7240249E0,0E0,3.405929E0,0E0,0E0,0E0,0E0,0E0,0E0,0E0,0E0,0E0,0E0,0E0,0E0,0E0,0E0,0E0,0E0,0E0,0E0,0E0,0E0,0E0,0E0],"parents":[2147483647,0,0,1,1,2,2,3,3,4,4,5,5,6,6,7,7,8,8,10,10,11,11,12,12,15,15,16,16,17,17,18,18,19,19,20,20,23,23,24,24,25,25,26,26,27,27,28,28,29,29,31,31,32,32,34,34,36,36],"right_children":[2,4,6,8,10,12,14,16,18,-1,20,22,24,-1,-1,26,28,30,32,34,36,-1,-1,38,40,42,44,46,48,50,-1,52,54,-1,56,-1,58,-1,-1,-1,-1,-1,-1,-1,-1,-1,-1,-1,-1,-1,-1,-1,-1,-1,-1,-1,-1,-1,-1],"split_conditions":[1.0365E4,1.54E3,3.0164078E1,7.994344E-4,7.675497E-4,2.319251E4,5.8302048E1,8.254301E-5,-1.772E4,-3.893648E-2,6.905E3,1.5711909E4,6.5905886E-4,-3.7814528E-2,1.6618192E-2,1.1650496E-3,1.785695E4,2.4033592E-3,1.8376912E4,4.7366665E3,6.936571E0,3.1701867E-2,-3.485286E-2,2.5641729E4,1.4218944E1,2.3931592E-4,3.354858E-4,1.5796926E-4,2.4418024E-4,1.7180014E4,3.8777936E-2,1.305E3,-8.908333E3,-3.766433E-2,2.2365871E4,3.3965144E-2,-2.377643E-4,2.8777715E-2,-1.7777555E-2,1.5425631E-2,4.0077057E-2,-3.6739944E-3,-4.177801E-2,2.6009144E-2,5.587586E-3,-3.4857877E-2,2.0750467E-2,9.807374E-3,-1.710393E-2,2.0202024E-2,-3.7516706E-2,-3.4351427E-2,2.7779257E-2,-5.56085E-3,3.4150776E-2,1.1659822E-2,-2.6819393E-2,2.6872726E-2,-2.5275307E-2],"split_indices":[12,12,10,3,2,13,10,4,12,0,12,13,2,0,0,2,6,4,6,12,10,0,0,13,10,2,3,2,4,6,0,12,12,0,13,0,0,0,0,0,0,0,0,0,0,0,0,0,0,0,0,0,0,0,0,0,0,0,0],"split_type":[0,0,0,0,0,0,0,0,0,0,0,0,0,0,0,0,0,0,0,0,0,0,0,0,0,0,0,0,0,0,0,0,0,0,0,0,0,0,0,0,0,0,0,0,0,0,0,0,0,0,0,0,0,0,0,0,0,0,0],"sum_hessian":[1.6944624E2,1.4597002E2,2.3476225E1,1.2052243E2,2.5447582E1,1.98501E1,3.6261249E0,8.0187836E1,4.03346E1,1.367819E1,1.1769393E1,6.3766103E0,1.347349E1,2.4327004E0,1.1934243E0,1.092686E1,6.926097E1,1.329046E1,2.704414E1,6.5026264E0,5.266766E0,4.4245567E0,1.9520534E0,2.9993706E0,1.0474119E1,8.528539E0,2.3983207E0,4.0948204E1,2.8312769E1,8.520358E0,4.770102E0,2.2882677E1,4.161463E0,4.11347E0,2.3891563E0,2.7395396E0,2.5272264E0,1.6044054E0,1.3949652E0,2.0928543E0,8.381265E0,2.9006352E0,5.627904E0,1.1743875E0,1.2239332E0,1.9534498E0,3.8994755E1,1.6788378E1,1.1524391E1,5.2408023E0,3.2795558E0,2.1483719E1,1.3989573E0,1.2040207E0,2.957442E0,1.2024405E0,1.186716E0,1.372432E0,1.1547945E0],"tree_param":{"num_deleted":"0","num_feature":"17","num_nodes":"59","size_leaf_vector":"1"}},{"base_weights":[-6.261771E-2,4.033412E-1,-1.926966E-1,8.690998E-1,-1.7933215E-1,4.237698E-1,-3.1475255E-1,-3.2776766E-2,1.0770434E0,-6.052335E-1,7.2428787E-1,-4.5144445E-1,7.821631E-1,-3.9954835E-1,6.572209E-1,3.5033378E-1,1.2002009E0,2.2716211E-1,-1.1881618E0,3.0658817E-2,-7.2028656E-3,2.3830991E-2,-3.213222E-2,1.1253461E0,7.506195E-3,-3.110885E-1,-1.2683543E0,3.4411613E-2,3.2172095E-2,2.8213667E-2,-1.4033232E-2,3.933221E-2,4.8926738E-1,7.353639E-1,-2.8123561E-2,-5.790335E-3,-4.0437497E-2,7.418801E-4,4.1319992E-2,2.7128402E-2,-3.567269E-2,-2.091957E-1,-1.1400026E0,-4.6477574E-3,-4.2513866E-2,-2.7832016E-2,5.763846E-1,-1.7728374E-3,2.5406534E-2,-8.270195E-6,3.4594767E-2,-2.8934866E-2,-2.6350664E-3,-4.2191543E-2,9.236717E-3,-4.8362133E-3,2.9404884E-2],"categories":[],"categories_nodes":[],"categories_segments":[],"categories_sizes":[],"default_left":[0,0,0,0,0,0,0,0,0,0,0,0,0,0,0,0,0,0,0,0,0,0,0,0,0,0,0,0,0,0,0,0,0,0,0,0,0,0,0,0,0,0,0,0,0,0,0,0,0,0,0,0,0,0,0,0,0],"id":24,"left_children":[1,3,5,7,9,11,13,-1,15,17,19,21,23,25,27,29,31,33,35,-1,-1,-1,-1,37,39,41,43,-1,45,-1,-1,-1,47,49,-1,-1,-1,-1,-1,-1,-1,51,53,-1,-1,-1,55,-1,-1,-1,-1,-1,-1,-1,-1,-1,-1],"loss_changes":[1.0110323E1,1.0047026E1,9.920762E0,9.509083E0,6.9886646E0,7.230012E0,9.258848E0,0E0,1.2775631E0,6.147333E0,1.941247E0,6.257112E0,4.2239943E0,7.3689404E0,2.7604246E0,2.4490728E0,6.048012E-1,4.138937E0,8.979082E-1,0E0,0E0,0E0,0E0,3.0239258E0,7.4003944E0,7.6168404E0,1.2729206E0,0E0,3.1691966E0,0E0,0E0,0E0,7.812115E-1,1.419678E0,0E0,0E0,0E0,0E0,0E0,0E0,0E0,7.6195517E0,4.2731085E0,0E0,0E0,0E0,1.3002244E0,0E0,0E0,0E0,0E0,0E0,0E0,0E0,0E0,0E0,0E0],"parents":[2147483647,0,0,1,1,2,2,3,3,4,4,5,5,6,6,8,8,9,9,10,10,11,11,12,12,13,13,14,14,15,15,16,16,17,17,18,18,23,23,24,24,25,25,26,26,28,28,32,32,33,33,41,41,42,42,46,46],"right_children":[2,4,6,8,10,12,14,-1,16,18,20,22,24,26,28,30,32,34,36,-1,-1,-1,-1,38,40,42,44,-1,46,-1,-1,-1,48,50,-1,-1,-1,-1,-1,-1,-1,52,54,-1,-1,-1,56,-1,-1,-1,-1,-1,-1,-1,-1,-1,-1],"split_conditions":[1.7058219E4,1.4930082E1,3.5158635E-4,5.357856E0,1.8319339E-3,3.8239203E-5,3.039444E-3,-3.2776766E-2,4.4583553E-4,9.135321E3,4.142154E1,1.6716083E0,8.710821E-4,1.0752548E-4,2.3930351E1,1.6042313E4,1.2879708E-3,8.922776E-4,6.331472E-4,3.0658817E-2,-7.2028656E-3,2.3830991E-2,-3.213222E-2,4.77712E0,1.7597908E4,1.125E4,6.3849874E0,3.4411613E-2,2.8841693E-3,2.8213667E-2,-1.4033232E-2,3.933221E-2,3.1705257E-3,7.865477E-4,-2.8123561E-2,-5.790335E-3,-4.0437497E-2,7.418801E-4,4.1319992E-2,2.7128402E-2,-3.567269E-2,4.3303482E-4,1.9194342E-3,-4.6477574E-3,-4.2513866E-2,-2.7832016E-2,1.7624383E4,-1.7728374E-3,2.5406534E-2,-8.270195E-6,3.4594767E-2,-2.8934866E-2,-2.6350664E-3,-4.2191543E-2,9.236717E-3,-4.8362133E-3,2.9404884E-2],"split_indices":[6,10,3,10,3,0,1,0,3,13,7,10,1,0,7,6,4,3,3,0,0,0,0,10,6,14,7,0,4,0,0,0,1,3,0,0,0,0,0,0,0,3,5,0,0,0,6,0,0,0,0,0,0,0,0,0,0],"split_type":[0,0,0,0,0,0,0,0,0,0,0,0,0,0,0,0,0,0,0,0,0,0,0,0,0,0,0,0,0,0,0,0,0,0,0,0,0,0,0,0,0,0,0,0,0,0,0,0,0,0,0,0,0,0,0,0,0],"sum_hessian":[1.6452327E2,3.5446983E1,1.2907628E2,1.9426712E1,1.602027E1,2.0923962E1,1.0815232E2,1.4542043E0,1.7972507E1,1.1112739E1,4.9075313E0,6.0034943E0,1.4920467E1,1.00015785E2,8.136534E0,3.1616E0,1.4810907E1,4.8283625E0,6.284376E0,3.704403E0,1.2031281E0,1.9004657E0,4.1030283E0,1.0026081E1,4.894386E0,9.2006004E1,8.009779E0,4.0934615E0,4.043072E0,1.7498446E0,1.4117556E0,1.2082444E1,2.7284636E0,3.6181085E0,1.2102541E0,1.17475E0,5.1096263E0,2.0724175E0,7.953664E0,2.93733E0,1.9570557E0,8.304965E1,8.956359E0,1.1847152E0,6.8250637E0,1.2078629E0,2.8352091E0,1.406509E0,1.3219545E0,1.672524E0,1.9455847E0,1.0535193E1,7.251446E1,7.5888386E0,1.3675201E0,1.2155277E0,1.6196815E0],"tree_param":{"num_deleted":"0","num_feature":"17","num_nodes":"57","size_leaf_vector":"1"}},{"base_weights":[-2.2529904E-2,5.6019366E-1,-1.4056946E-1,7.232501E-1,-3.3836965E-2,-2.584654E-1,6.4452034E-1,-3.0388566E-2,8.73322E-1,-5.239361E-2,-9.1980076E-1,7.997953E-1,-2.6837207E-2,-1.3630152E-2,9.573221E-1,1.18384086E-1,-7.3995405E-1,-4.0522978E-2,-5.887813E-1,9.828052E-1,-1.1076723E-2,1.105898E0,3.7787312E-1,3.0946282E-1,-4.7050792E-1,-1.4776678E-1,-4.2855967E-2,-3.952812E-2,-1.2330428E-1,1.1382995E0,-2.0745937E-3,3.668957E-2,1.7224068E-2,-3.2416865E-2,3.3207994E-2,-2.8060716E-2,1.3120388E-2,-2.793832E-2,2.9236108E-2,-1.9243445E-2,3.1478427E-2,1.7795214E-2,-2.304746E-2,6.9285203E-3,3.6586143E-2],"categories":[],"categories_nodes":[],"categories_segments":[],"categories_sizes":[],"default_left":[0,0,0,0,0,0,0,0,0,0,0,0,0,0,0,0,0,0,0,0,0,0,0,0,0,0,0,0,0,0,0,0,0,0,0,0,0,0,0,0,0,0,0,0,0],"id":25,"left_children":[1,3,5,7,-1,9,11,-1,13,15,17,19,-1,-1,21,23,25,-1,27,29,-1,31,33,35,37,39,-1,-1,41,43,-1,-1,-1,-1,-1,-1,-1,-1,-1,-1,-1,-1,-1,-1,-1],"loss_changes":[1.1694164E1,8.700487E0,1.3237911E1,7.849634E0,0E0,1.6782326E1,5.190302E0,0E0,3.2388363E0,1.1268107E1,3.3815918E0,4.11467E0,0E0,0E0,1.6455212E0,8.825233E0,7.57026E0,0E0,6.0568185E0,2.6036158E0,0E0,4.532566E-1,8.012138E0,9.776207E0,1.3753814E1,7.3951583E0,0E0,0E0,6.1350675E0,7.138462E-1,0E0,0E0,0E0,0E0,0E0,0E0,0E0,0E0,0E0,0E0,0E0,0E0,0E0,0E0,0E0],"parents":[2147483647,0,0,1,1,2,2,3,3,5,5,6,6,8,8,9,9,10,10,11,11,14,14,15,15,16,16,18,18,19,19,21,21,22,22,23,23,24,24,25,25,28,28,29,29],"right_children":[2,4,6,8,-1,10,12,-1,14,16,18,20,-1,-1,22,24,26,-1,28,30,-1,32,34,36,38,40,-1,-1,42,44,-1,-1,-1,-1,-1,-1,-1,-1,-1,-1,-1,-1,-1,-1,-1],"split_conditions":[-1.315E4,3.236749E1,1.146E4,9.3367256E-5,-3.3836965E-2,9.733333E2,2.895E4,-3.0388566E-2,0E0,9.907471E-4,5.2699854E-4,3.8935363E-5,-2.6837207E-2,-1.3630152E-2,1.6959288E1,1.8069715E4,4.8419854E-4,-4.0522978E-2,4.1333335E3,3.5293053E1,-1.1076723E-2,1.5522505E-3,2.8058687E1,-7E2,7.865477E-4,4.406387E-4,-4.2855967E-2,-3.952812E-2,8.694664E0,2.6444843E-5,-2.0745937E-3,3.668957E-2,1.7224068E-2,-3.2416865E-2,3.3207994E-2,-2.8060716E-2,1.3120388E-2,-2.793832E-2,2.9236108E-2,-1.9243445E-2,3.1478427E-2,1.7795214E-2,-2.304746E-2,6.9285203E-3,3.6586143E-2],"split_indices":[14,10,12,4,0,12,14,0,2,3,2,0,0,0,10,8,2,0,12,7,0,5,10,14,3,2,0,0,10,2,0,0,0,0,0,0,0,0,0,0,0,0,0,0,0],"split_type":[0,0,0,0,0,0,0,0,0,0,0,0,0,0,0,0,0,0,0,0,0,0,0,0,0,0,0,0,0,0,0,0,0,0,0,0,0,0,0,0,0,0,0,0,0],"sum_hessian":[1.6786696E2,2.7645273E1,1.4022168E2,2.5731382E1,1.913891E0,1.22497215E2,1.772447E1,1.5897357E0,2.4141645E1,9.421811E1,2.82791E1,1.6536495E1,1.1879752E0,1.1741934E0,2.2967453E1,7.613529E1,1.8082823E1,1.0946657E1,1.7332441E1,1.4435854E1,2.1006403E0,1.7557116E1,5.4103365E0,5.7841774E1,1.8293514E1,1.0374876E1,7.7079463E0,6.041805E0,1.1290637E1,1.2505316E1,1.9305384E0,1.332356E1,4.2335567E0,1.6424985E0,3.767838E0,4.800405E0,5.304137E1,1.4140264E1,4.153251E0,7.674098E0,2.7007782E0,5.3867216E0,5.903916E0,1.3434362E0,1.116188E1],"tree_param":{"num_deleted":"0","num_feature":"17","num_nodes":"45","size_leaf_vector":"1"}},{"base_weights":[1.1036792E-2,6.249588E-1,-1.0661817E-1,-3.0001694E-2,7.5829583E-1,-2.4097465E-1,5.3244615E-1,9.355921E-1,-4.0935714E-2,-5.474754E-2,-9.2650276E-1,7.442298E-1,-7.02073E-1,2.299847E-1,1.118998E0,-6.2434316E-1,2.8563414E-2,1.5012482E-1,-5.6745774E-1,2.5332996E-1,-1.0995406E0,8.385236E-1,-9.388971E-3,-3.268471E-2,4.469927E-3,3.210682E-2,-3.1492572E-2,1.1900419E0,9.164567E-3,-3.199084E-2,7.173424E-3,4.0941665E-1,-7.062455E-1,-9.707532E-1,6.1315775E-1,-2.4612784E-2,3.2773107E-2,-1.2148161E0,1.6137201E-2,9.8906875E-1,8.4766E-3,9.108844E-3,3.8442504E-2,-1.1409437E-2,1.8727439E-2,-3.2556143E-2,3.2224958E-3,-1.2821198E-2,-3.9734196E-2,-8.043835E-3,3.5051286E-2,-3.8594164E-2,-4.2173634E-3,3.627746E-2,9.244757E-3,2.6048908E-2,-2.830042E-2],"categories":[],"categories_nodes":[],"categories_segments":[],"categories_sizes":[],"default_left":[0,0,0,0,0,0,0,0,0,0,0,0,0,0,0,0,0,0,0,0,0,0,0,0,0,0,0,0,0,0,0,0,0,0,0,0,0,0,0,0,0,0,0,0,0,0,0,0,0,0,0,0,0,0,0,0,0],"id":26,"left_children":[1,3,5,-1,7,9,11,13,15,17,19,21,23,25,27,29,-1,31,33,35,37,39,-1,-1,-1,-1,-1,41,-1,-1,-1,43,45,47,49,-1,-1,51,-1,53,55,-1,-1,-1,-1,-1,-1,-1,-1,-1,-1,-1,-1,-1,-1,-1,-1],"loss_changes":[1.1786739E1,6.4440584E0,1.1893E1,0E0,3.5552673E0,1.4490709E1,6.8271165E0,2.376894E0,3.7601955E0,9.605427E0,5.233349E0,2.36267E0,1.4962456E0,6.992485E0,5.5524635E-1,1.7992134E0,0E0,1.4844217E1,1.3015549E1,4.4254193E0,4.683962E0,2.4426804E0,0E0,0E0,0E0,0E0,0E0,7.671566E-1,0E0,0E0,0E0,8.88111E0,4.9271097E0,3.2455235E0,3.8630939E0,0E0,0E0,1.3783131E0,0E0,2.1153069E0,4.109074E0,0E0,0E0,0E0,0E0,0E0,0E0,0E0,0E0,0E0,0E0,0E0,0E0,0E0,0E0,0E0,0E0],"parents":[2147483647,0,0,1,1,2,2,4,4,5,5,6,6,7,7,8,8,9,9,10,10,11,11,12,12,13,13,14,14,15,15,17,17,18,18,19,19,20,20,21,21,27,27,31,31,32,32,33,33,34,34,37,37,39,39,40,40],"right_children":[2,4,6,-1,8,10,12,14,16,18,20,22,24,26,28,30,-1,32,34,36,38,40,-1,-1,-1,-1,-1,42,-1,-1,-1,44,46,48,50,-1,-1,52,-1,54,56,-1,-1,-1,-1,-1,-1,-1,-1,-1,-1,-1,-1,-1,-1,-1,-1],"split_conditions":[-1.315E4,9.3367256E-5,9.826667E3,-3.0001694E-2,2.5873337E1,9.733333E2,1.895E4,7.1277417E-4,2.0069224E-3,8.164734E-4,5.3166714E0,4.142154E1,3.1758334E4,1.7023166E4,-1.67E4,